<?xml version="1.0"?>
<opencv_storage>
<opencv_ml_ann_mlp>
  <format>3</format>
  <layer_sizes>
    900 128 128 128 1</layer_sizes>
  <activation_function>SIGMOID_SYM</activation_function>
  <f_param1>1.</f_param1>
  <f_param2>1.</f_param2>
  <min_val>-9.4999999999999996e-01</min_val>
  <max_val>9.4999999999999996e-01</max_val>
  <min_val1>-9.7999999999999998e-01</min_val1>
  <max_val1>9.7999999999999998e-01</max_val1>
  <training_params>
    <train_method>BACKPROP</train_method>
    <dw_scale>1.0000000000000000e-03</dw_scale>
    <moment_scale>1.0000000000000001e-01</moment_scale>
    <term_criteria>
      <epsilon>1.0000000000000000e-04</epsilon>
      <iterations>10000</iterations></term_criteria></training_params>
  <input_scale>
    1. 0. 1. 0. 1. 0. 1. 0. 1. 0. 1. 0. 1. 0. 1. 0. 1. 0. 1. 0. 1. 0. 1.
    0. 1. 0. 1. 0. 1. 0. 1. 0. 1. 0. 1. 0. 1. 0. 1. 0. 1. 0. 1. 0. 1. 0.
    1. 0. 1. 0. 1. 0. 1. 0. 1. 0. 1. 0. 1. 0. 1. 0. 1. 0. 1. 0. 1. 0. 1.
    0. 1. 0. 1. 0. 1. 0. 1. 0. 1. 0. 1. 0. 1. 0. 1. 0. 1. 0. 1. 0. 1. 0.
    1. 0. 1. 0. 1. 0. 1. 0. 1. 0. 1. 0. 1. 0. 1. 0. 1. 0. 1. 0. 1. 0. 1.
    0. 1. 0. 1. 0. 1. 0. 1. 0. 1. 0. 1. 0. 1. 0. 1. 0. 1. 0. 1. 0. 1. 0.
    1. 0. 1. 0. 1. 0. 1. 0. 1. 0. 6.2129828482791943e-02
    -6.3372425052447778e-02 6.2129828482791943e-02
    -6.3372425052447778e-02 1. 0. 1. 0. 1. 0. 8.7776760987420627e-02
    -4.4766148103584522e-02 3.6015605802482600e-02
    -1.1020775375559676e-01 6.2129828482791943e-02
    -6.3372425052447778e-02 1. 0. 1. 0. 1. 0. 1. 0. 1. 0. 1. 0. 1. 0. 1.
    0. 1. 0. 1. 0. 1. 0. 1. 0. 1. 0. 6.2129828482791943e-02
    -6.3372425052447778e-02 9.8598188029553856e-03
    -4.9530799756646376e-01 1.0514268984330671e-02
    -2.2333884463065994e+00 1.0163597874459928e-02
    -2.1200248806335966e+00 1.2739081836049914e-02
    -3.4433738202842917e-01 6.2129828482791943e-02
    -6.3372425052447778e-02 1. 0. 1. 0. 9.9367507828591831e-03
    -4.8903718977841470e-01 1.2792447766954561e-02
    -2.9195563916132046e+00 1.2246294310161526e-02
    -2.7605596633966112e+00 1.3189961046162777e-02
    -3.2961712654360775e-01 1. 0. 1. 0. 4.4020907359503647e-02
    -8.9802651013387441e-02 1.1982091901812300e-02
    -3.7276287906538064e-01 8.5739931353535810e-03
    -1.5348305111596445e+00 9.0089369509629182e-03
    -1.7137700761816759e+00 1.5369839248423934e-02
    -2.7435163058436723e-01 1. 0. 1. 0. 1. 0. 1. 0. 1. 0. 1. 0. 1. 0. 1.
    0. 1. 0. 1. 0. 1. 0. 3.9413247657224003e-02 -1.0050378152592120e-01
    7.8859001481346429e-03 -9.0088523292290157e-01
    1.7350714810519557e-02 -4.1855129337416326e+00
    6.2129828482791020e-02 -1.5779733838059263e+01
    8.1456646144326267e-03 -7.5815773398831676e-01
    2.6734930026805628e-02 -1.4998295745037957e-01 1. 0.
    8.7776760987420627e-02 -4.4766148103584522e-02
    1.2292473028026470e-02 -2.7741038505998739e+00 1. -255. 1. -255.
    8.7532397283794725e-03 -1.6115589663919447e+00 1. 0. 1. 0.
    2.6734930026805628e-02 -1.4998295745037957e-01
    7.9982725852539432e-03 -1.2196565865253739e+00
    3.3377772041578199e-02 -8.3921732244140070e+00
    1.6022560060309159e-02 -3.8242646351945901e+00
    8.2272863244386915e-03 -7.3218734644342143e-01
    8.7776760987420627e-02 -4.4766148103584522e-02 1. 0. 1. 0. 1. 0. 1.
    0. 1. 0. 1. 0. 1. 0. 1. 0. 1. 0. 1. 0. 4.4020907359503647e-02
    -8.9802651013387441e-02 8.0960578411158196e-03
    -7.7625002580618474e-01 1.7993390891808767e-02
    -4.3588989435406740e+00 8.7776760987424401e-02
    -2.2338307903689635e+01 7.8946041555083800e-03
    -8.9181395842700417e-01 2.6734930026805628e-02
    -1.4998295745037957e-01 1. 0. 2.0510700131577877e-02
    -1.9874868427498962e-01 2.4643005112759964e-02
    -6.1205831798561920e+00 1. -255. 1. -255. 1.2067793233267914e-02
    -2.7080128015453200e+00 5.0779801886634370e-02
    -7.7693096886550586e-02 1. 0. 2.1050870143817998e-02
    -1.9324698792024922e-01 8.9857300870927262e-03
    -1.7047727121232319e+00 4.4020907359503751e-02
    -1.1135528725660070e+01 1.3568223275910720e-02
    -3.1415864173043682e+00 1.2533387688246923e-02
    -3.5156152465532620e-01 5.0779801886634370e-02
    -7.7693096886550586e-02 1. 0. 1. 0. 1. 0. 1. 0. 1. 0. 1. 0. 1. 0. 1.
    0. 1. 0. 1. 0. 5.0779801886634370e-02 -7.7693096886550586e-02
    8.3272680864646675e-03 -7.0498651620009878e-01
    1.6777234367203540e-02 -4.0300594673459624e+00
    6.2129828482791020e-02 -1.5779733838059263e+01
    7.8624238484207229e-03 -1.0726311735207972e+00
    2.2988642421982321e-02 -1.7586311452816475e-01
    8.7776760987420627e-02 -4.4766148103584522e-02
    1.2846627901003901e-02 -3.4069257193462343e-01
    3.6015605802482628e-02 -9.0737717258774726e+00 1. -255. 1. -255.
    1.7662573376835806e-02 -4.2697504881162880e+00
    3.9413247657224003e-02 -1.0050378152592120e-01
    4.4020907359503647e-02 -8.9802651013387441e-02
    1.6022560060309152e-02 -2.6148818018424536e-01
    9.9564272512547500e-03 -2.0514222708485286e+00
    2.9496319111537432e-02 -7.3861732687200883e+00
    1.1301772896161475e-02 -2.4784787961282118e+00
    1.7662573376835782e-02 -2.3420572297684247e-01 1. 0. 1. 0. 1. 0. 1.
    0. 1. 0. 1. 0. 1. 0. 1. 0. 1. 0. 1. 0. 1. 0. 8.7776760987420627e-02
    -4.4766148103584522e-02 9.5296052862713122e-03
    -5.2489065916782385e-01 1.5794810278299116e-02
    -3.7618499639825003e+00 6.2129828482791020e-02
    -1.5779733838059263e+01 8.4568627492852422e-03
    -1.4815155007335352e+00 2.0012171101169755e-02
    -2.0412414523193148e-01 2.9496319111537529e-02
    -1.3538810472195725e-01 8.8229010781523173e-03
    -6.0970657900571590e-01 8.7776760987424401e-02
    -2.2338307903689635e+01 1. -255. 1. -255. 4.4020907359503751e-02
    -1.1135528725660070e+01 1.6512782766010176e-02
    -2.5264557631995571e-01 2.5622959484770426e-02
    -1.5681251204679500e-01 1.2634716879527110e-02
    -3.4796010286217660e-01 1.2155827355819219e-02
    -2.7339671305973003e+00 2.6734930026805593e-02
    -6.6674241993850467e+00 9.3185971867011247e-03
    -1.8297065576087659e+00 2.2281639928698752e-02
    -1.8181818181818182e-01 1. 0. 1. 0. 1. 0. 1. 0. 1. 0. 1. 0. 1. 0. 1.
    0. 1. 0. 1. 0. 1. 0. 8.7776760987420627e-02 -4.4766148103584522e-02
    9.9963282732270925e-03 -4.8432210483785265e-01
    1.4455093740676184e-02 -3.3911649915626327e+00
    8.7776760987424401e-02 -2.2338307903689635e+01
    9.8410183201060476e-03 -2.0125866566448876e+00
    1.4214647865780973e-02 -3.0085302207925430e-01
    1.9120732916108069e-02 -2.1453462331873255e-01
    7.8736834093533770e-03 -1.0922373625455004e+00
    8.7776760987424401e-02 -2.2338307903689635e+01 1. -255. 1. -255.
    8.7776760987424401e-02 -2.2338307903689635e+01
    1.0724159374146641e-02 -4.3481104182477559e-01
    1.4373401410763445e-02 -2.9688260613931899e-01
    1.0120589938913406e-02 -4.7485807993381707e-01
    1.9120732916108059e-02 -4.6612522702888226e+00
    1.9776916851181634e-02 -4.8363461313722125e+00
    7.9507882339651999e-03 -1.1799764818027754e+00
    3.1253760444281284e-02 -1.2751534261266764e-01 1. 0. 1. 0. 1. 0. 1.
    0. 1. 0. 1. 0. 1. 0. 1. 0. 1. 0. 1. 0. 1. 0. 8.7776760987420627e-02
    -4.4766148103584522e-02 1.1012905314637630e-02
    -4.1843533742965672e-01 1.2200750242129724e-02
    -2.7471819282691392e+00 8.7776760987424401e-02
    -2.2338307903689635e+01 1.1585452244340964e-02
    -2.5643239997624288e+00 9.3763782686630687e-03
    -5.4036067962305268e-01 1.0696955403725117e-02
    -4.3643578047198472e-01 9.5946421235487342e-03
    -1.9279473883058826e+00 1. -255. 1. -255. 1. -255. 1. -255.
    8.3147552798673273e-03 -7.0816770718630029e-01
    9.8039215686274508e-03 -5.0000000000000000e-01
    7.9211486592821265e-03 -8.6855395049028516e-01
    3.3377772041578199e-02 -8.3921732244140070e+00
    1.7662573376835806e-02 -4.2697504881162880e+00
    8.0116143893614929e-03 -8.1309874437629792e-01
    4.4020907359503647e-02 -8.9802651013387441e-02 1. 0. 1. 0. 1. 0. 1.
    0. 1. 0. 1. 0. 1. 0. 1. 0. 1. 0. 1. 0. 1. 0. 1. 0.
    1.2111512581588295e-02 -3.6752384928829679e-01
    1.0415604944451144e-02 -2.2018068072322499e+00
    6.2129828482791020e-02 -1.5779733838059263e+01
    1.6777234367203540e-02 -4.0300594673459624e+00
    7.9793751641300485e-03 -8.3017419207609033e-01
    8.1135053665767239e-03 -7.6964711907346806e-01
    2.1050870143818002e-02 -5.1747248987533414e+00 1. -255. 1. -255. 1.
    -255. 1. -255. 7.8433882473418204e-03 -1.0080322575483709e+00
    8.0553048663419471e-03 -7.9288365799403793e-01
    1.0252125399436558e-02 -2.1489480049758969e+00
    4.4020907359503751e-02 -1.1135528725660070e+01
    1.6777234367203540e-02 -4.0300594673459624e+00
    8.6248542551829368e-03 -6.4220664784092141e-01
    8.7776760987420627e-02 -4.4766148103584522e-02 1. 0. 1. 0. 1. 0. 1.
    0. 1. 0. 1. 0. 1. 0. 1. 0. 1. 0. 1. 0. 1. 0. 1. 0.
    1.2686511026792290e-02 -3.4615145336602765e-01
    9.2765006016234768e-03 -1.8143443701685278e+00
    4.4020907359503751e-02 -1.1135528725660070e+01
    2.1050870143818002e-02 -5.1747248987533414e+00
    7.9304726885938270e-03 -1.1607832874294786e+00
    8.1699346405228763e-03 -1.3333333333333333e+00
    8.7776760987424401e-02 -2.2338307903689635e+01 1. -255. 1. -255. 1.
    -255. 1. -255. 8.2903425328704778e-03 -1.3994927229738654e+00
    7.8592495137889164e-03 -1.0661857890406043e+00
    3.3377772041578199e-02 -8.3921732244140070e+00
    3.9413247657223850e-02 -9.9498743710661604e+00
    1.4623356162900558e-02 -3.4380972674595505e+00
    1.0922953868176138e-02 -4.2337369193050706e-01
    8.7776760987420627e-02 -4.4766148103584522e-02 1. 0. 1. 0. 1. 0. 1.
    0. 1. 0. 1. 0. 1. 0. 1. 0. 1. 0. 1. 0. 1. 0. 1. 0.
    1.5269428693528434e-02 -2.7645300649633231e-01
    8.6781608816313190e-03 -1.5800327517186141e+00
    3.3377772041578199e-02 -8.3921732244140070e+00
    8.7776760987424401e-02 -2.2338307903689635e+01
    8.6423459357109784e-03 -1.5646967316604727e+00
    2.4643005112759964e-02 -6.1205831798561920e+00 1. -255. 1. -255. 1.
    -255. 1. -255. 1. -255. 1.6022560060309159e-02
    -3.8242646351945901e+00 8.2903425328704778e-03
    -1.3994927229738654e+00 5.0779801886634474e-02
    -1.2871156384205239e+01 3.9413247657223850e-02
    -9.9498743710661604e+00 1.2339300278026729e-02
    -2.7878181118145791e+00 1.3189961046162777e-02
    -3.2961712654360775e-01 8.7776760987420627e-02
    -4.4766148103584522e-02 1. 0. 1. 0. 1. 0. 1. 0. 1. 0. 1. 0. 1. 0. 1.
    0. 1. 0. 1. 0. 1. 0. 1. 0. 1.7201351502216182e-02
    -2.4124895481858197e-01 8.2552205127754165e-03
    -1.3809332873770717e+00 2.3771012008278049e-02
    -5.8918830363717980e+00 1. -255. 6.2129828482791020e-02
    -1.5779733838059263e+01 1. -255. 1. -255. 6.2129828482791020e-02
    -1.5779733838059263e+01 1.7993390891808767e-02
    -4.3588989435406740e+00 6.2129828482791020e-02
    -1.5779733838059263e+01 1. -255. 1. -255. 2.4643005112759964e-02
    -6.1205831798561920e+00 1. -255. 2.8011204481792736e-02
    -7.0000000000000044e+00 9.9762856356796267e-03
    -2.0580578452125287e+00 1.5577487342332412e-02
    -2.7011363051604403e-01 8.7776760987420627e-02
    -4.4766148103584522e-02 1. 0. 1. 0. 1. 0. 1. 0. 1. 0. 1. 0. 1. 0. 1.
    0. 1. 0. 1. 0. 1. 0. 1. 0. 1.9550254703895032e-02
    -2.0938322787871580e-01 8.0015518178092188e-03
    -1.2221970324112692e+00 1.8720037585823718e-02
    -4.5540235435033356e+00 1. -255. 1. -255. 1. -255. 1. -255.
    1.2434958074309827e-02 -2.8157719063467170e+00
    8.0116143893614912e-03 -1.2298629249108823e+00
    2.5622959484770398e-02 -6.3770421565696562e+00 1. -255. 1. -255. 1.
    -255. 8.7776760987424401e-02 -2.2338307903689635e+01
    2.2281639928698770e-02 -5.5000000000000044e+00
    8.5906818288331108e-03 -1.5421992019121202e+00
    1.8345127170713720e-02 -2.2454435656953595e-01
    8.7776760987420627e-02 -4.4766148103584522e-02 1. 0. 1. 0. 1. 0. 1.
    0. 1. 0. 1. 0. 1. 0. 1. 0. 1. 0. 1. 0. 1. 0. 1. 0.
    2.4643005112759939e-02 -1.6338312389759840e-01
    7.8723030592699472e-03 -1.0900384431018133e+00
    1.5577487342332408e-02 -3.7021456417787202e+00
    8.7776760987424401e-02 -2.2338307903689635e+01 1. -255. 1. -255. 1.
    -255. 8.0476345355858184e-03 -1.2559138456235228e+00
    7.8859001481346429e-03 -9.0088523292290157e-01
    1.0439899373823574e-02 -2.2096047024697594e+00
    5.0779801886634474e-02 -1.2871156384205239e+01 1. -255. 1. -255.
    6.2129828482791020e-02 -1.5779733838059263e+01
    1.7662573376835806e-02 -4.2697504881162880e+00
    8.0438583423887242e-03 -7.9791052827324949e-01
    2.1638731487683076e-02 -1.8760780199821225e-01 1. 0. 1. 0. 1. 0. 1.
    0. 1. 0. 1. 0. 1. 0. 1. 0. 1. 0. 1. 0. 1. 0. 1. 0. 1. 0.
    2.8011204481792715e-02 -1.4285714285714282e-01
    7.8435294411789216e-03 -1.0100505037878156e+00
    1.2739081836049914e-02 -2.9041284861642991e+00
    6.2129828482791020e-02 -1.5779733838059263e+01 1. -255. 1. -255.
    6.2129828482791020e-02 -1.5779733838059263e+01
    7.9081886877156865e-03 -8.7923241830023013e-01
    8.8127140354977897e-03 -6.1124984550212669e-01
    8.0185115165345849e-03 -1.2350111437766569e+00
    2.3771012008278049e-02 -5.8918830363717980e+00
    8.7776760987424401e-02 -2.2338307903689635e+01 1. -255.
    4.4020907359503751e-02 -1.1135528725660070e+01
    1.5577487342332408e-02 -3.7021456417787202e+00
    9.2086052314096691e-03 -5.5887025149425285e-01
    2.2988642421982321e-02 -1.7586311452816475e-01 1. 0. 1. 0. 1. 0. 1.
    0. 1. 0. 1. 0. 1. 0. 1. 0. 1. 0. 1. 0. 1. 0. 1. 0. 1. 0.
    2.9496319111537529e-02 -1.3538810472195725e-01
    7.8582553642037901e-03 -9.3980805028195225e-01
    1.0893624444779699e-02 -2.3528594757057433e+00
    4.4020907359503751e-02 -1.1135528725660070e+01 1. -255. 1. -255.
    1.6512782766010169e-02 -3.9581140290126373e+00
    8.9972873921790580e-03 -5.8504861267644326e-01
    1.2339300278026729e-02 -3.5870345908223705e-01
    7.8826495314448016e-03 -9.0453403373329100e-01
    1.5794810278299116e-02 -3.7618499639825003e+00
    8.7776760987424401e-02 -2.2338307903689635e+01 1. -255.
    3.1253760444281235e-02 -7.8421935706790471e+00
    1.3189961046162768e-02 -3.0338229402278980e+00
    1.1585452244340960e-02 -3.8996632254451669e-01
    2.6734930026805628e-02 -1.4998295745037957e-01 1. 0. 1. 0. 1. 0. 1.
    0. 1. 0. 1. 0. 1. 0. 1. 0. 1. 0. 1. 0. 1. 0. 1. 0. 1. 0.
    2.9496319111537529e-02 -1.3538810472195725e-01
    7.9886579261717761e-03 -8.2502864732539027e-01
    1.0099390178381068e-02 -2.0989057638220454e+00
    3.1253760444281235e-02 -7.8421935706790471e+00
    8.7776760987424401e-02 -2.2338307903689635e+01 1. -255.
    9.4209972851078058e-03 -1.8666292970848350e+00
    1.1660804577452012e-02 -3.8655567174253419e-01
    1.9120732916108069e-02 -2.1453462331873255e-01
    8.4867528747662683e-03 -6.6871369276720816e-01
    1.2739081836049914e-02 -2.9041284861642991e+00
    3.6015605802482628e-02 -9.0737717258774726e+00 1. -255.
    2.5622959484770398e-02 -6.3770421565696562e+00
    1.0893624444779699e-02 -2.3528594757057433e+00
    1.3189961046162777e-02 -3.2961712654360775e-01
    2.9496319111537529e-02 -1.3538810472195725e-01 1. 0. 1. 0. 1. 0. 1.
    0. 1. 0. 1. 0. 1. 0. 1. 0. 1. 0. 1. 0. 1. 0. 1. 0. 1. 0.
    3.3377772041578213e-02 -1.1915864618843422e-01
    8.9972873921790580e-03 -5.8504861267644326e-01
    9.4513741072697263e-03 -1.8774682095385948e+00
    3.1253760444281235e-02 -7.8421935706790471e+00
    8.7776760987424401e-02 -2.2338307903689635e+01 1. -255.
    8.0255609358551947e-03 -1.2401899314177032e+00
    1.5171187759563061e-02 -2.7854300726557779e-01
    2.5622959484770426e-02 -1.5681251204679500e-01
    1.0057585738167743e-02 -4.7959597592452885e-01
    1.0952606902800970e-02 -2.3711846314218961e+00
    2.9496319111537432e-02 -7.3861732687200883e+00
    8.7776760987424401e-02 -2.2338307903689635e+01
    2.0012171101169787e-02 -4.8989794855663638e+00
    8.3024475600584468e-03 -1.4057704208690962e+00
    1.5369839248423934e-02 -2.7435163058436723e-01
    2.9496319111537529e-02 -1.3538810472195725e-01 1. 0. 1. 0. 1. 0. 1.
    0. 1. 0. 1. 0. 1. 0. 1. 0. 1. 0. 1. 0. 1. 0. 1. 0. 1. 0.
    4.4020907359503647e-02 -8.9802651013387441e-02
    9.7856212208855386e-03 -5.0156201567648828e-01
    8.9972873921790580e-03 -1.7092596723292164e+00
    2.9496319111537432e-02 -7.3861732687200883e+00
    6.2129828482791020e-02 -1.5779733838059263e+01 1. -255.
    8.0150439867384075e-03 -8.1140297799746264e-01
    1.7350714810519571e-02 -2.3891934294085448e-01
    4.4020907359503647e-02 -8.9802651013387441e-02
    1.1074563982947419e-02 -4.1513003090078399e-01
    9.5456555986286312e-03 -1.9108016094554863e+00
    2.1638731487683104e-02 -5.3302687273609788e+00
    6.2129828482791020e-02 -1.5779733838059263e+01
    1.7993390891808767e-02 -4.3588989435406740e+00
    7.8521881920453392e-03 -1.0492093862210983e+00
    1.6777234367203544e-02 -2.4813529629094039e-01
    2.9496319111537529e-02 -1.3538810472195725e-01 1. 0. 1. 0. 1. 0. 1.
    0. 1. 0. 1. 0. 1. 0. 1. 0. 1. 0. 1. 0. 1. 0. 1. 0. 1. 0.
    5.0779801886634370e-02 -7.7693096886550586e-02
    1.0367737987726834e-02 -4.5737276132856930e-01
    8.8026065496217883e-03 -1.6318712152016353e+00
    2.3771012008278049e-02 -5.8918830363717980e+00
    5.0779801886634474e-02 -1.2871156384205239e+01
    1.8345127170713689e-02 -4.4534630719624548e+00
    8.8229010781523173e-03 -6.0970657900571590e-01
    2.0012171101169755e-02 -2.0412414523193148e-01
    5.0779801886634370e-02 -7.7693096886550586e-02
    1.3189961046162777e-02 -3.2961712654360775e-01
    8.7629591343625322e-03 -1.6155829608067482e+00
    1.8720037585823718e-02 -4.5540235435033356e+00
    3.1253760444281235e-02 -7.8421935706790471e+00
    1.6261573095490849e-02 -3.8896056687104563e+00
    8.7245334971041959e-03 -6.2515644773500112e-01
    1.7056102956843653e-02 -2.4356115022372735e-01
    3.6015605802482600e-02 -1.1020775375559676e-01 1. 0. 1. 0. 1. 0. 1.
    0. 1. 0. 1. 0. 1. 0. 1. 0. 1. 0. 1. 0. 1. 0. 1. 0. 1. 0.
    8.7776760987420627e-02 -4.4766148103584522e-02
    1.0893624444779695e-02 -4.2501475771307978e-01
    8.5657464792763555e-03 -1.5311700119030449e+00
    2.1050870143818002e-02 -5.1747248987533414e+00
    3.9413247657223850e-02 -9.9498743710661604e+00
    1.1475850491663973e-02 -2.5312857221987808e+00
    9.7674835655431197e-03 -5.0312307846112603e-01
    2.2988642421982321e-02 -1.7586311452816475e-01
    5.0779801886634370e-02 -7.7693096886550586e-02
    1.6512782766010176e-02 -2.5264557631995571e-01
    8.4716891926773733e-03 -1.4884334327074511e+00
    1.6022560060309159e-02 -3.8242646351945901e+00
    2.4643005112759964e-02 -6.1205831798561920e+00
    1.5269428693528441e-02 -3.6172513103534203e+00
    9.5618441299266371e-03 -5.2178983417009661e-01
    1.7662573376835782e-02 -2.3420572297684247e-01
    3.9413247657224003e-02 -1.0050378152592120e-01 1. 0. 1. 0. 1. 0. 1.
    0. 1. 0. 1. 0. 1. 0. 1. 0. 1. 0. 1. 0. 1. 0. 1. 0. 1. 0. 1. 0.
    1.1475850491663976e-02 -3.9505615317553233e-01
    8.4208139522384592e-03 -1.4644637544337904e+00
    1.7662573376835806e-02 -4.2697504881162880e+00
    3.6015605802482628e-02 -9.0737717258774726e+00
    9.6449156701013169e-03 -1.9454277152377863e+00
    1.1169704689945477e-02 -4.1015155621479787e-01
    2.2988642421982321e-02 -1.7586311452816475e-01
    5.0779801886634370e-02 -7.7693096886550586e-02
    1.7350714810519571e-02 -2.3891934294085448e-01
    8.1552408355022726e-03 -1.3246965451148116e+00
    1.4623356162900558e-02 -3.4380972674595505e+00
    2.2988642421982314e-02 -5.6862407030773250e+00
    1.1699192498489119e-02 -2.5984491498769255e+00
    1.0807526200907457e-02 -4.2992339227209864e-01
    1.8345127170713720e-02 -2.2454435656953595e-01
    3.9413247657224003e-02 -1.0050378152592120e-01 1. 0. 1. 0. 1. 0. 1.
    0. 1. 0. 1. 0. 1. 0. 1. 0. 1. 0. 1. 0. 1. 0. 1. 0. 1. 0. 1. 0.
    1.2292473028026468e-02 -3.6047677154687618e-01
    8.1504309024176772e-03 -1.3218368837540990e+00
    1.4137494198040289e-02 -3.3022358947782511e+00
    3.1253760444281235e-02 -7.8421935706790471e+00
    8.0917996476564721e-03 -1.2855037510249454e+00
    1.3071895424836602e-02 -3.3333333333333337e-01
    2.6734930026805628e-02 -1.4998295745037957e-01
    5.0779801886634370e-02 -7.7693096886550586e-02
    1.7993390891808767e-02 -2.2941573387056177e-01
    7.8432784351844288e-03 -9.9401789248309858e-01
    1.3437912037174383e-02 -3.1045608179483977e+00
    1.7350714810519557e-02 -4.1855129337416326e+00
    9.6449156701013169e-03 -1.9454277152377863e+00
    1.3071895424836602e-02 -3.3333333333333337e-01
    1.9550254703895032e-02 -2.0938322787871580e-01
    4.4020907359503647e-02 -8.9802651013387441e-02 1. 0. 1. 0. 1. 0. 1.
    0. 1. 0. 1. 0. 1. 0. 1. 0. 1. 0. 1. 0. 1. 0. 1. 0. 1. 0. 1. 0.
    1.3772273154264100e-02 -3.1256173923602376e-01
    7.9793751641300485e-03 -1.2045664747770721e+00
    1.2434958074309827e-02 -2.8157719063467170e+00
    2.1050870143818002e-02 -5.1747248987533414e+00
    7.8494193041709383e-03 -1.0408329997330663e+00
    1.5577487342332412e-02 -2.7011363051604403e-01
    3.1253760444281284e-02 -1.2751534261266764e-01
    6.2129828482791943e-02 -6.3372425052447778e-02
    2.0510700131577877e-02 -1.9874868427498962e-01
    7.9534858855319739e-03 -8.4573392163804240e-01
    1.1137629355354379e-02 -2.4282816402011385e+00
    1.3311898200822764e-02 -3.0686587732536634e+00
    8.0291431112868121e-03 -1.2427909164805291e+00
    1.4980919362668885e-02 -2.8268994837356187e-01
    2.8011204481792715e-02 -1.4285714285714282e-01
    6.2129828482791943e-02 -6.3372425052447778e-02 1. 0. 1. 0. 1. 0. 1.
    0. 1. 0. 1. 0. 1. 0. 1. 0. 1. 0. 1. 0. 1. 0. 1. 0. 1. 0. 1. 0.
    3.1253760444281284e-02 -1.2751534261266764e-01
    8.7826276228369308e-03 -6.1588176205143974e-01
    8.3529188307720232e-03 -1.4313561708410940e+00
    8.3085759351038818e-03 -1.4089267641952408e+00
    1.0344158626130818e-02 -4.5897031824142437e-01
    2.1638731487683076e-02 -1.8760780199821225e-01
    4.4020907359503647e-02 -8.9802651013387441e-02
    8.7776760987420627e-02 -4.4766148103584522e-02
    3.3377772041578213e-02 -1.1915864618843422e-01
    1.0464439112156262e-02 -4.5096500353837410e-01
    8.4422703754330284e-03 -1.4746535778287644e+00
    8.9628889167271963e-03 -1.6958682119339530e+00
    1.0864613409398859e-02 -4.2665336858709324e-01
    2.4643005112759939e-02 -1.6338312389759840e-01
    6.2129828482791943e-02 -6.3372425052447778e-02 1. 0. 1. 0. 1. 0. 1.
    0. 1. 0. 1. 0. 1. 0. 1. 0. 1. 0. 1. 0. 1. 0. 1. 0. 1. 0. 1. 0. 1. 0.
    1. 0. 1. 0. 4.4020907359503647e-02 -8.9802651013387441e-02
    5.0779801886634370e-02 -7.7693096886550586e-02
    8.7776760987420627e-02 -4.4766148103584522e-02 1. 0. 1. 0. 1. 0. 1.
    0. 1. 0. 1. 0. 1. 0. 1. 0. 1. 0. 1. 0. 1. 0. 1. 0. 1. 0. 1. 0. 1. 0.
    1. 0. 1. 0. 1. 0. 1. 0. 1. 0. 1. 0. 1. 0. 1. 0. 1. 0. 1. 0. 1. 0. 1.
    0. 1. 0. 1. 0. 1. 0. 1. 0. 1. 0. 1. 0. 1. 0. 1. 0. 1. 0. 1. 0. 1. 0.
    1. 0. 1. 0. 1. 0. 1. 0. 1. 0. 1. 0. 1. 0. 1. 0. 1. 0. 1. 0. 1. 0. 1.
    0. 1. 0. 1. 0. 1. 0. 1. 0. 1. 0. 1. 0. 1. 0. 1. 0. 1. 0. 1. 0. 1. 0.
    1. 0. 1. 0. 1. 0. 1. 0. 1. 0. 1. 0. 1. 0. 1. 0. 1. 0. 1. 0. 1. 0. 1.
    0. 1. 0. 1. 0. 1. 0. 1. 0. 1. 0.</input_scale>
  <output_scale>
    1. 1.</output_scale>
  <inv_output_scale>
    1. -1.</inv_output_scale>
  <weights>
    <_>
      -2.1012431188922849e-03 1.6500640783901778e-04
      -2.1050741863159234e-03 -2.8330420803991549e-04
      -1.7497866325483608e-03 -1.1360705618402565e-04
      -2.3716312493712573e-04 2.1899630060444480e-03
      -3.8524192872751799e-05 -2.0516826210895673e-03
      -1.4290679415722976e-03 1.3509986972244361e-03
      1.9434822366494661e-03 8.4050933546258460e-04
      -2.4020269604896861e-04 -1.6194185341920097e-03
      -4.9697048331933367e-04 1.6082954203635238e-03
      -3.1125049055219468e-04 -6.1329714756130623e-04
      -5.7555047389206435e-04 -1.4643065666750336e-03
      -1.9682026995222614e-03 7.2910314383659014e-04
      3.3774361486605032e-04 1.9385685856821251e-03
      -1.8862501216252016e-03 1.1431533361296123e-03
      7.7298123550537264e-04 -2.0874179136128692e-03
      5.8939352711657826e-04 -7.4074927015220081e-04
      -1.1270640777148349e-03 7.6523025049502933e-04
      -3.6887414493218495e-04 -1.8010382731660762e-04
      -2.1186630791958389e-03 1.8843830578081874e-03
      1.1526183064252519e-03 2.0143755608404562e-03
      1.5011738008524301e-03 2.1714965364205986e-04
      9.9355922195829027e-04 1.2278455093577584e-03
      -3.5439359258942197e-04 2.6881442380065140e-04
      1.2867073619899176e-03 1.3112304979860470e-03
      -1.7470652476291731e-03 6.1263447786608278e-04
      1.9982346612267910e-03 -1.6538350412026155e-03
      -9.7690107731839980e-04 -1.8170375652963547e-03
      8.6651351958741884e-04 -2.1119206358564506e-03
      6.7099426052637451e-04 1.0743818463486083e-03
      1.2129908860019814e-03 1.3510798461108108e-03
      -1.4026154301809255e-03 1.6888344981112554e-04
      5.4287031582513697e-04 1.3555684926158957e-03
      -1.9754012674549569e-03 6.3455388537964985e-04
      -9.7337427856105101e-04 1.7884133348913696e-03
      -2.1814997534320567e-03 -1.4082703826752828e-03
      1.8163939900804522e-03 1.5974496005643627e-03
      -5.8523572212676401e-04 -1.3178762549623457e-03
      -1.6259581209009785e-03 -2.1263870377140870e-03
      -7.9603303837248122e-04 1.1054798551665186e-04
      -2.0372331352333651e-03 3.2190870849128027e-04
      -1.5338484615007285e-03 1.1253902207678111e-03
      1.3757281427041433e-03 8.3891991106093420e-04
      5.0158604036187719e-04 -1.3281568275708873e-03
      -1.2180970134912960e-03 -8.8169077814727944e-04
      5.6301689098606450e-04 2.1934085209798906e-04
      3.1812847160273374e-04 8.5910292797762805e-04
      -2.2845250200227027e-04 -5.8028192726731890e-04
      -1.0471882937517461e-03 -2.0311823657316202e-03
      -7.4601268316267020e-04 -1.2494647605562693e-03
      -1.3221568640978630e-03 -1.0622578145512230e-03
      1.8933276562951324e-03 -2.0968551900729434e-03
      1.1130576346075507e-03 6.0461400773291615e-04
      -1.0352272984407295e-03 2.8347579270723665e-04
      6.8413396398841271e-04 -2.0130020140066525e-03
      2.0002886225568180e-03 9.6445085337539128e-06
      -7.9805315166156748e-04 -1.5829764567604557e-03
      1.9855302462402696e-03 1.2637254775017565e-03
      1.3341950601101027e-03 -1.3613683601907548e-03
      2.0738029611745389e-03 -3.3577815313983513e-04
      -8.1188101199474133e-04 2.1379714243176602e-03
      -7.6466093417694285e-05 -1.6255175074521764e-03
      9.0402422439949932e-04 -1.8892667678931704e-04
      -1.5721670025192539e-03 -1.1397211452534349e-03
      -1.1185385808953959e-03 -6.0781201789040498e-04
      4.4876759002468740e-04 9.6082190682350197e-04
      -3.6387868546304455e-04 -2.1586526641506694e-03
      2.2740319054665300e-03 9.5240451824103864e-04
      2.3629048722660206e-04 1.7076093996806611e-03
      -1.5548801495491875e-03 -1.9882457803635967e-03
      -1.1319461664090398e-03 -4.4927309043347438e-04
      -1.4745641943347270e-03 8.1757744383802644e-04
      -5.3348758305808133e-04 -2.0295179568627681e-03
      -7.8784172190963662e-04 -1.3027305840613446e-03
      -6.1671374508949039e-04 1.1851363152924282e-05
      3.8352034267889252e-04 -1.2777061978225741e-03
      1.6691566772996392e-04 -1.7622740690630201e-03
      -2.1538461848052671e-03 -3.6829703733754453e-04
      1.2640957805127082e-04 8.0697372096288314e-05
      -1.2056089192032161e-03 2.5199543701549408e-04
      3.5390502219233907e-04 -9.9229716392544185e-04
      9.5368064172700112e-04 -7.7868830989682276e-04
      -1.3512643717663176e-03 1.7771439325739199e-03
      -6.4292838850500689e-04 -2.4336889583399090e-05
      -2.4307417777756095e-04 1.4016997716385939e-03
      1.7879009171761738e-03 7.8989576688857129e-04
      8.4888138577434054e-04 -1.4755169890921589e-03
      1.4070161218568750e-04 1.7600136384006136e-03
      -5.4328296757011948e-04 -6.0399894167424543e-04
      1.7149786928626731e-03 -2.0689682317845915e-03
      -6.6678686169527378e-04 -5.3133067324200641e-04
      6.5826757453616813e-04 1.5925877361545274e-03
      2.3597019790447873e-04 1.9536864412665372e-03
      -1.1003780406675775e-03 -1.6393858887665872e-03
      -1.7962997878309399e-03 1.4492607104352268e-04
      -1.0451519928171907e-03 -3.4470686963317826e-04
      1.7519966202771806e-03 -9.1041342881910631e-04
      2.3016599236625078e-04 -1.0433470643532226e-03
      -1.1307479350041473e-03 2.9722111777264912e-05
      -7.7574874598707109e-04 -1.9239542004407708e-03
      -1.3704457239597488e-03 -3.9994966996666329e-04
      -1.0085710833169280e-03 -9.9748053403443042e-04
      5.9096589131263767e-04 -2.7823562411648679e-04
      1.5727448210062053e-03 1.5674905210408033e-03
      1.4235294797634987e-03 -7.9085321757594597e-04
      -3.7695158887390341e-04 -6.3399679421033720e-04
      -4.9485385443088484e-04 6.8477171840974950e-05
      9.9933738527578403e-04 1.6341620066348485e-03
      -2.1607074574191238e-03 -3.6858482045170341e-04
      -7.3932269928367550e-04 1.1038862799935382e-03
      -4.8804956029057137e-04 4.0701053741184505e-05
      4.7892034686698498e-04 -8.7789906364346508e-04
      -1.0443063112330047e-03 -5.7410765724756922e-04
      -5.7621214557278494e-04 2.3092409546501872e-03
      -6.3051722789346466e-04 -1.3638739648262413e-03
      1.1414741650795336e-03 -7.3431462585372563e-05
      8.1376532590317265e-04 -2.0368997928449394e-03
      2.6713115809841027e-04 -8.3865005748830245e-04
      -7.0158435264745930e-04 -3.7959398183406263e-04
      -9.2209142387318784e-04 -1.4399883285338437e-04
      1.1045509939582991e-03 -2.0021243824850147e-03
      3.3650617296441285e-04 -1.1326348886359918e-03
      -1.3765060921464537e-03 -1.9634683600804372e-03
      -1.3608294159468210e-04 1.8070748795707737e-03
      -1.4541932978908499e-03 1.9197295018618281e-03
      -6.1028092984170823e-04 -1.9794562279480789e-03
      -1.8676009476843527e-03 1.1843931597647513e-03
      1.5628494572108641e-03 1.3731231392902698e-03
      1.7458390888399451e-03 -9.8853861509741824e-05
      -1.1115644986543906e-03 1.6668139281796656e-03
      6.6094540454118909e-04 -9.1050756976060715e-04
      -2.1141495692843975e-03 1.8342235966896589e-03
      -1.6810119414337611e-03 6.8793889385008848e-04
      1.8742812319621567e-03 -6.6983183379722470e-04
      -3.0441369373912367e-04 4.3399583821824710e-04
      6.3273879537746635e-04 -2.1086521490567456e-03
      1.1213881868152409e-03 5.2585076211619406e-04
      -1.6052614375507009e-03 1.5476274789860396e-03
      6.5413970860638275e-04 -4.2062534564123270e-04
      2.0858598133882515e-03 1.6627153994016913e-03
      -9.6432050493510237e-04 1.4806001516086108e-04
      -5.2904278046332794e-04 -4.6255542903033797e-04
      -1.6107725286183636e-03 1.0116143771977139e-03
      -1.4594218116187647e-04 2.2063371221733036e-03
      1.7002394470292640e-03 -2.1866870258254014e-03
      -1.9309468415321847e-03 2.0728330079244519e-03
      -2.1292861619467865e-03 8.2296864206797321e-04
      -8.0349186525199487e-04 -3.4277463192822601e-04
      9.2734997690129602e-04 -1.5117397453207010e-03
      -1.7768170533969943e-03 1.7802448651487843e-03
      3.7286096237680165e-04 -2.0944248906190365e-03
      -2.2941921966712652e-04 2.0857521867367812e-03
      -1.8391674942068660e-03 1.1472636269997186e-03
      -2.9010857768831046e-04 1.5076647265543908e-03
      1.1136377839411941e-03 -1.7593312980760014e-03
      -4.5689622901989326e-04 2.2619391130631857e-03
      1.6212528273607529e-03 -1.4879314126160540e-03
      -7.5332986648414069e-04 1.1107422101755086e-03
      -1.6165019114824036e-04 1.8011614217736382e-05
      -9.4127342143801639e-04 6.8879651508844822e-04
      8.7955030656377604e-05 -1.5707389864595583e-03
      -3.0979351748544793e-04 1.7817296970677255e-03
      -1.7943452757275236e-03 1.3104114436943083e-03
      -1.2506614546771689e-03 6.9075028795268726e-04
      -1.7976383232184336e-04 6.7318627629464308e-04
      1.8578717636170588e-03 1.7343681170986526e-03
      -3.4262204053816625e-04 -4.2888327165589382e-04
      -8.4890655593719848e-04 -1.3962927598644432e-03
      -1.9821387931935547e-03 -1.8546435463528206e-03
      2.1448305565336563e-03 9.4485688281199700e-04
      5.1202389482209556e-04 6.4845107187025457e-05
      -1.8592017575363661e-03 6.6039178375937692e-04
      5.0303628628747268e-04 -1.5886559601042197e-03
      9.5162225347887066e-04 8.7219156027277720e-04
      -3.6240417819664443e-04 1.8007110477088544e-03
      -2.1970420707047014e-03 1.4328821970830458e-03
      -2.2604922161667969e-03 -1.5760201846813547e-03
      -1.6158416191750875e-03 -5.2208094530145155e-04
      1.4942222712133850e-03 -2.0278997574134376e-03
      2.1080748213320546e-03 -1.9759977334816623e-03
      1.9403881054565009e-03 -7.3720267316690271e-04
      -3.4462438629100756e-04 -1.0922627656490824e-03
      1.9038808594753741e-03 -1.8660893187624813e-03
      1.7819412523578304e-03 -4.3836991988683237e-04
      1.0644164029267227e-03 -6.2111189880631457e-04
      -8.6640955075384396e-04 1.7725678905049999e-03
      -2.2025674078989657e-04 2.1798187698084939e-03
      -1.6064692886074276e-03 -6.7009663764742056e-04
      -2.1462303067043800e-03 -7.0452166704996219e-04
      -1.7162605217909718e-03 1.4877501808979805e-03
      1.4606980746492536e-05 2.1109578128563357e-03
      -5.1178367800329752e-04 4.7307993238468427e-04
      -1.0898234762127866e-03 1.2625620550086136e-03
      -2.1387663030588747e-03 8.2298588369096571e-04
      -2.5002229026456621e-04 1.4019563319811453e-03
      -1.6675789451492103e-03 2.0305435285175835e-03
      5.7843191403173454e-04 1.9592977633294119e-03
      -1.0835752965888025e-04 1.2744836785365742e-03
      -1.4009040090595874e-03 -2.1388634214269064e-03
      -8.0380849932146282e-05 1.9845711422435959e-03
      2.1137342337464830e-03 -1.5631178013390484e-03
      -1.3989217953380294e-03 9.2257656833858554e-04
      -8.7367365332181282e-04 -2.1195080354755387e-03
      3.4785196145997087e-04 -9.1173648329299450e-04
      1.8839853458718259e-03 -1.8083878094489925e-03
      -9.5615724470331264e-04 1.5518847861908020e-03
      -1.4119919409814772e-03 -1.7897714428638356e-03
      -3.2500327495003293e-04 2.2180678865619287e-03
      -7.4549960746281014e-04 -1.5577224756349048e-03
      -6.4326655204916905e-04 -1.2105564863069901e-03
      -5.2746778098741525e-04 -1.0308781253633131e-03
      -5.1999514454610456e-04 -1.1273250756098571e-03
      1.7638890370401695e-04 -6.0341035646643457e-04
      1.1730861721177674e-03 -1.0620211130292427e-03
      -1.8500053063507853e-03 -4.0645089917408283e-04
      -3.8797807947882709e-04 6.8497623388308023e-04
      5.6101080911260539e-04 -1.1350957557196382e-03
      1.0293809838102417e-03 -2.2138851065478873e-03
      -8.4793846689229741e-04 1.4807305528913475e-03
      -2.5792907942415259e-04 1.1833177050646737e-03
      1.4945423826538083e-03 -1.3238108300917910e-03
      7.4641912702382029e-04 1.9858274042082102e-03
      9.7065215700611527e-04 4.7057556974310690e-04
      1.2582331044867663e-03 -1.1943068563527771e-03
      1.3439677788684467e-03 -2.0775542585033053e-03
      -5.0692498675006172e-04 -1.8310364341125540e-05
      -9.7748013900605360e-04 -1.9624500940708255e-03
      -1.8899746541251447e-03 3.3606847917321502e-04
      -1.3629298279977556e-03 -1.9639755476422698e-03
      7.3910318894362492e-04 -1.3200414033580372e-03
      7.6170606520904478e-04 -1.5669458462476903e-03
      -1.3474909507687178e-04 -4.5055097858665802e-04
      -1.7003240039737057e-03 8.6888608704361464e-05
      -2.1461054583656468e-03 3.7944587136906041e-04
      1.1624632832903183e-04 3.7445225160134593e-04
      -1.5968557878680697e-03 1.2678196358608463e-03
      4.2127063145834553e-04 -2.7658647505786061e-04
      1.2837230334310523e-03 -1.1709491949233922e-03
      -4.9481036860931900e-04 1.4944241535573902e-03
      9.3247699952956388e-06 -4.1169362739688095e-04
      2.5735042754464909e-04 -1.1707390128648943e-03
      9.2814848536630450e-04 5.3822728218543188e-04
      1.3084442133450356e-03 3.9380706115363769e-04
      -8.4019904957871385e-05 -6.0138949143356639e-04
      -4.8041337966394775e-04 -2.3850985182437585e-04
      -3.4961594253979942e-04 1.9832693992422323e-03
      1.3591600276140355e-04 -2.0924078987697022e-04
      -2.0915154671605199e-03 1.0709039287239946e-03
      -2.0995604542752093e-03 9.7214005324390486e-04
      5.7868927463312144e-04 1.4951139087809005e-03
      1.3310232909895633e-04 -2.1692245510586522e-03
      3.6050333711178204e-04 -4.3592900017552268e-04
      -7.4934364698341668e-04 -2.0641394195345512e-03
      -1.5825688536304137e-03 -6.2767296024533942e-04
      -1.2168489306410017e-03 1.7652486048462372e-03
      -2.0546388346804286e-03 -1.5059927315872266e-03
      -5.8639638296573463e-04 1.0836701515306999e-04
      -1.9240713929969896e-03 5.1237063373701290e-04
      1.6975613048995607e-03 1.0509066790950177e-03
      -1.3962758787135221e-03 1.1809403715736860e-03
      9.8121491694222289e-04 -1.9996159644862115e-03
      -2.1733050219721655e-04 -4.1451785180647891e-04
      1.9635206812400211e-04 5.9121241545444475e-04
      4.1087383770502814e-04 -1.0535935677778998e-03
      -2.8640301262520401e-04 3.5925263289707146e-04
      7.6112479377167779e-04 -1.9727486522447355e-03
      -1.9256038706681878e-03 1.5032362567316650e-03
      1.1006573022272375e-03 9.8338430720787797e-04
      -1.7957396005688010e-03 1.0143248505914593e-03
      1.9065683366710320e-03 -9.1381045150375445e-04
      1.4538465094223172e-03 -8.4921151756788988e-05
      -1.3715662980843027e-03 -1.1616447984293312e-03
      -1.5307602492330215e-04 5.8821548580919377e-04
      -1.5002096366557990e-03 -6.7056946834838024e-04
      -1.4554419040832176e-03 -4.3999144579229678e-04
      -8.3926425363521401e-04 -1.5922517574886740e-03
      -1.2733450679741660e-03 -8.0876555679292614e-04
      -1.2268049537562747e-03 2.0308573710987547e-03
      4.2489190037498703e-06 -1.4061803991834276e-03
      -8.8063240783208322e-04 1.8169068365975203e-03
      1.3688906875973176e-03 1.5437513919876415e-03
      -1.5128529658010995e-03 -1.3654902551637168e-03
      1.7625106357774159e-04 -1.0194579460253836e-03
      -2.0342979070564950e-03 -1.8043263245068307e-03
      -8.5389755004862422e-04 -7.5600191471040590e-04
      -5.1061215306969984e-05 1.4471101746129297e-03
      -8.2084182945297874e-04 1.5805697281882235e-03
      -1.1082814554174662e-05 1.0885939450160287e-03
      -1.5095314287793611e-03 1.0100468262850115e-03
      4.5985657636208396e-05 1.8964271319559481e-03
      1.0873106156014567e-03 -6.2470321378751807e-04
      -1.8580753423426654e-04 1.8392864178460872e-03
      -4.9634641630353618e-04 2.4592025867367016e-04
      -1.0979890903037106e-03 -5.9522254473447819e-04
      -5.4820443127211367e-04 -1.7998588603219494e-03
      -1.8436147426450922e-04 7.9519684527388091e-04
      9.5999697923099226e-04 -6.6004979813039924e-04
      -2.4900989038519771e-04 2.8499652470834170e-04
      8.9130100577613038e-04 1.7123365025570249e-03
      -1.1979403392426771e-03 1.8074753762099794e-03
      -7.5829261576007014e-04 -3.6108217886419075e-04
      1.7958031446656244e-03 -1.3640815291336562e-03
      -1.5571472691187509e-04 1.8564628665121584e-03
      -1.4162605581113125e-03 2.2434617561188159e-04
      1.7789109105953989e-03 9.1833443541245179e-04
      -2.0976097682030908e-03 3.1642323123610478e-04
      -1.4382546502055881e-03 -9.7952022576756138e-05
      1.9410007707188147e-03 3.8269854030518612e-04
      -8.6329724449746151e-04 1.4825456624908522e-03
      -2.0206001045411318e-03 -2.0260181527975846e-03
      -2.0252728649084221e-03 -1.7007690343789467e-03
      -1.2602390207272216e-03 -2.0850653769276524e-03
      4.4736585301609425e-04 -2.1137912547672289e-03
      8.9121147926624674e-04 1.5891161640373332e-03
      -8.8075624489831258e-04 -9.0755600595566490e-04
      2.1318572844763305e-03 -1.5085236007525195e-03
      1.1924360815270254e-03 -1.7755230182591954e-03
      1.2903594482975922e-03 -1.5695163838385306e-03
      4.4812062330024785e-05 -1.8219448118986653e-03
      9.2994909613369151e-04 -2.3754339652186924e-04
      3.2319533876503341e-04 -1.6790056627531704e-03
      -1.4275632086373647e-03 -4.5214180490616259e-04
      -1.6501676263561084e-04 7.9955054273862401e-04
      -4.0389832605729903e-04 -6.5153498809803129e-04
      -2.0982663772425251e-03 -7.7086065074077849e-04
      1.5252147003972185e-03 -7.5082976508652934e-04
      6.6015630980497612e-04 1.7678120741423488e-03
      -1.6553533401870971e-03 -4.0723895543290844e-04
      -9.7464325926291265e-04 -4.6340140457582597e-04
      2.1718813275177718e-04 -1.1675273694992903e-03
      -2.1079796096425350e-05 -1.4951977071113519e-03
      1.4662182277648361e-03 -1.0911164136383537e-03
      1.4569220218624049e-04 2.0786546229905182e-03
      3.4267377760081462e-04 -5.4806137654854492e-04
      1.3052616903956790e-03 -1.4023123200663805e-03
      -1.3930362142637505e-03 -2.2167693840625647e-03
      -1.9525409416072295e-03 -1.4718315560975218e-03
      -1.8995702850456674e-03 -1.9927417948800810e-04
      2.1312912827898753e-03 -7.2678291583423552e-04
      -6.8248541006848311e-04 8.1480657965377578e-04
      -9.2263439570402063e-04 4.3193963382404312e-05
      1.2799648872963447e-03 2.0466584416539444e-05
      6.4662104275783872e-04 -1.1474997884278449e-03
      -1.5172802107986821e-03 9.7442120409934935e-04
      1.1574031459968296e-03 4.2971358803243722e-04
      -1.2004388367401555e-03 5.7094956838094535e-04
      -1.3697553635124544e-03 -1.2267145616401936e-03
      -1.3118909474888784e-03 -5.1064453472437067e-04
      -1.8425661031434464e-03 2.0206425651965575e-03
      7.7090896954122741e-04 -1.7386580337334591e-03
      -2.0732517069905125e-03 1.6639583428092483e-03
      4.9119768262907942e-04 -9.6958771442503470e-04
      1.0878705434263357e-03 1.5615774906279055e-03
      -1.3213085755582109e-03 -1.2317955562935012e-03
      1.3070232290280732e-03 -1.3966774240328538e-03
      -1.0894844009232687e-03 -6.1613451128412025e-04
      5.2236218204461686e-04 6.8491966481676461e-05
      1.0885915794362016e-04 2.6432702092030956e-04
      7.5522542712237913e-04 8.4288719439996602e-04
      -1.7393095413193065e-03 -1.0395472161723645e-04
      1.8746983989113303e-03 -1.9066444091935030e-03
      2.9489640706876910e-04 -2.1424647808524926e-03
      -1.3131438477440195e-04 1.7235185321088351e-03
      -1.3071126079110137e-03 1.5196462603273087e-03
      7.9759630749168383e-04 -3.8198808737186440e-04
      7.7976233116416026e-04 1.1198290527554122e-04
      1.0451509588362100e-03 -9.2892597703506205e-04
      -1.3631044010367463e-03 -1.0680861655204463e-03
      -1.5816265005450354e-03 1.0050200689203171e-03
      1.3918330459475330e-03 1.5709374086228698e-03
      -1.9631343704172690e-03 -1.5082004244895990e-04
      1.9652677305952836e-03 1.2660025505306684e-03
      -5.5287195566703945e-04 -7.1308694801757247e-04
      -7.0623236599518923e-04 -1.4870963790229758e-03
      -1.2498556648100759e-03 1.4428119360536823e-05
      1.3456469855782902e-03 -1.0200356318575451e-03
      1.9729261951591209e-03 1.3450955240002220e-03
      -1.0089624231580724e-03 -1.6190798466218135e-03
      -6.9062343175832768e-04 8.1671480062286170e-04
      1.8667269406683854e-03 -1.0621045336993542e-03
      -5.8982489803479916e-04 1.1419145552493261e-03
      9.7238503278815076e-04 2.0301462441055132e-03
      1.5978156085983217e-03 2.0742956330906722e-03
      -7.6882575241481144e-04 1.3600063439891442e-03
      1.7009925374987535e-03 -2.0780502875538944e-03
      1.6911015515291468e-03 2.1503217778658776e-04
      2.1064394351534461e-03 -1.7668435839273994e-05
      1.5388541320978104e-03 -1.7761204977539190e-03
      2.0729407414135613e-03 1.9424291054322496e-03
      -1.3673957022131151e-03 -1.5694872644006412e-03
      -4.0008020269435959e-04 1.7833967464127019e-03
      -1.9079021895971563e-03 8.4703227578137707e-04
      1.7549289980722007e-04 -2.2287694710247945e-03
      1.0511306223304872e-03 1.7092194784163065e-03
      7.3445835367806530e-05 3.6818280107906588e-05
      7.0156978111043434e-04 -1.6946760056410024e-04
      -1.5378241826526000e-03 -1.9312005450187969e-03
      -6.8268355352781918e-04 1.3224310501026044e-03
      -3.9918832909380784e-04 -1.0989929158718513e-03
      -1.1131711864507230e-03 -5.0015287606610065e-05
      1.7647486070212846e-03 -1.6183900671573174e-03
      -1.6098746001881362e-03 -1.0864164749253170e-04
      7.8294917594654077e-04 1.0189284527934352e-03
      1.0742014819903258e-03 1.8985684317511604e-03
      -1.6136840214144015e-03 2.1608886774578933e-03
      -1.4958931433799827e-03 -1.4936667977952108e-03
      -1.2010746201022639e-03 1.0836716517100755e-03
      -7.4466257456913738e-04 7.5860722207396014e-04
      1.8329152854832296e-03 3.0981176537530687e-04
      1.8161053444138860e-03 1.9839723174732769e-03
      1.7867730696694121e-03 2.1848124136261394e-03
      1.7824909915244050e-03 -1.3512276633996111e-03
      -3.0924058955603400e-04 1.5038560553202990e-04
      4.4954654503210934e-04 -1.9228954213375499e-03
      -1.0075386392740184e-03 -1.7677321670930002e-03
      -1.8808846037911924e-03 -2.8278670444266727e-04
      -7.0575526666083552e-04 -1.8948346056351646e-03
      -4.0731445757566013e-04 9.7512254425229854e-04
      -1.3437037063001721e-03 -2.2647669263245063e-03
      -1.2558629323286585e-03 2.6563678399767096e-04
      1.3503911416553871e-03 -1.9262345558715209e-03
      -1.8878872724469333e-03 8.5136658715147522e-04
      6.3476529373252845e-04 -1.9955715692957219e-03
      -9.9294767112764748e-04 2.0031899059754028e-05
      -7.9039920744001699e-04 -1.6086345784378821e-03
      -5.6110955143738822e-04 6.0650459901220649e-04
      -2.1699640806161604e-03 -1.5811751763397921e-04
      -1.3233202177021731e-03 7.3046600366435109e-04
      -2.4575515229435866e-04 -1.6978264058309126e-03
      -4.2309305674951495e-04 1.0514845561297963e-04
      1.7982690336350812e-03 -2.5713247070380387e-04
      1.4643752828683552e-03 -1.0130493977814617e-03
      -6.1765750237896793e-04 1.0729340626076658e-03
      -9.0530846412070060e-04 1.4079334441788483e-03
      1.2533679974044583e-03 3.3957582500763670e-04
      -1.0106998306009612e-03 -1.7441574474734919e-03
      2.8942567850093821e-04 2.1956144845343656e-04
      1.5641030024050726e-04 1.1684870063574933e-03
      2.0486829431577269e-03 7.0019678693012744e-04
      -8.5095856611358588e-04 -1.5128825572990980e-03
      2.2177175881028183e-03 -2.1788851400718363e-03
      -8.3085750210311717e-04 -1.6563607337955814e-04
      2.1848232104402180e-03 -3.9082905529434715e-04
      -5.6644911280568017e-04 -1.3765868270322495e-03
      -1.2417516412881623e-03 1.9040237162156288e-03
      -2.8858239987697123e-04 -8.8252048933056156e-04
      2.1869147863321698e-03 8.5985110160211032e-04
      -5.6879531815017513e-04 -8.2715749433096185e-05
      1.0101395884884944e-03 -1.1540136973529022e-03
      -1.1698729609966394e-03 1.7468774750914351e-03
      2.0188919083260048e-03 7.0067318224194912e-05
      -1.1601799153951398e-03 -2.0634544389449617e-03
      -6.5079813069007450e-04 1.4043909165128193e-03
      5.9081347656153214e-04 1.0491811839531634e-03
      3.1709538680379570e-05 1.6772720682951996e-03
      2.1733919878546406e-06 5.0570381121840292e-04
      -7.7489956893481637e-04 -1.1536304635282521e-03
      -6.3250918624214373e-04 -6.6885191961303669e-04
      -1.6682649956765831e-03 -5.4324722875564340e-04
      4.8226572917911970e-04 -1.7785123803258738e-03
      -2.1437201760679380e-03 -1.1866568127914970e-03
      3.4998481203873949e-04 -1.3271453518813210e-03
      -1.9598074469872567e-03 1.9882613080383182e-03
      1.0109031079803515e-03 -1.5371079166637005e-03
      -2.0945676560667347e-03 1.4747665033497653e-03
      3.9512118518842646e-04 5.5955156895917831e-04
      -3.1307149786434469e-04 1.6968943920320125e-03
      -8.4605187980289342e-04 -1.1940437809207945e-03
      -6.4109370558494011e-04 1.6720975600306091e-03
      1.7731371205765979e-03 1.6264305745382413e-03
      -2.1021655983444417e-03 -2.1001229423054046e-03
      1.7294714561258079e-03 2.1803044647147173e-03
      -1.6987712678336721e-03 -1.1599177031454127e-03
      5.8625856070634039e-04 6.3939947689519426e-04
      -3.8624683857205736e-04 -1.3329050751517647e-03
      -2.1262567932115459e-03 1.8009122153181520e-03
      1.9579364214805158e-03 -7.8665295092425206e-05
      -2.0858288681745649e-03 1.3773003295242158e-03
      -2.0011484178270671e-03 -7.7801180472418258e-04
      1.8125338163582779e-03 -1.5899189347834900e-03
      1.9919836603062130e-03 -1.3194128278754380e-03
      -1.3333335532281878e-03 2.1757141543513971e-03
      1.3589766161776575e-03 1.8900496791441636e-03
      6.1286184665162655e-04 8.5126836999031461e-04
      -1.0800960964303886e-03 2.0761418279879049e-04
      -7.6530174074199229e-04 9.7000274760794222e-04
      -4.9366039418870906e-04 -1.6168571221045244e-03
      -3.2636485099061749e-04 9.1925120819139462e-04
      -1.5807182852757738e-03 -1.5972577528999006e-03
      1.8639679656995696e-04 -1.8256456599157543e-03
      1.4190587498809435e-03 1.8073522842623768e-03
      1.6883531695310353e-03 6.6472272148807585e-04
      9.5425050430533568e-04 1.1200456744170710e-04
      4.7292031474477461e-04 -3.1139430735706823e-04
      -2.0387223459079127e-03 -1.1370985558425495e-03
      -1.0336212552383313e-03 -9.4675289691249981e-04
      5.5273273102505311e-04 -1.3120782516786690e-03
      -9.8567469709298595e-04 -1.6585845008944562e-03
      2.4423377526902482e-04 2.0502043276395630e-03
      -1.7924772525532173e-03 -1.0491026773875362e-04
      -1.5268081063933899e-03 -7.2283446402704031e-04
      2.6213963089626507e-04 1.7577339658046288e-03
      9.0762196127082873e-04 -2.0648855938815748e-03
      -1.9369051593294819e-03 -1.3370415157546564e-03
      -1.0355506203349662e-03 -2.1026481672448880e-03
      2.3390101021086051e-04 -2.0159477061957691e-03
      -1.4953229430098300e-03 1.4193881125624641e-04
      -1.6273279864321699e-03 6.2523592237690069e-04
      2.1937981516392800e-03 -2.0697248765192610e-03
      2.1252278529043569e-03 -1.0291453400460051e-04
      -2.8760455690282513e-04 -7.3016510373218087e-05
      4.2300320845074254e-04 1.0916324775374286e-03
      1.8687766200099537e-03 2.1530648901898460e-03
      -1.3177217363221218e-03 -3.6220655585768731e-04
      -3.6315927500126736e-04 -1.8376840461269317e-03
      5.9051722892712892e-04 1.9089083363215090e-03
      6.2699361873606201e-04 1.2025917316682549e-03
      6.7761063884895815e-04 1.4357089586187241e-03
      -1.5587372977248978e-03 1.9893289104984738e-03
      -1.1872842024707366e-03 6.7650046695600893e-04
      -2.3493394953102534e-04 8.1786777804719547e-04
      -2.0097714859236772e-03 2.6054096164746183e-04
      2.1567615385495315e-04 1.2564843832488198e-03
      2.0010175086294852e-03 1.4838189566302516e-03
      6.4267551774947184e-05 5.3294820370010149e-04
      -2.1759126701567065e-03 -1.9830981132172893e-03
      -2.1011547237899484e-04 -1.3030456375371629e-03
      -4.8800997222492722e-04 1.7835177986234160e-03
      -4.9404995718685765e-04 -2.1513865644247855e-03
      -2.2404113717562329e-03 -1.7462211058974436e-03
      1.6942487893163590e-03 2.6700675946242543e-04
      -1.0327003739764287e-03 -1.3788125292458903e-03
      -2.9128006947968827e-04 -4.1527823483544129e-04
      -1.1288872052694226e-03 -2.0945777471535866e-03
      6.3856436131711977e-04 -2.0278563432692001e-03
      1.8776525288990743e-03 -6.0847544172565034e-04
      -1.8764429462407280e-03 -1.2642692081311754e-03
      -1.4671846522874253e-03 -1.4314439122970557e-03
      1.9749865129549161e-03 1.8565199662350816e-03
      -1.5238220313718719e-03 8.2160553550768712e-04
      -1.5218303225792635e-04 1.4235775603035758e-03
      -9.0548394178688936e-04 -7.9871053005313593e-04
      2.0708064450719000e-03 -1.5418382065045305e-03
      1.1157028764694371e-03 -1.5230524466264439e-03
      -1.9947753740256267e-03 6.8160368431168720e-04
      1.0448526407839142e-04 8.0618678309669239e-04
      1.3721063210955398e-03 -1.5987055169264428e-03
      -1.7131039835610806e-03 -1.4984742623653843e-03
      1.6958291672785669e-03 2.3255568351367912e-05
      1.2521045715044936e-04 -1.6466517777694581e-03
      -1.9161159227002917e-03 9.5125930862567003e-04
      -1.2621448659222076e-03 1.0410344162465931e-03
      2.0130709977576634e-03 5.5287965372143694e-04
      -2.1215600544654649e-03 7.8001741717420754e-04
      -1.5307661982650023e-03 1.4632784893122365e-04
      1.5853856296279660e-03 -2.5558651900643606e-04
      -2.2150978776953938e-04 -1.2462775232640079e-03
      5.1825031606627162e-04 1.1291385498000493e-03
      1.7173739689285141e-03 1.1683726540243715e-03
      5.4191708214390989e-04 8.9060924678446211e-04
      -2.1965711305482185e-03 -1.8566697043087340e-03
      8.5470045891711363e-04 1.8881255853954305e-03
      1.9145215083552116e-03 2.7713816141969349e-04
      -7.2561229832199324e-04 -2.0788000912759603e-03
      2.9746592612705713e-05 1.4594417658058043e-03
      1.9133956886483781e-03 9.3986496271249804e-04
      1.4585079191984714e-03 -1.8222263692057768e-03
      -1.3743467380217546e-03 2.1718575399246472e-03
      -1.5789675158947556e-03 3.0647197137888721e-04
      -1.7329286117982220e-03 5.1363787603261033e-04
      2.2178127985839741e-04 -1.4846984030319505e-03
      -1.3808302773552538e-03 -1.6883032755663173e-03
      8.9326284613650388e-04 -1.2952294936322798e-03
      -4.1066048521658873e-04 -4.7478133615824465e-04
      -1.9624073156044195e-03 8.2932505839319201e-05
      -1.5095598289543749e-03 -7.2132830874716025e-04
      -6.7106148343109445e-04 -1.0784700651952500e-03
      1.6077402644688093e-03 -5.0908395789499771e-04
      -2.0000373304368342e-03 1.2582706720031709e-03
      6.1436270443582849e-04 2.0809215447603318e-03
      2.0403597445539652e-03 1.4666339314161419e-03
      -1.1056107685065888e-04 -6.0075774994766912e-04
      -1.4118457572950679e-03 1.7453695497957572e-03
      1.2383470910923185e-03 -5.2345359529785171e-04
      1.5506004460681927e-03 1.0962039874446135e-03
      -1.2112488433627163e-03 1.1344126739119013e-03
      2.1989468461637938e-03 7.9542501366493745e-04
      -1.1907070107383380e-03 -2.4258958174838604e-04
      3.4544668526176510e-04 -2.0447979665831582e-03
      1.6276842364040748e-03 1.4109507721958739e-03
      1.5509399587987115e-03 -1.1879247964368138e-03
      2.1332713224194886e-03 6.4683433040324762e-04
      3.5365312793747918e-05 -1.3718712566272565e-03
      -6.5374380790572445e-04 2.2069246936751051e-03
      1.0499663659449977e-03 -2.1415366668631043e-04
      1.4006613358467630e-03 -1.2439701492824296e-03
      -6.0526947388125994e-04 -3.4866208092393733e-04
      -9.0945223300055293e-04 1.2426111630614285e-03
      2.0088548108834902e-03 1.5726916417061439e-03
      -1.3630332913591406e-03 -1.1734952520598104e-03
      -2.1431671646993428e-03 1.2468514732116018e-04
      -1.6082105077367537e-04 -8.2013703906454411e-04
      -4.1949394770089113e-04 1.7771540560813604e-03
      4.6006087294948194e-04 1.8918096885621077e-03
      1.9985432043422712e-03 -1.8249746227799112e-03
      8.8101180687786607e-04 1.2769079693079187e-03
      1.2818084258748700e-03 -1.4414070411271156e-03
      1.6806999128336818e-04 -9.5398533005991649e-05
      -1.3696467734133065e-03 -5.8617068556632550e-04
      -1.2034458897825190e-03 2.2312323953320484e-03
      -4.4823822530756015e-04 -1.4585398773995280e-03
      8.0418482553963665e-04 -1.5658260455297169e-03
      4.7568632485138322e-04 4.9209222672451619e-04
      2.2892450691644814e-04 7.1237659335598189e-04
      -1.5005416933972040e-03 -5.8807796105482394e-04
      -9.6580074993539975e-04 -1.0355242082386363e-03
      -1.2737503419688017e-03 3.4557970954016912e-04
      -1.1830995173808532e-03 -4.0373817390321534e-04
      -1.8708393478310448e-03 1.6001327908513191e-03
      8.5989485190651022e-04 1.5865102257789940e-04
      -1.7979093788144174e-03 1.0904807314125573e-03
      -1.0382431146685215e-03 3.9888062428146995e-04
      -2.6362917439277846e-04 1.2880885572785303e-03
      1.4404602014901531e-03 8.9300093613842570e-04
      -1.8777947604114407e-03 1.0166487056353589e-03
      7.6701346221389540e-04 2.2674627447848237e-03
      7.6269105158447911e-04 8.0710291800256673e-04
      -6.4787128126086676e-04 1.9679123141975990e-03
      -3.7124661883451742e-04 8.1104119111965393e-04
      -9.7085821482291489e-04 3.9047991965757584e-04
      -1.0226997549595432e-03 2.0397393943212090e-03
      1.1370861259272176e-04 1.5275759791344265e-03
      -2.0641511271872301e-03 -4.0264635919801708e-04
      -8.5597245547730375e-04 7.8277027962584875e-04
      -1.0285183023838018e-03 -8.9365424023900427e-04
      -2.1403065213834358e-03 1.2469276421063667e-03
      7.5527709213625853e-04 1.3984859985604571e-03
      1.5535999671093240e-03 8.2838493868901556e-04
      -7.6873371287895017e-04 -2.2054705385347105e-03
      1.7945349877148851e-04 -7.4081536763515794e-05
      -1.3140018407192023e-03 8.7780471190068764e-04
      1.7433878746166045e-03 -2.4061751109917006e-04
      7.5467409369319111e-04 1.8597316055671165e-03
      9.3880123753875176e-04 -1.8374792600303765e-03
      -1.4340662893878432e-03 5.3143018553794639e-04
      -1.6800337979709804e-03 -1.1279017077622689e-03
      1.0943128846671079e-03 1.1799460025945616e-03
      1.2006015916783529e-03 3.2309798568739135e-04
      -1.5904245129204277e-03 -1.2582240530730753e-03
      7.6095851311370425e-04 7.2115118577267010e-04
      1.5055470192494836e-03 -2.1866142250479988e-03
      -7.4918513502680731e-04 -1.7484481851896686e-03
      8.7589461598924540e-04 9.3799634347302126e-04
      -9.1754749248017936e-04 -1.1999359926982340e-03
      -1.5432925082254152e-03 -1.1267784809847996e-04
      2.0287421344886950e-03 7.4011502934405319e-04
      -1.9468662045637945e-03 -2.0671137339851823e-03
      1.1618984205207111e-03 -3.7678984666001395e-04
      1.1896067569070700e-04 9.1444392387753006e-04
      1.5741456086983039e-03 9.4748849844977854e-04
      1.7804425317712529e-04 -9.3783806684535217e-05
      -1.8854914500869278e-03 1.7244482410969421e-03
      9.8233374997252825e-04 6.8029195090448294e-04
      1.4421993129937788e-03 8.6042983566508272e-04
      -2.9108224800923578e-04 2.3012043210685962e-04
      1.4272489862913087e-03 -1.0832197627474807e-03
      -4.7788859858621466e-04 -1.6665116287453664e-04
      1.5242817948429791e-03 2.0307378023073207e-03
      -1.4197121409793950e-04 8.1693562073512440e-04
      -2.9242545827075199e-04 -1.9277371410747577e-03
      1.2893840581453141e-03 2.1612355746543160e-03
      1.4292974894955209e-03 2.0296015621122498e-03
      6.2459283480642916e-04 -1.6689571341816056e-04
      -1.9858407108995280e-03 -1.1311064128046847e-03
      -5.3902577759263812e-04 1.1618420150671257e-03
      -4.6833764831825643e-04 1.8756915761039973e-03
      -2.4476589494363323e-04 -3.6442272427237828e-04
      -3.3495340195094131e-04 8.6303100909204883e-04
      2.0311016707719938e-04 -9.0422462890447182e-04
      3.6551159876622080e-04 -7.8475709259936217e-04
      5.0526663029840828e-04 1.8805842876333579e-03
      -1.1916830480620619e-03 -2.7186325066431961e-04
      -1.0840033386324416e-03 5.3974269458230883e-04
      -1.5724590138024752e-03 2.7661286008294879e-04
      -2.0467746017621136e-03 -6.2494577055632059e-04
      -7.9761466460087367e-04 -2.0636179028585486e-03
      2.1308084279657710e-03 -1.3717676526689277e-04
      -9.9608615754122917e-04 -1.3633686623852697e-03
      1.4566975410705090e-03 -1.0748976975512902e-03
      2.2582156842665753e-03 -5.4214584293948076e-04
      -1.9963806999719548e-03 -2.0598295487705481e-03
      4.7152357103024827e-04 -1.7672940979942457e-04
      1.9920125424287422e-03 2.2874577710159277e-04
      1.2014995689793486e-03 2.1532760278288263e-04
      1.3790397185031249e-03 -1.5241801077348891e-03
      6.7704648968661683e-04 -9.0487212081540394e-04
      9.6790270417536936e-04 -1.8297907490304134e-03
      2.1250518152259631e-04 -1.1276689507257861e-03
      1.7849083597751029e-03 1.2514521209228914e-03
      1.5719502831381215e-04 9.9409738552862443e-04
      8.0845056282183726e-04 6.6384590411003178e-04
      -2.0936590985124559e-03 -3.0140308694614402e-04
      -1.4980580858120342e-03 -1.0458854466857063e-03
      6.9059238769632032e-04 9.0779783548451025e-04
      -1.6461555197246000e-03 1.4228346505496046e-03
      2.4712157923886742e-04 -1.7803540192403821e-03
      -6.5568265042202710e-04 1.2672061274956194e-03
      -3.9928572601382665e-05 -1.3607743260453647e-03
      -1.6963704359825801e-03 -1.1722381952313351e-03
      -1.7645751096466717e-03 1.3499740704069824e-03
      -1.5718509792606017e-03 -1.6843665730457437e-03
      -9.3857426178111086e-04 -1.9659854064834671e-03
      -5.3786130417798840e-04 7.7948249218928105e-04
      -7.0967808968862365e-04 -3.5888815751937073e-04
      -1.7919331242323201e-03 2.0475015748914727e-03
      2.4500475919770806e-04 -1.7033693082011184e-03
      -1.3771824232171996e-03 -1.1384696002642851e-03
      -1.4305703758086658e-03 1.2818368733542168e-03
      -1.0186183900489267e-03 -1.7685339945246546e-03
      4.7599019730326973e-04 -1.9768898708889707e-03
      1.9949373048300093e-03 3.7925776335841210e-04
      -2.8012937383429723e-04 1.8930918611796128e-03
      1.8627697097753200e-04 1.2878978602113241e-03
      4.1338971600014530e-04 9.5894243321931042e-04
      6.4366808218360369e-04 -7.7383213146140840e-04
      -3.6320760391193629e-04 -1.7975263125025870e-03
      -1.8762719682265780e-03 -1.5795963446156068e-03
      -7.9831253393881387e-04 -2.1262833267735224e-03
      -1.0706971781722508e-03 -1.0699969055893747e-03
      -1.1548790280743450e-04 -2.9836530428558906e-04
      7.0370625948944004e-04 -9.9527290679780916e-05
      5.7861624699360125e-04 -1.0018521408017131e-03
      1.0562162399321672e-03 -1.9596964853360356e-03
      -4.8103879429993668e-04 1.2417360032644092e-03
      1.5785030568126292e-03 1.3477613432047112e-03
      -1.7716905902078026e-03 1.3806692500958412e-04
      1.9921204618604784e-04 -5.0663474489330790e-04
      -1.1411848445918328e-03 2.0273230379007751e-03
      -1.7884234705538801e-03 3.6967104600054936e-04
      1.1613467651545909e-03 -1.1933500761100403e-03
      -1.9176095862467196e-03 6.7441759012835316e-04
      8.4332019114908793e-04 -2.0858605296739229e-03
      -1.9603182746930992e-04 4.2126354886051201e-04
      2.1380855816146133e-03 1.8415711680296609e-03
      1.1498601023211905e-03 7.8494483919445957e-04
      -3.2003477156022540e-04 1.8506291670627921e-03
      2.0836390306867695e-03 -1.4744564711437604e-03
      1.6541769018599557e-03 6.9651187371065106e-04
      1.4461700794696621e-03 3.5475558029243325e-04
      -1.8649495167516583e-03 2.5444088276462717e-04
      -1.4062308741057772e-03 -9.5092602866498526e-04
      -1.2476504875636488e-03 -1.5989138633655245e-03
      4.1715494595985085e-04 1.8530335770376859e-04
      1.6098827455716550e-03 2.4079406832711137e-04
      7.1990010271616521e-04 -7.7459191466816069e-04
      -6.8801383167141936e-04 -1.5136805954136417e-03
      -2.0021390152837304e-03 -1.2589046948553639e-03
      1.0402328204540119e-03 7.7354724134036891e-05
      -1.4862651727119780e-03 2.1495771911103400e-03
      1.7901656275502770e-03 -1.6869409944139336e-03
      -1.8623281672683204e-03 1.7696147536819418e-03
      -1.6976556706877889e-03 1.0120995428413296e-03
      -3.3454997455299931e-05 6.0784733263821939e-04
      2.1206800625575310e-03 8.9311223633513988e-04
      2.2304277132600050e-03 2.7997068484253180e-04
      2.1303340402661669e-03 1.3018892179356145e-04
      -8.9977583513388773e-04 2.0876015158695122e-03
      5.0512050317949087e-04 -2.5837590205664323e-04
      1.9248976882960697e-03 -7.4679851613377690e-04
      -1.5335271037193808e-03 1.0286740766377012e-03
      -1.0046380855017669e-03 5.8838933934607742e-04
      1.2351490034762029e-03 -1.1319068867434330e-03
      -5.2587422776286072e-04 -1.5495585766544650e-03
      1.9593577148020471e-03 1.3824955337742295e-03
      1.8718541578951507e-04 -1.1691889710063771e-03
      -2.2516557647570755e-04 -1.9731596085546671e-03
      -4.7423621747307910e-04 1.3326447781375100e-03
      -2.8263274273950602e-04 -2.1055065262819196e-03
      1.2237411846421965e-03 2.1369856903119687e-03
      1.0695652580083920e-03 -3.6505444045849023e-04
      3.6332426217828407e-04 1.4466558507617961e-03
      2.0015482498490019e-03 -3.3462341430636557e-05
      3.5955026520287184e-05 -1.2357346442305641e-03
      3.3414432187758430e-04 -5.5256790479564033e-04
      -1.5993281801572267e-03 1.4551004844930839e-03
      1.0334057579763306e-03 -1.4090378785815395e-03
      2.1200246528683890e-03 1.6944369204610027e-03
      -3.6514788800881461e-04 2.0951349871033572e-03
      6.8839353098476127e-05 1.1681792869603443e-03
      -1.1863892551209924e-03 3.5607405126597986e-04
      -1.3452246350931702e-03 1.4174592769034410e-03
      -7.8457473448204605e-04 -4.8046646071160768e-04
      -1.9666477492772043e-03 1.3564714467405497e-03
      2.1451208015698196e-03 6.2341693817740296e-04
      -1.8755837084282958e-04 6.3904415330358051e-04
      1.3137193317532953e-03 -1.1601961846446742e-03
      2.0747962268096482e-03 3.2072235030549447e-04
      -5.3094004035180353e-04 1.4055369634673447e-03
      4.8997253361139160e-04 6.5507033767525188e-05
      -4.9693532920629113e-04 1.1492969256818649e-03
      -2.3009817152121049e-03 4.9641756851801595e-04
      1.4621750489525163e-03 1.0657191559165693e-03
      -1.3598339064312336e-03 -1.8741657901519054e-04
      1.8405275560808116e-03 2.1623882178404669e-03
      5.5324333233921412e-04 1.3330044919503312e-03
      -1.9679507864412047e-03 1.9308901123663415e-04
      -4.0178991913482912e-04 1.8115212956350524e-03
      -8.3666934009987487e-04 -8.4775390598316775e-04
      -1.4121420581306723e-03 1.3107375602565575e-03
      5.5847988155657456e-04 -3.8836694017135051e-04
      1.0874735974221511e-03 1.9631351513784987e-03
      1.3536980290543973e-03 -1.4792812115955139e-03
      1.8261946303122344e-03 -1.9687099848186462e-03
      6.4575784574193087e-04 -1.4700954060389586e-03
      -3.4841461601666288e-05 1.3322552803244265e-03
      -8.4727480173801795e-04 1.3522606456915359e-03
      -1.3339526420067804e-03 -1.0267179752869700e-03
      8.7323210220215650e-04 -2.0083467979382366e-03
      -6.2254495456291737e-04 -6.3941534422840625e-04
      -1.8944043069332511e-04 1.5779076420363591e-03
      -9.2912364057667223e-04 -1.0149002103367743e-03
      -1.7149907577842889e-03 1.0981944477620506e-03
      1.9931341276342909e-03 3.4065266489067343e-04
      -2.0447616021811018e-03 -6.4202480905251687e-04
      1.6365380940817143e-03 -1.7236236959587603e-03
      1.3474994926329449e-03 1.5030039597127287e-03
      1.1979142073275759e-03 -7.2202011437558770e-05
      2.2951592784324948e-04 8.7930007950301893e-04
      -4.6810174525934334e-04 5.8433051657458314e-05
      -3.3172846331323037e-05 -2.6705178958547402e-04
      6.7929290394697908e-04 2.2298812233696591e-03
      -7.3799511835030197e-04 3.7563347145841495e-04
      -1.5287495381571307e-03 8.4696898581291375e-04
      -1.3448564512148012e-03 9.4208906932375812e-04
      1.3173201288957897e-03 -1.6211949088624136e-04
      1.1901873950501292e-03 2.0121961822564451e-03
      1.4989043951134389e-04 1.9630084658631476e-03
      -2.0439139747618477e-03 -1.5300320733166173e-03
      -3.5210248063567007e-04 1.6685039826303577e-03
      -6.3380368781073551e-04 -1.3045662325659112e-03
      -4.8535353079840593e-04 -1.3376024481814950e-03
      -1.3556233301331110e-03 1.6284631646367933e-03
      5.2082897607636338e-04 -1.7049059524503673e-03
      9.0666317958799599e-04 1.1104138512666977e-03
      1.5984620326339850e-05 -2.1316362146441012e-03
      1.0250548966785702e-03 -6.5139496822350801e-04
      1.5696199852626117e-03 -6.0360641462195365e-04
      1.9575124126365168e-03 3.5149123971076702e-04
      1.6648946383221095e-03 4.2461085451839383e-04
      3.2455657738504617e-04 -1.5067447824321570e-03
      1.3648302380230280e-03 1.8848470566812090e-03
      9.0157521290046906e-05 -1.1519562971013343e-04
      8.1020569490819743e-04 1.1039485059206942e-03
      -1.8239650245184813e-03 -7.5257818285461475e-04
      9.4702270741049580e-04 5.7366186188785703e-04
      -8.9843818198176743e-04 -1.3765140646595187e-03
      1.9193669211129503e-03 -1.5886805870846585e-03
      2.1025620011500992e-03 1.0798772971980172e-05
      -2.0795955825424401e-03 4.6796774650135830e-04
      1.8110168168695729e-04 1.6217260342405728e-04
      1.6960554666977977e-03 2.0369960673546992e-03
      -1.3996141859791498e-03 5.6484602402434537e-04
      -1.0651125999245005e-03 5.5261142591374172e-04
      -1.4010609779984071e-03 1.7209645606546338e-03
      4.1011083289803639e-04 -5.3462548064550554e-04
      8.9043173032117746e-04 -6.7163285176346599e-04
      -1.0880952955706930e-03 -7.3663444336761195e-04
      1.3867301715435414e-03 7.0590255567136103e-04
      1.2460699256304608e-03 -2.1028397964009621e-03
      1.2214541604739237e-03 1.8859889261140447e-03
      1.5701208072049414e-04 5.1952854661688468e-04
      1.0319687864387308e-03 1.8856253767921072e-03
      -9.1826686497872856e-04 -2.0503909587531099e-03
      -1.7765427916363514e-03 -1.7374473635595558e-03
      1.4534414637797752e-03 -3.9946892111093247e-04
      1.2954469144966809e-03 1.0050044801242432e-03
      2.2424206044581911e-03 1.9382378799014210e-03
      -3.8900916364569877e-04 -9.5161379896270863e-04
      -1.9471408193460788e-04 -1.3585381302701103e-03
      -1.6861834957116106e-03 1.6283020902666762e-03
      -1.4078303668911131e-03 1.4308282712002004e-03
      -1.4526376922958711e-03 1.5237022001831780e-03
      -9.6981520589463929e-04 2.0527330922588405e-03
      2.0646650742222341e-03 1.3860692323673766e-03
      -1.6978628507008859e-03 7.2653483432291764e-04
      6.2447595968379607e-04 1.1965662636402282e-03
      1.7794342914220023e-03 -2.0332434050319924e-03
      -1.1948960460218547e-03 1.4758713334370210e-03
      2.9914195515010311e-04 4.5083831252010491e-04
      -1.5678620047369378e-03 1.3999585401651389e-03
      1.0434883739768575e-03 -9.5341957019206940e-04
      1.1864942260445192e-03 -1.5012266470546248e-04
      -1.4803877321063767e-03 -1.9091424567114249e-03
      3.3147489680285453e-04 1.1118951050588643e-03
      9.1007847102196637e-04 -1.9998758079722971e-03
      -5.6539453297968143e-04 3.4697647011599348e-04
      -1.0144097776110556e-03 -5.9829369416121526e-05
      -1.0199895617541410e-03 -2.0993752119143655e-03
      -2.9028761679621953e-04 -2.3870687071450886e-04
      9.9360760709121492e-05 1.1892633131628576e-04
      1.5844935538264382e-03 1.6300969134119077e-03
      1.9819401802484132e-03 1.2826886011342222e-03
      -5.1294019773719362e-04 -4.0825596445949664e-04
      -4.4592956524783096e-05 -1.4351347376177461e-04
      7.9700497150510510e-05 -1.7897525466620309e-03
      -6.5921819999234063e-05 -2.0759097049410785e-03
      -1.7076909629681700e-03 -1.2139914462881293e-03
      5.6742757798543980e-04 -1.8050030822164163e-03
      7.9695438862788541e-04 9.1297851150994730e-04
      -3.0186560599464369e-04 9.4819852775901545e-04
      -1.2243312494419187e-04 1.4995966489443010e-03
      1.6334678686803317e-04 -8.5479640846464113e-04
      -1.6170006871280304e-03 7.7599902054786320e-04
      -1.5981675120037345e-03 -1.1613024136763663e-03
      -6.7639226394062971e-04 -6.6344682709018664e-04
      -1.8474524116473328e-03 -1.9207769960889636e-03
      1.6420163788556971e-03 -1.0297384844254961e-03
      -5.6477296191562469e-04 -1.2544926310289251e-03
      1.1936349942585193e-03 -2.8661820725148647e-04
      1.8300549671229987e-04 -1.1064320433319765e-03
      1.4424603915493734e-03 -6.4888285539952480e-04
      1.5073488003731082e-03 1.4532361866030010e-03
      -1.0564305869180408e-03 1.3443607986617051e-03
      8.0710428482532674e-04 1.1250894785877663e-03
      -8.6780696959361746e-04 -3.2851164140181336e-04
      6.7396574930032210e-04 1.5299442357693824e-03
      -2.1540609484712973e-03 -2.4363005085876593e-04
      1.9419901922254873e-03 -2.1365226507764580e-03
      -9.8932421603998015e-04 1.9596874428606738e-03
      -1.3720086553894069e-03 -1.7286095280899148e-03
      -9.3957689671283584e-04 5.5671406860536210e-04
      1.0499737874829457e-04 1.4828404199756563e-03
      -2.1912735318232604e-03 1.2827580625030433e-03
      -4.0737987768625698e-04 1.3580017186703818e-03
      -3.8682905891752081e-04 -1.9538830600646794e-03
      -1.4933210471705803e-03 -3.3008373125535076e-04
      5.6885344476380339e-04 -7.5860046851928783e-04
      1.8481101423068144e-03 1.3622644200796605e-03
      1.2630645725361955e-03 -1.2518325693420169e-03
      5.2421031870545016e-04 -5.2339715466393735e-04
      1.8919242548384862e-03 1.5509730973531633e-03
      -1.2419512783922513e-03 3.0801124054377854e-04
      1.2768979239712935e-03 -4.5862141770554581e-04
      2.9689892773046610e-04 -2.0290880336237961e-03
      3.4723591848555204e-04 1.0648615939126721e-03
      1.0997265768157951e-03 4.1694036895826691e-04
      7.9016541983751502e-04 -2.1458095036295251e-03
      1.6824334973870841e-03 2.1505450070714491e-04
      5.4861710185243387e-04 -1.3436315127679410e-03
      1.6406700192511239e-04 1.0040194880351955e-03
      1.0796873645219432e-03 1.9676300656462291e-03
      2.0774709209319610e-03 -4.9193613931472263e-04
      2.0344691017572586e-03 1.6676335530236286e-03
      -2.0448089284919517e-03 1.2198064332598112e-03
      2.1850686512233249e-03 -2.0296070343882012e-03
      8.9628839914313843e-04 -2.0064092908705783e-03
      -1.6320592106215596e-03 1.4238963641037742e-04
      -1.2487445742733817e-03 1.3481453834149205e-03
      1.8434055125527225e-03 -1.4818678597561922e-03
      4.8785607296849702e-04 -1.9957769832743347e-04
      1.3823522176340641e-03 -1.6345412812445277e-03
      -1.5553332096511906e-03 1.7868089710784266e-03
      -1.0089972202685824e-03 -1.5167327183262034e-03
      -2.2955734021639519e-03 7.9712928749082817e-04
      1.4226253145872404e-03 -4.8003139824049317e-04
      -4.0442139692525311e-04 -6.3217813436252204e-04
      -1.6858844305431436e-03 -6.1838105729344916e-04
      -5.1752565798463438e-06 8.6893318728204568e-04
      1.8417266048461136e-03 -1.5265242689377189e-03
      -1.7265662650678077e-03 -3.6751871525936747e-04
      -1.8987859013061088e-03 1.3701917685269391e-03
      1.9011415719790883e-03 1.0518292182630079e-03
      1.4117866393124590e-03 -1.5332599827053051e-03
      9.6682117010628917e-04 -7.4559624923852691e-04
      -1.2353303551755786e-04 -1.6081478051155983e-04
      -1.0494709275226432e-03 -5.0954264886702812e-04
      6.7402664260890954e-04 1.4190219941498524e-03
      6.3393669259203525e-04 1.4941863154283759e-03
      -1.5857972351727033e-03 2.0601299201509220e-03
      -2.0956254879314585e-03 1.9846708952655223e-03
      1.3940507724334249e-03 1.5821538646962896e-03
      -1.5837709133600464e-03 1.7990801077623910e-03
      -1.2845592048231775e-03 2.0966347053726670e-03
      5.2281273264795089e-06 4.9748273483990696e-04
      3.2117339188614122e-04 2.0115906227619893e-03
      2.2191651103356130e-03 7.6431816032840275e-08
      -3.9887559960075563e-04 -1.4503745483700351e-03
      -2.1285459369617334e-03 -2.0631168055306874e-04
      3.2661377609805920e-04 1.4240447974046575e-03
      -4.0759860753337496e-04 -1.3620559649448224e-03
      3.7721401335275641e-04 -8.7333785857992424e-04
      -4.1257378105548283e-04 -1.1304704994513277e-03
      1.2105141429550016e-03 4.2669145804927829e-04
      6.3104895081556695e-04 -1.4298196760479146e-03
      -1.6501116361467686e-03 1.7190320677442644e-04
      -1.2993807803471299e-03 -1.6440058686212765e-03
      1.4778581098417020e-03 -4.6287291960971587e-04
      -1.6168375224441074e-03 -1.0489754446393719e-03
      1.4509697650928485e-03 1.9774278312014643e-03
      -2.1414795588506398e-03 7.0549009333543619e-04
      -1.6318607460576115e-03 -8.1273711466439279e-04
      -1.6607361551076358e-03 2.2044115670936146e-03
      3.4831157211653581e-04 -1.2635142134050554e-03
      2.0342858281675269e-04 8.4564817608566531e-04
      1.4306123383707114e-03 -9.9407482196631268e-04
      1.0816605750208963e-03 7.0018408133539219e-05
      -7.0956776547856110e-04 -1.1310014467636415e-03
      -3.7779114329419285e-04 -1.6181115304839480e-03
      -2.8279459747550462e-04 -1.2706754348479610e-03
      9.6666839038092687e-04 9.1530103678487797e-04
      1.8737449891250023e-03 2.1329145284439870e-03
      -4.5744695880567572e-04 -1.5806725395075577e-03
      7.2067425243418849e-04 -1.2091049114017825e-03
      -1.5698240336298479e-04 1.9776099011736045e-04
      -5.9042313869181560e-04 -1.0135052414034123e-03
      1.4873149594548887e-04 -1.9384181343376995e-03
      2.0317340854580732e-03 -7.5810204520272034e-04
      1.5474088213586119e-03 -8.5890394777616744e-05
      2.1999802064778511e-03 -1.5270212004295199e-03
      -1.4665920491928333e-03 -9.8980868235789155e-04
      5.0624800472211046e-05 1.0101682578078791e-03
      -8.1619803240694808e-04 1.3110054004191480e-03
      -7.8150233811812595e-04 -1.0335496769632671e-03
      1.2587039454748335e-03 1.4984823493049873e-03
      -9.0012239853506958e-04 -1.6125710896044195e-03
      -1.2371272605059833e-03 6.9691039664917815e-04
      9.2421482122134453e-04 -5.3935944600134989e-04
      -2.1028625434832463e-03 -1.1494828052107874e-03
      5.7543425777101807e-04 -7.4328592774185285e-04
      -7.7288797501669768e-04 5.7112955512118077e-04
      8.2754726158629460e-04 8.9264438189371115e-04
      4.9809781348118549e-04 -1.5398719746116739e-03
      -1.4378174671897752e-03 -2.2108546823124643e-03
      -1.5590718755185565e-03 -1.8512546901098593e-03
      1.8452633983626846e-03 -1.2103002387889711e-03
      1.7007732379001506e-03 2.0978665005923864e-03
      7.0553903196917582e-04 -2.1599115572169605e-03
      -4.0334284188431742e-04 -9.4762801391353845e-04
      1.2593698490262150e-03 6.1019919680272458e-04
      1.7378536369257729e-03 -8.2084786536955150e-04
      -1.2099135925752976e-03 -1.2798805085447588e-03
      6.1179590321505867e-04 -3.5856083139605639e-04
      8.7535216606312650e-04 -1.2474697219259454e-04
      1.2992296676916581e-03 -1.4735941432702684e-03
      -1.6866633400027347e-03 1.1733409487888564e-03
      2.1042914533933154e-03 1.7581636041854153e-04
      -2.6665877878863343e-04 1.7634557710523512e-03
      -2.1886237630502963e-03 7.1648434251354973e-04
      -8.8303537582774155e-04 -2.1281086659356621e-04
      1.9781017409157033e-03 -8.0752037940188160e-04
      4.1498735266281721e-04 -3.1351383505873155e-04
      -6.3874119736191806e-05 2.0605425347521274e-03
      -5.9029828956832131e-04 -7.2910212401408820e-04
      -1.6793755499673953e-03 1.0556421222926563e-03
      1.4237159106655398e-03 8.3149427119601118e-04
      2.8131585231029084e-04 1.4566265258052190e-03
      1.8391069032666562e-03 -1.2613434213671994e-04
      3.2875394246493985e-04 1.2406638201622911e-03
      -2.5038760301766318e-05 -4.1256633617765403e-04
      2.7517789600132482e-04 -8.6184490955810322e-05
      -8.9505964712239790e-04 1.5265412425976696e-03
      8.9455722071427632e-04 -1.9151031272077650e-03
      1.1706409243785155e-03 1.8999927438902726e-03
      2.1686036429588596e-03 1.9209032664671887e-03
      1.5654812823372125e-03 1.8335285233400085e-03
      -2.1768036213559003e-04 -1.3743097516840583e-03
      1.3267463276602563e-03 -2.5527587389734653e-04
      6.7647741440638397e-04 2.8855870543531746e-05
      7.0814648653538131e-04 1.5383209540770870e-03
      8.7397042871041359e-04 -1.3925944089013727e-03
      -1.3192750622313849e-03 6.6796393785877517e-04
      1.2411783072352888e-03 -7.2560530865543838e-04
      -4.9787093029198741e-04 -1.8426706766858536e-03
      -1.7614682579525273e-04 -1.8569319948562358e-03
      2.9784654362750531e-04 -1.5272405370060237e-03
      1.1426857128488735e-03 1.5850400938201318e-03
      -1.2990062196938348e-04 5.5382831658618004e-04
      -9.5544022851616443e-04 1.7845151870537774e-04
      2.0797882787293364e-03 1.5701151642102792e-03
      1.5891304631407250e-03 -2.1316379400128449e-03
      4.9635511185028855e-04 1.9616417868559633e-03
      -9.2293158585464267e-04 6.9838946353177752e-04
      2.2223567960754794e-03 1.2138253905538132e-03
      -2.1830876435964403e-03 -1.3182359403986622e-03
      -1.4802811445109880e-03 7.2341244363507290e-04
      -5.7449671771414145e-04 2.7379442899091717e-04
      1.0051156434037027e-03 7.4451957849168535e-04
      -7.6691137227150627e-04 -1.0049810000671881e-03
      -1.3541055503618401e-03 -1.9371809033661969e-03
      -6.5546100991901960e-05 1.1261415054161607e-03
      -1.5657191233662056e-03 -1.1156887402680470e-03
      1.0666993952691683e-03 -3.0795111297097527e-05
      -9.3796138213492783e-04 1.2942023293816044e-03
      -7.5478882069783494e-04 -9.2395929239840542e-04
      1.3613728847315478e-03 2.1717532518136353e-03
      1.6399168012542181e-03 -1.5361857472778208e-03
      1.9408964504846729e-03 -1.2136505500017930e-03
      -1.1833419159765961e-03 -1.0843537460126515e-03
      8.5667880650366034e-04 -1.3827182987993462e-03
      -1.9162807363431484e-03 2.2689150617427549e-04
      1.9491830655492652e-03 -9.7264550438578366e-05
      4.9429195802739841e-04 3.3734756937898068e-05
      2.7585472841618514e-04 1.9394674658652475e-03
      -2.4389649019692646e-04 -3.1216668412329746e-04
      2.1685719458912245e-03 -1.7778024335609892e-03
      -9.9892761956165755e-04 -5.2425781930978948e-04
      -5.6457613229372397e-05 -6.9184839291807482e-04
      2.1749216144136490e-04 -1.7577543348382691e-03
      -1.5452814663656700e-03 -3.0789498740300058e-04
      -1.8061194690275522e-04 3.0922985491781292e-04
      1.4681308032935820e-03 -1.2346504684012435e-03
      -3.6920085189679820e-04 -6.6669503554429800e-04
      7.5043434166135407e-04 4.3362938133457946e-04
      1.1502162286647557e-03 1.0222990203041366e-03
      -1.4515467229842224e-03 1.5418717445230803e-03
      1.4071476531478295e-03 -1.5733045049033097e-03
      -1.0409779536246560e-03 -1.9009592208838876e-03
      -8.9754114478447940e-04 -2.2006093627894032e-03
      -1.4754271793158064e-03 1.0953034924058083e-03
      2.0928653290131168e-03 1.7236922459051859e-04
      -1.3607948016710332e-03 -1.8559234821524527e-03
      1.6083171011500520e-03 4.4102511290254989e-04
      4.9106254955549303e-04 2.3149856557531912e-03
      2.8691944249615697e-04 1.4450450054032543e-03
      6.7145118472045835e-05 -9.8100114499902256e-04
      1.4593173737368311e-03 7.4178094195246171e-04
      1.8640092699733818e-03 1.8262984469619619e-03
      1.4554719889419822e-03 -6.0909213571246198e-04
      -2.0418840052132950e-03 2.5188045243331082e-04
      -7.1386654708714681e-04 -9.5499042695869850e-04
      1.6664901855110591e-03 -7.7239412271499326e-04
      -6.3575957033826344e-04 -1.3173207237738912e-03
      -1.1823246898487439e-03 -1.4668249140431478e-04
      -1.2196029715972607e-03 3.2549810164871117e-04
      -6.1573686962339313e-04 1.9933698507424717e-03
      2.2580403293726687e-03 -4.3162958938988715e-04
      -9.2494856701638012e-04 1.9163650494240690e-03
      -7.6375587155959215e-04 -8.8490453477375831e-04
      1.4823101306282748e-03 -8.5762748477362946e-04
      -6.9089622141154587e-04 9.8231592884332267e-04
      6.0856202044486899e-04 -7.4237253628102907e-04
      -1.3776728072824661e-03 1.3064651356346191e-03
      -2.1313534647670147e-03 -9.2182716773155354e-04
      2.1331847825957974e-03 -1.0552759031146951e-03
      2.8384962858564613e-04 -1.7237350473963244e-03
      -1.0342657928241019e-03 6.6816100568395408e-04
      -2.9876062736553183e-04 4.8585809016352550e-04
      -1.1473708348984002e-03 2.0914367862959042e-03
      -1.6150944617090279e-03 1.4808650428367394e-03
      1.8897507213330319e-03 6.7975466751758859e-04
      -2.9245706745140485e-04 -6.3375497447284317e-04
      -1.5454181682708020e-03 1.1741861809691256e-03
      2.1485154867529606e-03 1.8883208964542504e-03
      -9.9123683279881379e-04 -1.0873626985958532e-03
      1.9111344890066779e-03 -2.6601278725292587e-04
      1.3328045869377264e-03 -2.0844281254932888e-04
      1.8078864303436495e-03 1.7931660373559268e-03
      -6.8767848164326073e-05 4.9978010910539498e-04
      -1.8644370981642836e-03 1.8172780932159613e-03
      1.3324546481510431e-03 1.2306018565529030e-04
      1.2338645842278071e-03 -1.7899505803006558e-03
      1.4329741064186240e-03 1.1029158075854665e-03
      1.7158199879221995e-03 -1.4815080685542735e-03
      1.3458944635298539e-03 -1.8624411496943459e-03
      9.4211143019387491e-04 1.6548488151623051e-03
      -1.4030538378189403e-03 1.7829624073230754e-03
      -7.7226820007071054e-04 -9.6036634570001141e-04
      1.4720401226388046e-04 1.4585916064863058e-03
      -1.9230548934458034e-03 -1.6699085082350178e-03
      1.6390020987711357e-04 -3.4516685750953879e-04
      1.8294198909859058e-03 1.3539407656881603e-03
      -1.9453662704039668e-03 -7.0386459286737597e-04
      9.5523207302143631e-04 -1.5296038864711942e-03
      4.9010529847910364e-04 1.0160269928065808e-03
      -1.7829670465606430e-03 2.4508091259842251e-04
      -3.4994207711384060e-04 -1.0675310734135652e-03
      -1.7962996926372711e-04 -1.4093689913919428e-03
      1.8631486871474652e-03 -1.7106406739335230e-03
      -4.2548735805200162e-04 -1.2285210645734950e-03
      -1.1250772544274029e-03 -3.1452407724468477e-04
      1.3260632051131699e-03 4.9008612788301162e-04
      -1.5566216597581299e-03 -8.4872767537345082e-04
      1.3734409404831157e-03 1.8183623225165983e-03
      -2.1420934280618371e-03 -1.9733958811542123e-03
      -1.4309360589834928e-03 -1.1947852342922274e-03
      -7.8625473874492760e-05 -1.8015917420025850e-03
      3.5144648680291904e-04 -1.5439632994760841e-03
      -1.5379511464423162e-03 1.6606813048846833e-03
      -5.1734420181356118e-04 1.8466385941609228e-03
      8.7554687059365817e-05 -9.5940257340628723e-04
      9.0224171362993739e-04 2.0728581761856007e-03
      -1.1995129646407089e-03 2.2989142139612595e-04
      -4.1556739832704733e-04 1.4885314453005083e-04
      -2.5534135812599009e-04 -1.7487373580510725e-03
      8.6954980598685945e-04 1.8233967750383520e-03
      -1.9189973468568061e-03 4.5196747793294610e-04
      9.0490322490905707e-04 6.3407377099945598e-04
      2.0413169583079200e-03 1.6903608267300554e-03
      -1.6340196491879311e-03 -3.0463937580596595e-05
      1.8715134105407186e-03 -1.6369615268376926e-04
      -4.3121287227440970e-04 -1.8182190281523470e-03
      -8.2337116169997084e-04 -5.6235743780329670e-05
      -4.8101035458572762e-04 1.3503849190201660e-03
      -2.6108465975820230e-04 -1.2542211205578764e-03
      -1.5322528075094875e-03 3.3962325105002072e-04
      1.6731574331044260e-04 -1.5715559357682360e-03
      -1.1124891264571474e-03 -1.3280086054961720e-03
      -5.8302487796629636e-04 -1.9346549655034134e-03
      -8.5625350841978537e-05 -1.8413059303066569e-03
      -1.0066275358439859e-03 -2.0658180314441919e-04
      -1.7664628705979979e-03 -1.1076710871360639e-03
      2.0912738980765380e-04 -1.2432189932355677e-03
      -4.2033993342025411e-04 -1.0924640741847374e-03
      1.3399335020915810e-03 1.8775336256196752e-03
      2.1684712690739419e-03 5.3272146816022391e-04
      -2.0163738480033868e-03 1.3953529336578436e-03
      -6.9226328552656900e-04 5.1971054910991026e-04
      -7.1386435203167912e-04 -1.7997488890442821e-03
      -2.7564577743146592e-04 1.2143995518640713e-03
      4.2208200324130772e-04 -1.9562611621073800e-03
      -1.1083278726613914e-03 1.3189550954038236e-05
      1.4261200333616144e-03 -6.1659313954979655e-04
      1.8070785595523161e-04 -4.8722200556721373e-04
      1.1864248811782078e-03 -1.0105891936055080e-03
      1.1043818933339125e-03 -2.2293773669067956e-03
      2.1390961309720770e-03 -7.0810764233370297e-04
      -4.6167108260509857e-04 1.1341982920640100e-03
      -2.0622119653264481e-03 1.0195032981434300e-03
      1.0400864307935128e-03 -4.6066110640478230e-04
      -1.1056869179097875e-03 -1.1510827146712854e-03
      6.8396164294163588e-04 -1.7347629401781492e-03
      1.2523411039720013e-03 1.0304248579260098e-03
      1.7973980319661302e-03 -8.4527136881692435e-04
      -1.5414328201977738e-03 1.9172046307325962e-03
      -2.3280307452264016e-04 1.2364678406594938e-03
      2.2195431443793926e-03 -1.2030747316044063e-03
      5.4326690170448662e-04 -1.5280806219799279e-03
      -5.4718012254106234e-04 -1.9459915386405604e-04
      -2.1739107523366047e-03 5.7131835442109568e-04
      -1.5409234105992992e-03 1.8648557566809782e-03
      1.4445133580061659e-03 -1.6360637156380127e-03
      -2.0998521293253795e-03 7.9493166953789769e-04
      -1.8109541910334979e-03 9.6356323290525711e-04
      -1.3625972425023122e-03 1.8621550114773677e-04
      1.6905390683469824e-03 9.5335118513362031e-04
      2.1387632420384940e-03 -1.5731065811555873e-03
      1.2797547628770709e-03 6.5625696458858102e-04
      -9.6221841632731727e-04 -1.1209876782393312e-03
      1.4420702221840435e-03 -1.9107861849110316e-03
      -5.7393016339683952e-04 -2.0254897889977297e-03
      5.7720710749383234e-05 -8.6848561532734182e-04
      4.9730040854686539e-04 1.1103025880212045e-03
      1.4651750035877687e-03 -1.9290179851215897e-03
      1.7450959390545012e-03 6.8207279322764864e-04
      2.1304515395120949e-03 -1.0998814159662433e-03
      -4.0702692873428832e-04 1.4322412892717627e-03
      8.2267866553883712e-04 6.1083222760897112e-04
      -1.8809486805697927e-03 2.0263444612758619e-03
      1.6699628571069484e-03 8.6301842968742053e-04
      -4.0940756554312706e-04 9.5345065141088606e-04
      8.9167072704144398e-04 1.4183640387804340e-04
      -2.6021344498315488e-05 1.8578407098478950e-03
      -3.6305042297159245e-04 1.5958295540055686e-03
      -1.1447115833909487e-03 -1.4458490701736481e-03
      -6.6139025339300263e-04 -1.2394396036423810e-03
      -1.3009887571400740e-03 -1.4383410362153394e-03
      -1.8932851505051723e-03 -9.0813001143129682e-04
      1.7643721047178615e-03 -1.3362158654931255e-03
      -1.7503132346440703e-03 1.1451716233298952e-03
      -2.8291433727102301e-04 5.8878370763124305e-04
      4.7510591147985630e-04 6.9485493723982206e-04
      -1.4647950398146952e-03 2.0419413132262529e-03
      1.1654947680836952e-03 1.7273278878433573e-03
      -1.8525812408406821e-03 1.2322581540115199e-03
      9.9778033507846994e-04 -1.4269270499939898e-05
      2.6434878863807783e-04 6.5087602325137012e-04
      -1.3291103532006255e-03 -1.9371242463792442e-03
      -1.3084786239217097e-03 9.3425383251361400e-05
      -6.1072956670915610e-05 1.9372684693011802e-03
      -1.9237362504298408e-03 1.1681486789097866e-03
      -1.5550334676326335e-03 -3.9809507959474963e-04
      1.3099682067474114e-03 1.5778867690689855e-03
      -1.2228159502389573e-03 1.1452208711798902e-04
      1.2782922215590110e-03 -1.5833946788056147e-03
      5.2212737528120039e-05 -1.7633561769111208e-05
      1.0035115102790860e-03 4.6497851214771059e-05
      -1.9589733744354377e-03 1.1269907069272982e-03
      1.7376827877154113e-03 -7.9484953556031314e-04
      2.0518292532463135e-03 -1.2055677812935631e-03
      -1.2472616534949415e-03 -1.7280230405188844e-03
      3.1054051050862907e-04 1.9223688875883698e-03
      -3.6305176166796679e-04 1.4492465996775545e-03
      -8.9535847261936873e-04 2.0669146649448791e-03
      -6.5736704721747522e-04 2.0662444724606061e-04
      4.1835386533100471e-04 -1.3385123938631875e-03
      -2.1085499492224857e-03 1.3342770772353848e-03
      1.5664993948498779e-03 -4.1484149356230257e-04
      2.0845689209880421e-03 -1.1142633622607070e-03
      -5.3323642123889519e-04 3.2989138622797562e-04
      -6.0927106037619654e-04 -1.7906017658079161e-04
      2.2351484798808201e-05 1.2654292050449031e-03
      9.8858124577833680e-05 -1.2487324283230203e-03
      1.1777144052051630e-04 3.2533985712684694e-04
      5.3382363926867908e-05 -8.8564512382081613e-04
      1.2025256603406035e-04 7.7603210101832170e-04
      1.0253160018647439e-03 -8.3249246872750277e-04
      -8.2791635006361595e-04 1.2659623252326460e-03
      -1.5795463046107373e-03 -8.5634346710038156e-04
      1.0922653826940917e-03 -8.7955955991097319e-04
      1.4196504295849724e-03 -1.6752774216798199e-03
      -9.4816198870263592e-04 -5.7251244753511331e-04
      -1.9075898721415119e-03 1.4263069527896688e-03
      -5.2993369954170550e-04 2.0500142418380609e-04
      -1.6015286099247258e-03 -3.4821356513300155e-05
      -8.0655166605819663e-04 2.0815553385086061e-04
      -4.8350803580705248e-04 1.2184000681265724e-03
      1.4472957239615131e-03 3.0007746269347630e-04
      -1.4451256098447973e-03 -1.4648715997662993e-03
      -2.5306588227605236e-04 1.7488582818770211e-03
      1.0391350161572483e-03 2.0148253467897601e-03
      1.1276596297198829e-04 -2.9963080685595564e-04
      2.1084539818926848e-04 1.8432931423620139e-03
      2.1987765108220179e-03 1.9875256776260251e-03
      1.0818076611051851e-03 1.2865011953515136e-03
      1.9743880139678227e-03 5.6949939192593843e-04
      -2.1293639099639748e-03 8.1229044982942004e-04
      1.7681886742508309e-03 7.0951434625377572e-04
      5.5565500947154297e-04 -1.7139837875908203e-03
      -1.6539547607219115e-03 5.8000520622790669e-04
      2.0819387974411515e-03 8.3350734318607519e-04
      1.1543450310985499e-03 -5.8616500527816661e-04
      -1.7104182324216470e-03 1.6732806758565971e-03
      -1.7351530904838727e-03 1.9623254088266696e-03
      -1.2553311020658624e-03 1.5476207156478843e-03
      7.4425186187706074e-04 -5.3802363743906195e-05
      1.7247404801692175e-03 2.4414471782985758e-04
      1.8135467057128806e-03 1.5068181195132505e-03
      -3.1051180901456890e-04 1.1495892348193158e-03
      2.0199012338494838e-03 2.0042195121153300e-03
      2.1720169842188212e-03 -1.8371435565624403e-03
      -1.0536200020924816e-04 1.7701089278822594e-03
      1.9806482180061173e-03 6.1479308452599426e-04
      1.4591503205268360e-03 4.8741572238024324e-04
      2.3512206973494976e-04 -1.0199867806597513e-03
      -1.6031942251889552e-03 1.6906453962892086e-03
      -1.3400973740807654e-03 -7.5326046750090133e-04
      -1.7782520651711093e-03 9.4918826921271994e-04
      -2.0233110934324903e-03 -1.0577298373113894e-03
      -3.7049274515376583e-04 -1.2730342961978335e-03
      1.5609516552931889e-03 5.4164177429656289e-04
      -2.5877612664086425e-04 1.5944836019870679e-03
      -5.8330763083123602e-04 -1.8075550733825697e-03
      -1.3876768763994882e-03 -1.3537174869268341e-03
      9.0066196216997344e-04 -1.1166239324305321e-03
      1.8316825259975353e-03 9.0547380269497739e-04
      6.0354541531832957e-04 -9.1626300540932886e-04
      -3.4942996688970839e-04 -1.8690839026781760e-03
      -2.0358197508138260e-03 -1.5141472932859437e-03
      -1.7453229184019501e-03 7.3587943274295241e-04
      -1.4917272833651002e-03 2.9690592278943642e-04
      -3.9961039066267349e-04 -1.6524506278906982e-03
      -1.5729721497578356e-03 -1.2810564080014814e-03
      1.1833292454414516e-03 1.4593951096286697e-03
      -1.9431250523447628e-03 -2.0190656141464629e-03
      1.1927286126813723e-03 1.9675840693561338e-03
      1.1541787108353292e-03 -7.0254172095032775e-04
      -1.7067985240940069e-03 1.1240189173285522e-03
      1.7562193410115467e-03 -1.7199220641320840e-04
      -1.4171695413771289e-03 1.7911381343163597e-03
      3.0258128564252928e-04 6.3805299522760634e-04
      8.1534678195597826e-04 -1.2027508751921803e-03
      -9.2448496896732808e-04 6.0133765511164827e-04
      2.0373045574106526e-03 1.3981544505989424e-04
      8.3948086757593924e-04 -1.7683400863602392e-03
      -4.7083721739979591e-04 -1.8425606860406599e-03
      -1.4865108399023709e-03 -9.7274761334314888e-04
      -1.2413624050138046e-03 -2.1041552609511825e-03
      -1.9959241145366888e-03 2.1055427452737240e-03
      1.0467508627079708e-03 1.6729342190027951e-03
      -8.8275708051019483e-04 1.6758675644854973e-03
      -9.1306353115831642e-04 -2.0420162496679658e-03
      -1.3094665542183067e-03 4.9714377148708973e-04
      -1.1836589027499132e-03 8.2736652466598882e-06
      -2.2346797932359759e-03 1.5589098786439712e-03
      7.8108400185613507e-04 5.9113483878833111e-04
      -2.0196112777005680e-03 5.1144975687004936e-04
      -7.8754956854220118e-04 -1.3163529662509562e-03
      -8.6021795029220607e-04 1.3325824855081950e-03
      -1.7466551779649698e-03 1.7599359754208116e-03
      3.0821181198472351e-04 -1.2897162786264552e-03
      1.2433375876543659e-03 1.7515446036976215e-03
      -3.4053989307386042e-04 2.1630016986864502e-03
      -5.2026306218630708e-04 1.5535909481671662e-03
      1.4307547775316526e-03 -8.8987866792963758e-04
      -1.2883330218889410e-03 -2.3813497008235384e-04
      1.6496810998886237e-03 -4.6545096336915134e-04
      -7.6713612067004196e-04 7.2639871176847387e-04
      -1.0671350272079784e-03 2.1294052691167146e-03
      7.0977725914931841e-04 1.7051438533153178e-03
      -1.0324985225561470e-03 -2.4053734628151291e-04
      -3.6166178826324162e-04 7.8614890700313088e-04
      -1.3948276417769659e-03 1.3078254162867500e-03
      -1.3857438382621292e-03 -1.6777525495104920e-03
      -8.8678353602437759e-04 -1.2778235798247813e-03
      -1.6788881319096112e-03 -5.8312513712576353e-04
      -8.4032091849586636e-04 -1.7911912740856642e-03
      1.0185621336566341e-03 -2.1015228268752256e-03
      1.4553235642154449e-03 -5.4565309421970799e-04
      -1.9205468674555570e-03 -9.8920419835643895e-04
      -6.3515857819052392e-04 5.1514194930899089e-04
      -5.6300608861238166e-04 -1.4443179827026793e-03
      -1.3223778028693138e-03 1.7007671543983458e-03
      -1.0900069320974989e-03 3.6841025577588171e-04
      -4.7565679067196131e-04 -4.3228682882565306e-04
      -2.1745633308685001e-03 1.9204971070334036e-03
      -2.6640651975462531e-04 1.5577083790628669e-03
      -1.4597151364989112e-03 -1.9568407219397604e-04
      -3.1393127741048346e-04 -1.5528682472106500e-03
      -1.4980871891894711e-03 2.7303201250496352e-04
      1.4030011197897687e-03 8.3972343784962007e-04
      1.7976431989529674e-03 1.8208432964725390e-03
      1.7603534716242712e-03 -1.0016422931767186e-03
      -1.4997204171982934e-03 3.0849935105929627e-04
      -4.8011397515331807e-04 -2.1010115639534515e-03
      -1.3379982840777541e-03 2.0876824178280582e-04
      1.1061306236787713e-03 -2.0694608448734750e-03
      1.1377624637514594e-03 -1.8024090325797614e-03
      2.4203144538111678e-04 -1.7779209463742928e-03
      1.6514420066723586e-03 2.0557033851675709e-03
      -2.2147937423079272e-04 1.8254109911179208e-03
      3.3582460151700458e-04 2.0178251498544552e-03
      4.7985033587399993e-04 -1.1097187489365345e-03
      -3.2531802204106673e-04 -2.6786777460004917e-04
      -1.5988770768176204e-04 6.7816352593290841e-04
      -2.1402122834196183e-03 -2.0974527842395181e-04
      1.7404761545812084e-03 -4.1291180469035376e-04
      4.2576804341832881e-04 -1.2235444214793612e-03
      2.4787574718511347e-04 1.9959722273201362e-03
      -1.0043368105029070e-03 7.2459594033314671e-04
      2.3911828872951685e-04 1.5433090264708026e-03
      -1.5140398030444372e-03 -4.5373803819925010e-04
      5.5643649831403782e-04 3.6464423568107455e-04
      1.6216233123194403e-03 6.9193042763686147e-04
      -2.2038559374378073e-03 2.2542828187473041e-03
      3.0147013919710455e-04 -3.5393073754012226e-04
      6.1152075540959268e-04 9.5999188878446952e-04
      1.3207105700314234e-03 3.9855781785537838e-04
      -3.0083199997664873e-04 1.4447697639210309e-03
      1.3408232105425475e-03 -1.8049019399850731e-03
      -1.1724637675823968e-03 1.0076810576708805e-03
