<?xml version="1.0"?>
<opencv_storage>
<opencv_ml_ann_mlp>
  <format>3</format>
  <layer_sizes>
    900 128 128 128 24</layer_sizes>
  <activation_function>SIGMOID_SYM</activation_function>
  <f_param1>1.</f_param1>
  <f_param2>1.</f_param2>
  <min_val>-9.4999999999999996e-01</min_val>
  <max_val>9.4999999999999996e-01</max_val>
  <min_val1>-9.7999999999999998e-01</min_val1>
  <max_val1>9.7999999999999998e-01</max_val1>
  <training_params>
    <train_method>BACKPROP</train_method>
    <dw_scale>1.0000000000000000e-03</dw_scale>
    <moment_scale>1.0000000000000001e-01</moment_scale>
    <term_criteria>
      <epsilon>1.0000000000000000e-04</epsilon>
      <iterations>10000</iterations></term_criteria></training_params>
  <input_scale>
    1. 0. 1. 0. 1. 0. 1. 0. 1. 0. 1. 0. 1. -255. 1. -255. 1. -255. 1.
    -255. 1. -255. 1. -255. 1. -255. 1. -255. 1. -255. 1. -255. 1. -255.
    1. -255. 1. -255. 1. -255. 1. -255. 1. -255. 1. -255. 1. -255. 1.
    -255. 1.9624886028901153e-02 -2.0851441405707474e-01 1. 0. 1. 0. 1.
    0. 1. 0. 1. 0. 1. 0. 1. 0. 1. 0. 1. 0. 1. -255. 1. -255. 1. -255. 1.
    -255. 1. -255. 1. -255. 1. -255. 5.5143226293813144e-02
    -7.1479407083355276e-02 2.7403356016403594e-02
    -1.4616265015249266e-01 2.0877251205210716e-02
    -1.9498047797466483e-01 1.6110822162225931e-02
    -2.5984742294900148e-01 2.8039832411706680e-02
    -1.4270522208032971e-01 2.2670778717508999e-02
    -1.7848987469028804e-01 2.1399896419439648e-02
    -1.8985720604621611e-01 1.9624886028901153e-02
    -4.7958315233127191e+00 1. -255. 1. -255. 1. -255. 1. -255. 1. -255.
    1. -255. 1.9624886028901153e-02 -2.0851441405707474e-01 1. 0. 1. 0.
    1. 0. 1. 0. 1. 0. 1. 0. 1. 0. 1. -255. 1. -255. 1. -255. 1. -255. 1.
    -255. 2.8662670067340600e-02 -1.3947971821519620e-01
    2.0235836333016170e-02 -2.0167540385392241e-01
    1.5361386944585080e-02 -2.7452718643341611e-01
    1.5599661459528465e-02 -2.6966939769318610e-01
    1.6732191400818303e-02 -2.4889134708717225e-01
    1.5155019905061965e-02 -2.7889025380290283e-01
    1.3421929977852222e-02 -3.2257930960520587e-01
    1.3929511059183495e-02 -3.0828619757296671e-01
    1.7472006331664035e-02 -2.3706236590880908e-01
    1.4980919362668885e-02 -2.8268994837356187e-01
    1.7832390744355938e-02 -2.3172077247869019e-01
    2.2295680543035098e-02 -1.8169586162539664e-01
    2.1301791333508648e-02 -1.9079748225032028e-01
    1.9681459975068923e-02 -4.8109114744808785e+00 1. -255. 1. -255. 1.
    -255. 1. -255. 1.9624886028901153e-02 -2.0851441405707474e-01 1. 0.
    1. 0. 1. 0. 1. 0. 1. 0. 1. -255. 1. -255. 1. -255. 1. -255.
    2.1301791333508648e-02 -1.9079748225032028e-01
    1.5822692488636252e-02 -2.6528721793759757e-01
    1.6984964496509027e-02 -2.4471087598345381e-01
    1.7182974245306633e-02 -2.4153892109449468e-01
    1.2630435194116130e-02 -3.4811058199383321e-01
    1.2150255016703132e-02 -3.6598846283125464e-01
    1.2504385364858461e-02 -3.5260803680730252e-01
    1.1945306823308266e-02 -3.7428379185807081e-01
    1.0501716565665242e-02 -4.4855456881097661e-01
    1.1917562940401302e-02 -3.7544047500682975e-01
    1.1048704633330034e-02 -4.1650854291495892e-01
    1.1308821663018045e-02 -4.0312415221889641e-01
    1.2978685578084013e-02 -3.3633452507756090e-01
    1.7972123652989953e-02 -2.2971743801706096e-01
    1.8436586807434274e-02 -2.2331315770504764e-01
    1.6012851720613480e-02 -2.6167001317947503e-01
    3.9251697144765514e-02 -9.9082568456317279e+00 1. -255. 1. -255. 1.
    -255. 1. -255. 1.9624886028901153e-02 -2.0851441405707474e-01 1. 0.
    1. 0. 1. 0. 1. -255. 1. -255. 1. -255. 1. -255.
    2.6734930026805628e-02 -1.4998295745037957e-01
    1.9155379952607424e-02 -2.1410925942026948e-01
    1.4728309940331032e-02 -2.8840792421281974e-01
    1.3340408572564175e-02 -3.2501404160445257e-01
    1.1990913106722160e-02 -3.7240028949133180e-01
    1.0608309295761398e-02 -4.4183608216846221e-01
    9.5309375707621873e-03 -5.2476150897420260e-01
    9.6957952725219738e-03 -5.0942314349034978e-01
    8.9292986098193292e-03 -5.9428946897652546e-01
    9.5598129515274653e-03 -5.2198371180268377e-01
    9.0099119381650099e-03 -5.8338053560626169e-01
    9.0474454422075634e-03 -5.7850497088155428e-01
    9.5994726417485583e-03 -5.1823353023519703e-01
    1.1357215248751221e-02 -4.0074643831171736e-01
    1.1912387889905106e-02 -3.7565715210815753e-01
    1.2664836784515533e-02 -3.4690571057386110e-01
    1.4907796167477293e-02 -2.8431962503160596e-01
    1.6185617273914436e-02 -2.5847419185361731e-01
    1.7936858248945274e-02 -2.3021957562521261e-01
    1.9662544232028647e-02 -4.8058699048318614e+00 1. -255. 1. -255. 1.
    -255. 1.9624886028901153e-02 -2.0851441405707474e-01 1. 0. 1. -255.
    1. -255. 1. -255. 1. -255. 1.6375136585216287e-02
    -2.5506322123547520e-01 1.7026343716943698e-02
    -2.4404071278791867e-01 1.5964600910021103e-02
    -2.6257777346757211e-01 1.1150949504969960e-02
    -4.1112156956136120e-01 9.6357412974833901e-03
    -5.1486776921609212e-01 9.2091596346084732e-03
    -5.5880605090327051e-01 9.2025192038060772e-03
    -5.5957643491093567e-01 8.8539462675374433e-03
    -6.0507868792350894e-01 8.7364126391983356e-03
    -6.2322291613301228e-01 8.7276899250925914e-03
    -6.2464076793887668e-01 8.8161008439630872e-03
    -6.1073538596554289e-01 8.3483151316430075e-03
    -6.9976099203127418e-01 8.3856153722204757e-03
    -6.9085940445959915e-01 8.9173632482183376e-03
    -5.9595853258249176e-01 8.7859357480211623e-03
    -6.1536693979140222e-01 9.3472475783501225e-03
    -5.4344897420527616e-01 9.9523130620864791e-03
    -4.8779396415117737e-01 1.2037178872898785e-02
    -3.7051188894462017e-01 1.3775183117250324e-02
    -3.1248141952537528e-01 1.4783611141230495e-02
    -2.8713468739054926e-01 1.6343905311558347e-02
    -2.5561867907277258e-01 1.9624886028901153e-02
    -4.7958315233127191e+00 1. -255. 1. -255. 1. -255. 1. -255. 1. -255.
    1. -255. 1. -255. 2.1375236507085744e-02 -1.9009265016207688e-01
    1.5261160136717758e-02 -2.7662760392818025e-01
    1.3002359346090349e-02 -3.3556651529881798e-01
    1.2234849327784767e-02 -3.6268681476051967e-01
    1.0023342527403450e-02 -4.8222300899338000e-01
    8.8005107758758853e-03 -6.1311508479756816e-01
    8.6861458154789475e-03 -6.3154251803780093e-01
    8.3671667874691824e-03 -6.9520697045384572e-01
    8.5377211233158851e-03 -6.5848774986284386e-01
    8.0998176255337537e-03 -7.7480324212847906e-01
    8.0462138704867903e-03 -7.9686181954732827e-01
    8.0457415409708778e-03 -7.9707150011013239e-01
    8.0381132747859071e-03 -8.0050062957353829e-01
    8.2732919848828284e-03 -7.1914039336346824e-01
    8.1514293655945268e-03 -7.5618262902943678e-01
    8.7100415363850856e-03 -6.2754216136866470e-01
    9.2626980309814290e-03 -5.5270519150866193e-01
    9.1805785840111641e-03 -5.6214404028384857e-01
    9.8795843494697867e-03 -4.9367665520278681e-01
    9.8645455366713677e-03 -4.9491658025672336e-01
    1.2885508867471293e-02 -3.3939625012615171e-01
    1.7074040319172760e-02 -2.4327306072261337e-01
    2.7192207450580069e-02 -1.4734777412283076e-01
    1.9624886028901153e-02 -4.7958315233127191e+00 1. -255. 1. -255. 1.
    -255. 1. -255. 1. -255. 5.5143226293813144e-02
    -7.1479407083355276e-02 2.0256565946247581e-02
    -2.0145154833543219e-01 1.7026343716943698e-02
    -2.4404071278791867e-01 1.0600698149816000e-02
    -4.4230750486472897e-01 9.5665920450170600e-03
    -5.2133741261323274e-01 9.0074756822180781e-03
    -5.8370131322463559e-01 8.4365582065299930e-03
    -6.7936966812746491e-01 8.5474266254759717e-03
    -6.5660262908578226e-01 7.9914277667081698e-03
    -8.2353161528633945e-01 7.8905849543821800e-03
    -8.9588715248935968e-01 7.8513882742621381e-03
    -9.5517045474070328e-01 7.8487564687930791e-03
    -1.0385768887874580e+00 7.8483192924338283e-03
    -9.6430337066311345e-01 7.8489564699482945e-03
    -1.0392705149902661e+00 7.8456386961824366e-03
    -1.0255769868407831e+00 7.9487882271087121e-03
    -8.4878154287595220e-01 8.1922979517201570e-03
    -7.4282637639978555e-01 8.3052500907087809e-03
    -7.1062315166757672e-01 8.4513633467973182e-03
    -6.7616188876470285e-01 8.6541600092591344e-03
    -6.3703271828156482e-01 9.1227987966754718e-03
    -5.6907448718736808e-01 1.2200750242129724e-02
    -3.6400938347394035e-01 1.6012851720613480e-02
    -2.6167001317947503e-01 1.9278246463137090e-02
    -2.1261496068032318e-01 2.1399896419439648e-02
    -1.8985720604621611e-01 1.9624886028901153e-02
    -4.7958315233127191e+00 1. -255. 1. -255. 1. -255. 1. -255.
    1.5897852916368464e-02 -2.6384474146328013e-01
    1.5102872161595475e-02 -2.8001668917108108e-01
    1.2191340521496617e-02 -3.6437630942405608e-01
    9.9696458179379128e-03 -4.8641901945719074e-01
    8.7308545899105819e-03 -6.2412514035975797e-01
    8.7686640072315043e-03 -6.1807024337972161e-01
    8.0948116108284923e-03 -7.7673258885979124e-01
    7.9029840771606286e-03 -8.8385986045954834e-01
    7.8485356610403390e-03 -9.6357943911028687e-01
    7.8598870825266967e-03 -1.0675249511193494e+00
    7.9629713375639101e-03 -1.1907528726767913e+00
    8.0996378695221312e-03 -1.2905355508456351e+00
    7.9856566830355646e-03 -1.2096722653816543e+00
    8.0556278903029088e-03 -1.2614408408773954e+00
    8.1103670393082600e-03 -1.2973292426283496e+00
    7.8725879559353330e-03 -1.0904961225537448e+00
    7.8522828835626696e-03 -9.5285980488992328e-01
    8.1314332761866087e-03 -7.6314009511591074e-01
    8.4184615433647685e-03 -6.8336861578263508e-01
    8.6310179464848761e-03 -6.4110661867868002e-01
    8.7504191948588033e-03 -6.2096802915115823e-01
    9.9946509581815158e-03 -4.8445322525675577e-01
    1.1148280400433227e-02 -4.1126006397198173e-01
    1.4720989361487634e-02 -2.8857739457691223e-01
    1.5974212496755215e-02 -2.6239640802482533e-01
    1.9624886028901153e-02 -4.7958315233127191e+00 1. -255. 1. -255. 1.
    -255. 2.1399896419439648e-02 -1.8985720604621611e-01
    1.5114852621147146e-02 -2.7975702845165723e-01
    1.1936610774734785e-02 -3.7464544992851967e-01
    9.7674835655431197e-03 -5.0312307846112603e-01
    9.0895360550735695e-03 -5.7318046267290490e-01
    8.4178744225135282e-03 -6.8349983607901410e-01
    8.4158225861114908e-03 -6.8395916146239710e-01
    7.8643603702316031e-03 -9.2909061891393019e-01
    7.8526666037375594e-03 -1.0505248303313832e+00
    8.0025152978635220e-03 -1.2229393862474423e+00
    8.1713844758871824e-03 -1.3341776931851823e+00
    8.6183651289748597e-03 -1.5543113780542046e+00
    8.8777151339080890e-03 -1.6622078959533635e+00
    8.9450613604775357e-03 -1.6888834914916617e+00
    8.9431977405128801e-03 -1.6881515424907381e+00
    8.7131601514131608e-03 -1.5948296054891919e+00
    8.2334676797525107e-03 -1.3691587782179446e+00
    8.0008655653553730e-03 -1.2216671647970470e+00
    7.8559470275721827e-03 -1.0588098104755019e+00
    7.8613785002503971e-03 -9.3408408003818943e-01
    8.0100551296863314e-03 -8.1387667030514788e-01
    8.3277939400877698e-03 -7.0485406934660377e-01
    8.8021871211120921e-03 -6.1285777967438015e-01
    9.6399702450226388e-03 -5.1447918699545503e-01
    1.3392802400531895e-02 -3.2344454847434562e-01
    1.7104073394578256e-02 -2.4279232183603836e-01
    2.8786215017069201e-02 -1.3885750468858757e-01
    1.9624886028901153e-02 -4.7958315233127191e+00 1. -255. 1. -255.
    2.2129004301465197e-02 -1.8315900247768976e-01
    1.7122176290936653e-02 -2.4250352308057219e-01
    1.1023086069975868e-02 -4.1788519291278514e-01
    8.9581757606411305e-03 -5.9031018946714808e-01
    8.8688627713605223e-03 -6.0289420511862413e-01
    8.1276036457011043e-03 -7.6450779767603871e-01
    8.0038972220650827e-03 -8.1699280650652961e-01
    7.8810085165454194e-03 -1.1032180515582877e+00
    7.9807720173437919e-03 -1.2057100964677459e+00
    8.6408778199661609e-03 -1.5640636919975248e+00
    9.3091520704295435e-03 -1.8262694531768680e+00
    1.0570481903970244e-02 -2.2512814162540127e+00
    1.0960071349415594e-02 -2.3734993513402540e+00
    1.1137629355354379e-02 -2.4282816402011385e+00
    1.0255888780311978e-02 -2.1501727225143568e+00
    1.1148280400433230e-02 -2.4315514381384919e+00
    9.0434497326053118e-03 -1.7270615083721337e+00
    8.5143455939779983e-03 -1.5080502486733907e+00
    7.9638004057083663e-03 -1.1914691560732822e+00
    7.8562108291422503e-03 -1.0594296708369053e+00
    7.8639751529469039e-03 -9.2971354747267709e-01
    8.4443839712610436e-03 -6.7766709143368076e-01
    8.6800571057198874e-03 -6.3257543668641003e-01
    9.2080510164637159e-03 -5.5893445173123291e-01
    1.1976810841779050e-02 -3.7298034613332792e-01
    1.7170758270429163e-02 -2.4173208127588555e-01
    2.0235836333016170e-02 -2.0167540385392241e-01
    1.9624886028901153e-02 -4.7958315233127191e+00 1. -255. 1. -255.
    1.7777474168545918e-02 -2.3251825120322528e-01
    1.2959857078146824e-02 -3.3694818412114358e-01
    1.1314473125517463e-02 -4.0284474408834581e-01
    8.7702987600689376e-03 -6.1781273327960617e-01
    8.6800571057198874e-03 -6.3257543668641003e-01
    8.1797421589433848e-03 -7.4681557145038036e-01
    7.8491343495415127e-03 -9.6165141196098380e-01
    8.0371903622966142e-03 -1.2485624530508499e+00
    8.6781608816313190e-03 -1.5800327517186141e+00
    9.7524917230696027e-03 -1.9824621362362813e+00
    1.0734435238910163e-02 -2.3030797895301998e+00
    1.0777113204758597e-02 -2.3164731264053304e+00
    1.0846640920823483e-02 -2.3382171624524939e+00
    1.0919270101041679e-02 -2.3608349149147818e+00
    1.0825233747459723e-02 -2.3315320787567830e+00
    1.1112494709536022e-02 -2.4205583241771036e+00
    1.0829975927560402e-02 -2.3330137205199262e+00
    9.4770829548603362e-03 -1.8866029038240471e+00
    8.6534180152659217e-03 -1.5694596086562611e+00
    8.0151877088499909e-03 -1.2325404994207254e+00
    7.8459448892211972e-03 -1.0271175491635027e+00
    7.9778600708040239e-03 -8.3103373892547816e-01
    8.3572760849134810e-03 -6.9758183480772828e-01
    9.1986580898119931e-03 -5.6002580283036640e-01
    1.0582309219991948e-02 -4.4345166786376261e-01
    1.2624022523364744e-02 -3.4833623149001880e-01
    1.5361386944585080e-02 -2.7452718643341611e-01
    1.9624886028901153e-02 -4.7958315233127191e+00 1. -255.
    2.1375236507085744e-02 -1.9009265016207688e-01
    1.4996468804747374e-02 -2.8234601642138119e-01
    1.1311646008648264e-02 -4.0298445883684980e-01
    9.5994726417485583e-03 -5.1823353023519703e-01
    8.9146234020226270e-03 -5.9634373247830363e-01
    8.1530308516100190e-03 -7.5563818626006340e-01
    7.9433367468797773e-03 -8.5241932464953607e-01
    7.8715689147622267e-03 -1.0888495293262002e+00
    8.2243314054180790e-03 -1.3641441491810549e+00
    8.9992225561262261e-03 -1.7100097720587153e+00
    1.0536390200961266e-02 -2.2404382566007768e+00
    1.0773626651133267e-02 -2.3153803041450214e+00
    1.0851421688382318e-02 -2.3397089409248877e+00
    1.1030746556372727e-02 -2.3953679800159242e+00
    1.1105917840758900e-02 -2.4185357281820656e+00
    1.1183178286077651e-02 -2.4422523689779254e+00
    1.1834082784411041e-02 -2.6387194014575321e+00
    1.0849030226276883e-02 -2.3389627684147074e+00
    1.0398542882891878e-02 -2.1963217359207059e+00
    9.3617522556755373e-03 -1.8453417958774836e+00
    8.2366964219735481e-03 -1.3709209004085412e+00
    7.9333979700973271e-03 -1.1636559391326819e+00
    7.8755144461205157e-03 -9.1317082222420265e-01
    8.5324057406024160e-03 -6.5952829998062734e-01
    8.8229010781523173e-03 -6.0970657900571590e-01
    9.5183191021179208e-03 -5.2598826253247510e-01
    1.2107846732882585e-02 -3.6766990085239581e-01
    1.5662314052067465e-02 -2.6842269601358870e-01
    5.5598525883006740e-02 -7.0888120500833582e-02 1. -255.
    2.1780905595219214e-02 -1.8629480816910934e-01
    1.7510886040362720e-02 -2.3647357167132330e-01
    1.1177781107073584e-02 -4.0973553870616608e-01
    9.2003117302572445e-03 -5.5983321859132196e-01
    8.6474994380993028e-03 -6.3819626790602613e-01
    8.5274478506344974e-03 -6.6050413258070828e-01
    7.8521567382761875e-03 -9.5317821405730785e-01
    7.9815371739814667e-03 -1.2063345169362927e+00
    8.5623294356807281e-03 -1.5296494507725675e+00
    1.0571554809281803e-02 -2.2516222443854197e+00
    1.0718468162011548e-02 -2.2980596710630796e+00
    1.1744594335331808e-02 -2.6120271416636323e+00
    1.0545931433809786e-02 -2.2434755411572325e+00
    9.6050081799141426e-03 -1.9315611418506218e+00
    9.4348564710169495e-03 -1.8715806845850436e+00
    9.6427946630891267e-03 -1.9446925334385063e+00
    1.0539566544403895e-02 -2.2414496169983762e+00
    1.0875455563129615e-02 -2.3472019940721762e+00
    1.0756263464867155e-02 -2.3099344697388839e+00
    1.0589864843112402e-02 -2.2574348699407438e+00
    8.6208841525359584e-03 -1.5554068590635142e+00
    8.0669412306082836e-03 -1.2691264872671790e+00
    7.8490070185121205e-03 -9.6205279025903057e-01
    8.0994581854604026e-03 -7.7494097270075357e-01
    8.7096522805518353e-03 -6.2760665627121459e-01
    9.2632708765705805e-03 -5.5264095095190291e-01
    1.2135441705754381e-02 -3.6657377067550934e-01
    1.6709818179997813e-02 -2.4926871270011738e-01
    2.7456939576074268e-02 -1.4586499149789456e-01 1. -255.
    2.7925858705383871e-02 -1.4331201614369185e-01
    1.4077425922473526e-02 -3.0438034361748223e-01
    1.1934874418687843e-02 -3.7471776026423986e-01
    9.1050391302744654e-03 -5.7125584568287635e-01
    8.3721575217692700e-03 -6.9402046296396580e-01
    8.0424523604359470e-03 -7.9854012140041053e-01
    7.8493149163843274e-03 -1.0404855620286155e+00
    8.0530513893785783e-03 -1.2596683646408338e+00
    8.9445952250851151e-03 -1.6887004458919599e+00
    1.0257772756658533e-02 -2.1507856805364320e+00
    1.0820500079696278e-02 -2.3300526730990474e+00
    1.1175086391564891e-02 -2.4397727987224256e+00
    9.7118307115043045e-03 -1.9685213163857811e+00
    9.0584887031717031e-03 -1.7328209502514729e+00
    9.0494472920243166e-03 -1.7293606893149618e+00
    8.9274557464645039e-03 -1.6819549812732788e+00
    9.5747591055454929e-03 -1.9210018720189153e+00
    1.1061603998572389e-02 -2.4048894983246250e+00
    1.0870631372274829e-02 -2.3456988082325010e+00
    1.1017990956664071e-02 -2.3914273921665452e+00
    9.0040717028122604e-03 -1.7118878774075525e+00
    8.2376218894224147e-03 -1.3714250347194481e+00
    7.8498456339315160e-03 -1.0422240048170874e+00
    8.0298942394149801e-03 -8.0428926307150328e-01
    8.6941855487612397e-03 -6.3018717177002248e-01
    8.8920002506671196e-03 -5.9955423190154389e-01
    1.0931569005955780e-02 -4.2289457922602808e-01
    1.5163096580480699e-02 -2.7871666901996089e-01
    2.0877251205210716e-02 -1.9498047797466483e-01 1. -255.
    1.6120728816395404e-02 -2.5966463941008899e-01
    1.3301583993067577e-02 -3.2618809346999966e-01
    1.0467524006120804e-02 -4.5076429471608093e-01
    9.5795394939959880e-03 -5.2010912240214469e-01
    8.8177975707203343e-03 -6.1047817031489560e-01
    8.0554663439596653e-03 -7.9281396290604533e-01
    7.8478998682849615e-03 -9.6575274791631205e-01
    7.9848793063242302e-03 -1.2090454718157828e+00
    8.9380854358374374e-03 -1.6861418859537456e+00
    1.1116448304690519e-02 -2.4217738454183526e+00
    1.0902145740879761e-02 -2.3555107949333931e+00
    1.1116448304690519e-02 -2.4217738454183526e+00
    9.6392647809829621e-03 -1.9434685651417849e+00
    9.1306986311619712e-03 -1.7602160821154049e+00
    1.0235265274230375e-02 -2.1434564596477323e+00
    9.0767351803121808e-03 -1.7397832156863373e+00
    9.4437318244564358e-03 -1.8747460324615306e+00
    1.1116448304690519e-02 -2.4217738454183526e+00
    1.0916817060233562e-02 -2.3600725651985806e+00
    1.1204870857487689e-02 -2.4488945563467936e+00
    9.2275610625165237e-03 -1.7963408464914197e+00
    8.0393476042754288e-03 -1.2500934295035657e+00
    7.8472826960205525e-03 -9.6801136607098526e-01
    8.0329154904108871e-03 -8.0288488269438674e-01
    8.8194965166073173e-03 -6.1022096398406023e-01
    9.5686305155474414e-03 -5.2114350024114697e-01
    1.0523725326229503e-02 -4.4714651178316273e-01
    1.3322240709931101e-02 -3.2556225734894129e-01
    1.6140602770031303e-02 -2.5929878350055291e-01 1. -255.
    2.0877251205210716e-02 -1.9498047797466483e-01
    1.5175238801129028e-02 -2.7845614747646696e-01
    1.0920497462248917e-02 -4.2351054220784085e-01
    8.9413365760414743e-03 -5.9262061158930890e-01
    8.7253218330936352e-03 -6.2502752286137120e-01
    8.0468445960913404e-03 -7.9658229295644467e-01
    7.8494718272158759e-03 -1.0410067655651536e+00
    8.1025226087627113e-03 -1.2923726124041743e+00
    8.8768272832504096e-03 -1.6618530277655172e+00
    1.0943924360360636e-02 -2.3684909500219740e+00
    1.0849030226276883e-02 -2.3389627684147074e+00
    1.1040993934970765e-02 -2.3985317211906305e+00
    9.7132949099706448e-03 -1.9690245068653804e+00
    9.0021301153878856e-03 -1.7111361449955735e+00
    8.9876499336087098e-03 -1.7055189205264227e+00
    8.8653380434049172e-03 -1.6572530488164525e+00
    9.6273109514960157e-03 -1.9393195010000128e+00
    1.1183178286077651e-02 -2.4422523689779254e+00
    1.0827603772052257e-02 -2.3322726197524135e+00
    1.0324686241521922e-02 -2.1724946672254388e+00
    9.2950816086250932e-03 -1.8211388641698716e+00
    8.0889837019212808e-03 -1.2836812685763976e+00
    7.8495775316749488e-03 -1.0413543912677425e+00
    8.0462138704867903e-03 -7.9686181954732827e-01
    8.3819490064615809e-03 -6.9171510304011297e-01
    9.0946864522654103e-03 -5.7253893306527093e-01
    1.1952280832540681e-02 -3.7399433742571825e-01
    1.4008960601079409e-02 -3.0617458953696619e-01
    2.7869405232721665e-02 -1.4361452883986883e-01 1. -255.
    2.7510848098451335e-02 -1.4556677500093063e-01
    1.6754663226686513e-02 -2.4851354230982770e-01
    1.2117019109453023e-02 -3.6730471489223815e-01
    9.2564096447841950e-03 -5.5341180638150711e-01
    8.6850017642752190e-03 -6.3173617208117405e-01
    8.0990990331334303e-03 -7.7507871553397356e-01
    7.8502860146453263e-03 -9.5820591094760854e-01
    7.9615571747523230e-03 -1.1895263055332761e+00
    8.5596038406255161e-03 -1.5284349602964944e+00
    1.0568337472743199e-02 -2.2506001221407894e+00
    1.0779440162243619e-02 -2.3172023544766995e+00
    1.0919270101041679e-02 -2.3608349149147818e+00
    1.0775950502876734e-02 -2.3161087164286180e+00
    9.7757765875073725e-03 -1.9904153216805403e+00
    9.3316696340701305e-03 -1.8344546104266342e+00
    9.3794407457683873e-03 -1.8517185027819256e+00
    1.0539566544403895e-02 -2.2414496169983762e+00
    1.1754410955408336e-02 -2.6149597262086095e+00
    1.0720743142069526e-02 -2.2987752468448668e+00
    1.0661125973648398e-02 -2.2799884007244469e+00
    8.8526380627614917e-03 -1.6521512429568097e+00
    7.9975941058466060e-03 -1.2191282530136758e+00
    7.8515999789490597e-03 -9.5461224719058724e-01
    8.5294280779190431e-03 -6.6011376252034948e-01
    8.6302910318972002e-03 -6.4123601760185689e-01
    9.1997603297882379e-03 -5.5989741367091217e-01
    1.1185880757031325e-02 -4.0931934160166877e-01
    1.7484935031444559e-02 -2.3686622925410050e-01
    2.2942376858351054e-02 -1.7624047122874550e-01 1. -255.
    5.5598525883006740e-02 -7.0888120500833582e-02
    1.5662314052067465e-02 -2.6842269601358870e-01
    1.2206409007450089e-02 -3.6378913345016095e-01
    9.5349401280869495e-03 -5.2437403234414182e-01
    8.8271693179434937e-03 -6.0906364897645360e-01
    8.5017357321785191e-03 -6.6564871273574977e-01
    7.8790862058086397e-03 -9.0872948311806079e-01
    7.8721327969867548e-03 -1.0897639435018669e+00
    8.2162203650259450e-03 -1.3596560919685903e+00
    9.3739321194183534e-03 -1.8497345902945250e+00
    1.0759726854916118e-02 -2.3110212077038743e+00
    1.1002762339377007e-02 -2.3867192066576601e+00
    1.1952280832540680e-02 -2.6738372748721551e+00
    1.1262616427926617e-02 -2.4665411542569990e+00
    1.0863411449921347e-02 -2.3434483283448770e+00
    1.0528994498796126e-02 -2.2380825543934750e+00
    1.0822865850950148e-02 -2.3307920967871532e+00
    1.0827603772052257e-02 -2.3322726197524135e+00
    1.0880288508835869e-02 -2.3487074798614449e+00
    9.0665711903318430e-03 -1.7359083865289104e+00
    8.4246500401534766e-03 -1.4662945432698873e+00
    7.8764807388239221e-03 -1.0965587256586047e+00
    7.9384559752950258e-03 -8.5577547720677283e-01
    8.1506304434472328e-03 -7.5645491731231052e-01
    8.9205665767898654e-03 -5.9550914789593890e-01
    9.5898237687547742e-03 -5.1913911608168417e-01
    1.1342897622787769e-02 -4.0144641480350185e-01
    1.5004263992767521e-02 -2.8217393971398419e-01
    2.1375236507085744e-02 -1.9009265016207688e-01 1. -255.
    1.9624886028901153e-02 -4.7958315233127191e+00
    1.5369839248423934e-02 -2.7435163058436723e-01
    1.2621887590016185e-02 -3.4841142956290927e-01
    1.0603957255330079e-02 -4.4210548786784937e-01
    9.2058360376519616e-03 -5.5919124916459784e-01
    8.3616570605881436e-03 -6.9652603314699235e-01
    7.9899733715394113e-03 -8.2431556527500671e-01
    7.8488810583285055e-03 -9.6245432312554868e-01
    8.0050074464518336e-03 -1.2248511925112491e+00
    8.6586221407921465e-03 -1.5716914444412386e+00
    9.8115952012773310e-03 -2.0026079030507109e+00
    1.1053857132336548e-02 -2.4025005784276869e+00
    1.0762038344674908e-02 -2.3117463729018590e+00
    1.0837105207985111e-02 -2.3352403889334266e+00
    1.0726439373991028e-02 -2.3005664927859431e+00
    1.0277646995698221e-02 -2.1572459867501950e+00
    1.0703729507863141e-02 -2.2934212233404110e+00
    1.0745900891436819e-02 -2.3066815044155420e+00
    9.8192975689282876e-03 -2.0052233047947681e+00
    8.7809767953351357e-03 -1.6230098935237816e+00
    8.1368447336776836e-03 -1.3136681546124693e+00
    7.8473467688808928e-03 -9.6776913568050560e-01
    8.1776410737042660e-03 -7.4749261541895162e-01
    8.6792982455064973e-03 -6.3270456841321332e-01
    8.7670313853157131e-03 -6.1832776481708562e-01
    1.1290530682331488e-02 -4.0403164046723228e-01
    1.2969259107445822e-02 -3.3664143749458275e-01
    1.7770648061960853e-02 -2.3261778313106757e-01
    1.9624886028901153e-02 -4.7958315233127191e+00 1. -255. 1. -255.
    2.0215173961284968e-02 -2.0189904993833363e-01
    1.7195218625995996e-02 -2.4134564042749504e-01
    1.1990913106722160e-02 -3.7240028949133180e-01
    9.2058360376519616e-03 -5.5919124916459784e-01
    8.7241395216697704e-03 -6.2522091140766523e-01
    8.5427296905080195e-03 -6.5751254745417598e-01
    7.9058103929380685e-03 -8.8131997807875362e-01
    7.8533237595243052e-03 -1.0522815755207107e+00
    7.9825609409361203e-03 -1.2071677673936529e+00
    8.6691018685644741e-03 -1.5761727562330499e+00
    9.1270070855505436e-03 -1.7588256048004460e+00
    1.0590946075953447e-02 -2.2577778844717558e+00
    1.0280500028916485e-02 -2.1581725204454019e+00
    1.0958825843667933e-02 -2.3731131886478338e+00
    1.0315009781419358e-02 -2.1693626008925322e+00
    1.0464439112156262e-02 -2.2174669700614729e+00
    9.3727103202147135e-03 -1.8492943256178644e+00
    8.6743776849612167e-03 -1.5784222924718616e+00
    8.0412072088777275e-03 -1.2514078461270908e+00
    7.9244842630210623e-03 -1.1547707052154224e+00
    7.9977296724134499e-03 -8.2018717223018023e-01
    8.1314332761866087e-03 -7.6314009511591074e-01
    8.8821631331548051e-03 -6.0096715758925412e-01
    8.9605303937897920e-03 -5.8998932278460048e-01
    1.1033304816142725e-02 -4.1733475467059861e-01
    1.7195218625995996e-02 -2.4134564042749504e-01
    2.2184127299314325e-02 -1.8267242323029140e-01
    1.9624886028901153e-02 -4.7958315233127191e+00 1. -255. 1. -255.
    2.8786215017069201e-02 -1.3885750468858757e-01
    1.6961466378627249e-02 -2.4509318917116374e-01
    1.3335208833144496e-02 -3.2517073289070780e-01
    9.6329271073451947e-03 -5.1512679764472635e-01
    8.8021871211120921e-03 -6.1285777967438015e-01
    8.4234679325597191e-03 -6.8225352053021660e-01
    8.0958795932674858e-03 -7.7631895412316498e-01
    7.8644572325143637e-03 -9.2893494244728569e-01
    7.8847338467360750e-03 -1.1084309562155032e+00
    8.0378053674710400e-03 -1.2489995996796797e+00
    8.2547451160128234e-03 -1.3806783496729098e+00
    8.4801331160335117e-03 -1.4923497260091700e+00
    8.9469274395726304e-03 -1.6896160633039918e+00
    8.8960450441745859e-03 -1.6695152134120919e+00
    8.6445517008869443e-03 -1.5656471756165129e+00
    8.5647201919610873e-03 -1.5307135574578854e+00
    8.2095413018609814e-03 -1.3559340200851826e+00
    8.0114723106078228e-03 -1.2297559925081065e+00
    7.8857620789558082e-03 -1.1098322977896418e+00
    7.8485356610403390e-03 -9.6357943911028687e-01
    8.4001546096392540e-03 -6.8750540392929371e-01
    8.4184615433647685e-03 -6.8336861578263508e-01
    9.0915941457083357e-03 -5.7292385183083394e-01
    9.7599737609565945e-03 -5.0377324563897585e-01
    1.1926206862652857e-02 -3.7507920583043236e-01
    1.5269428693528434e-02 -2.7645300649633231e-01
    2.1424646317975783e-02 -1.8962151031803443e-01
    1.9624886028901153e-02 -4.7958315233127191e+00 1. -255. 1. -255.
    1.9624886028901153e-02 -4.7958315233127191e+00
    1.5832023007432243e-02 -2.6510722525945291e-01
    1.4728309940331032e-02 -2.8840792421281974e-01
    1.1145613836835126e-02 -4.1139853873488058e-01
    1.0043824425345328e-02 -4.8064721787490067e-01
    8.9939070191348940e-03 -5.8549772575379455e-01
    8.7694811171041779e-03 -6.1794148691674589e-01
    8.4140676855207902e-03 -6.8435293640952999e-01
    8.0043130678733379e-03 -8.1678011622846514e-01
    7.8470726767882661e-03 -9.6881921035797136e-01
    7.8778330425015777e-03 -1.0985884360051028e+00
    7.9837175445350919e-03 -1.2081061184859807e+00
    8.0519296914431850e-03 -1.2588940449768564e+00
    7.9762290022289441e-03 -1.2019728443477644e+00
    8.0014144375303749e-03 -1.2220910332321784e+00
    7.9391904098926776e-03 -1.1692293816349255e+00
    7.8703481725564475e-03 -1.0868409739863589e+00
    7.8477191535503959e-03 -9.6639756551502154e-01
    7.8608889529743105e-03 -9.3494465373319080e-01
    8.0574094392926211e-03 -7.9197788143077041e-01
    8.7637725226978793e-03 -6.1884284197465733e-01
    8.7356170791689607e-03 -6.2335179572679911e-01
    9.9721333560440113e-03 -4.8622252469066340e-01
    1.2187584155131643e-02 -3.6452302483989052e-01
    1.5031655263882863e-02 -2.8157108744614578e-01
    1.5964600910021103e-02 -2.6257777346757211e-01
    1.9624886028901153e-02 -4.7958315233127191e+00
    1.9624886028901153e-02 -4.7958315233127191e+00 1. -255. 1. -255. 1.
    -255. 1.9624886028901153e-02 -4.7958315233127191e+00
    1.9138031330204790e-02 -2.1432202835913092e-01
    1.5974212496755215e-02 -2.6239640802482533e-01
    1.2231043110963055e-02 -3.6283389388671899e-01
    9.5436417824867267e-03 -5.2353436430665157e-01
    8.7288757079706444e-03 -6.2444740150626743e-01
    8.4120247458871235e-03 -6.8481241953173833e-01
    8.1272223134163830e-03 -7.6464463184383447e-01
    8.1617223391611676e-03 -7.5271484272913869e-01
    7.9388752883373971e-03 -8.5548327747712749e-01
    7.8522197008481492e-03 -9.5301899745462693e-01
    7.8494193041709383e-03 -1.0408329997330663e+00
    7.8490577864112447e-03 -9.6189222040246503e-01
    7.8434150746735619e-03 -9.9161845721886999e-01
    7.8575704895237353e-03 -9.4114541636426141e-01
    7.8818574047726259e-03 -9.0544807401676730e-01
    7.9788691196225215e-03 -8.3046064514311102e-01
    8.3160490866467911e-03 -7.0783611060197904e-01
    8.3856153722204757e-03 -6.9085940445959915e-01
    8.9823764638921090e-03 -5.8703759981237891e-01
    9.5584600444344262e-03 -5.2211295781464728e-01
    1.0606132336500937e-02 -4.4197079212741469e-01
    1.7074040319172760e-02 -2.4327306072261337e-01
    2.0510700131577877e-02 -1.9874868427498962e-01
    1.9624886028901153e-02 -4.7958315233127191e+00
    1.9624886028901153e-02 -4.7958315233127191e+00 1. -255. 1. -255. 1.
    -255. 1. -255. 1. -255. 2.6784567562933077e-02
    -1.4969225196734223e-01 1.6967330936773339e-02
    -2.4499765414517152e-01 1.2997612245709443e-02
    -3.3572020079902132e-01 1.0579078047698422e-02
    -4.4365347370157276e-01 9.9359348438054478e-03
    -4.8910260264560057e-01 9.0752062508327389e-03
    -5.7497670803322853e-01 8.8715123885801592e-03
    -6.0250876387042152e-01 8.6165693443916273e-03
    -6.4369542751693631e-01 8.1429043518466623e-03
    -7.5911207957046523e-01 8.5234990799750547e-03
    -6.6128502174601456e-01 8.0444849880001827e-03
    -7.9763079777268819e-01 8.0564366533091274e-03
    -7.9239586230912762e-01 8.1224806013228765e-03
    -7.6635604473481334e-01 8.1496334958706743e-03
    -7.5679534051029052e-01 8.5091527353568803e-03
    -6.6415000743552366e-01 8.3160490866467911e-03
    -7.0783611060197904e-01 8.4096958074422225e-03
    -6.8533764770774463e-01 8.7492123632698388e-03
    -6.2116126824579632e-01 9.9929749377898995e-03
    -4.8458433717077670e-01 1.2246294310161528e-02
    -3.6224538569457798e-01 1.3016637891511732e-02
    -3.3510520711828734e-01 1.5261160136717758e-02
    -2.7662760392818025e-01 2.1375236507085744e-02
    -1.9009265016207688e-01 1.9624886028901153e-02
    -4.7958315233127191e+00 1. -255. 1. -255. 1.9624886028901153e-02
    -2.0851441405707474e-01 1. -255. 1. -255. 1. -255.
    1.9624886028901153e-02 -4.7958315233127191e+00
    1.6354293897340656e-02 -2.5543362780908935e-01
    1.5269428693528434e-02 -2.7645300649633231e-01
    1.6943912418298568e-02 -2.4537962165274757e-01
    1.2098700153024699e-02 -3.6803489696741570e-01
    9.7405778722030115e-03 -5.0546293723329472e-01
    8.9586463764356090e-03 -5.9024601566544543e-01
    8.7202068177470605e-03 -6.2586559369748973e-01
    8.8982973219499176e-03 -5.9865519807748557e-01
    8.6474994380993028e-03 -6.3819626790602613e-01
    8.3825120182979534e-03 -6.9158343685963830e-01
    8.8331683450913190e-03 -6.0816364055953731e-01
    8.8790480022240010e-03 -6.0141676702564129e-01
    8.7723452021365271e-03 -6.1749086149414145e-01
    8.8177975707203343e-03 -6.1047817031489560e-01
    9.0275728263198626e-03 -5.8107100943211076e-01
    8.8513311422643345e-03 -6.0546424262266396e-01
    9.5761237048308506e-03 -5.2043239797097907e-01
    1.1100667524785919e-02 -4.1374963031758322e-01
    1.5945435163309939e-02 -2.6294022584298088e-01
    1.7092039466459298e-02 -2.4298470606505201e-01
    1.6354293897340656e-02 -2.5543362780908935e-01
    1.9624886028901153e-02 -4.7958315233127191e+00
    1.9624886028901153e-02 -4.7958315233127191e+00 1. -255. 1. -255. 1.
    0. 1.9624886028901153e-02 -2.0851441405707474e-01 1. -255. 1. -255.
    1. -255. 1.9624886028901153e-02 -4.7958315233127191e+00
    2.1399896419439648e-02 -1.8985720604621611e-01
    1.9748124940594761e-02 -2.0709611773639966e-01
    1.3987416149580561e-02 -3.0674403616030171e-01
    1.1579256848283356e-02 -3.9024990392926984e-01
    1.0689074787475850e-02 -4.3690925126633318e-01
    1.0841868768352827e-02 -4.2794888879082671e-01
    9.5747591055454929e-03 -5.2056169989518553e-01
    9.1975565972711414e-03 -5.6015419066530570e-01
    9.0864540788584032e-03 -5.7356537662653884e-01
    9.5781724421595757e-03 -5.2023843619589738e-01
    9.0549661527620593e-03 -5.7754271928470058e-01
    9.3635738455759652e-03 -5.4171200813483700e-01
    9.4603309925519463e-03 -5.3172972885012282e-01
    9.8995376946789410e-03 -4.9204414669189839e-01
    1.1090196584166528e-02 -4.1430201889300106e-01
    1.3212523376895666e-02 -3.2891751164070704e-01
    1.4655655618207999e-02 -2.9009954317766595e-01
    1.9155379952607424e-02 -2.1410925942026948e-01
    2.7037104188546070e-02 -1.4823092371370383e-01
    1.9624886028901153e-02 -4.7958315233127191e+00
    1.9624886028901153e-02 -4.7958315233127191e+00 1. -255. 1. -255.
    1.9624886028901153e-02 -2.0851441405707474e-01 1. 0. 1. 0.
    1.9624886028901153e-02 -2.0851441405707474e-01 1. -255. 1. -255. 1.
    -255. 1.9624886028901153e-02 -4.7958315233127191e+00
    5.9138962189919729e-02 -6.6605256166397092e-02
    1.4706385200709703e-02 -2.8891612875869255e-01
    1.3120631490092311e-02 -3.3178796880570932e-01
    1.4188769156600639e-02 -3.0151134457776357e-01
    1.2535468680666887e-02 -3.5148670713797409e-01
    1.1258452679358969e-02 -4.0563501350437908e-01
    1.1164333269493308e-02 -4.1042880181974778e-01
    1.1948791916334325e-02 -3.7413907888527081e-01
    1.0497546584942993e-02 -4.4882260423923770e-01
    1.0914366259029674e-02 -4.2385259219050553e-01
    1.1741329051948572e-02 -3.8298747701324748e-01
    1.1059019289609581e-02 -4.1595736303044034e-01
    1.1307410528132800e-02 -4.0319399090689528e-01
    1.6246287671049575e-02 -2.5737165849880850e-01
    1.6880052907938415e-02 -2.4642767238976596e-01
    1.5955008486175426e-02 -2.6275904600670152e-01
    1.9624886028901153e-02 -4.7958315233127191e+00
    1.9624886028901153e-02 -4.7958315233127191e+00
    1.9624886028901153e-02 -4.7958315233127191e+00 1. -255. 1. -255.
    1.9624886028901153e-02 -2.0851441405707474e-01
    1.9624886028901153e-02 -2.0851441405707474e-01 1. 0. 1. 0. 1. 0.
    1.9624886028901153e-02 -2.0851441405707474e-01 1. -255. 1. -255. 1.
    -255. 1.9624886028901153e-02 -4.7958315233127191e+00
    1.9624886028901153e-02 -4.7958315233127191e+00
    2.1277486034491956e-02 -1.9103192930342311e-01
    2.2129004301465197e-02 -1.8315900247768976e-01
    1.7784308782356151e-02 -2.3241868539941693e-01
    1.4988687274231926e-02 -2.8251801926017900e-01
    1.7523908595846575e-02 -2.3627705008637384e-01
    1.4086851925595565e-02 -3.0413513307360823e-01
    1.3332611643783441e-02 -3.2524906105009704e-01
    1.5155019905061965e-02 -2.7889025380290283e-01
    1.6754663226686513e-02 -2.4851354230982770e-01
    1.5644327681125173e-02 -2.6877932726653114e-01
    1.5361386944585080e-02 -2.7452718643341611e-01
    2.0235836333016170e-02 -2.0167540385392241e-01
    2.8786215017069201e-02 -1.3885750468858757e-01
    1.9624886028901153e-02 -4.7958315233127191e+00
    1.9624886028901153e-02 -4.7958315233127191e+00 1. -255. 1. -255. 1.
    -255. 1.9624886028901153e-02 -2.0851441405707474e-01
    1.9624886028901153e-02 -2.0851441405707474e-01 1. 0. 1. 0. 1. 0. 1.
    0. 1. 0. 1.9624886028901153e-02 -2.0851441405707474e-01 1. -255. 1.
    -255. 1. -255. 1. -255. 1.9624886028901153e-02
    -4.7958315233127191e+00 1.9624886028901153e-02
    -4.7958315233127191e+00 1.9624886028901153e-02
    -4.7958315233127191e+00 2.1350666043317177e-02
    -1.9032784360989555e-01 2.1728866042554310e-02
    -1.8677318417703090e-01 2.8097360098676166e-02
    -1.4240093315010316e-01 1.6150570203644767e-02
    -2.5911571070472572e-01 2.0854442509692137e-02
    -1.9521061591728697e-01 2.7297150905752951e-02
    -1.4675630755705429e-01 5.5143226293813144e-02
    -7.1479407083355276e-02 1.9624886028901153e-02
    -4.7958315233127191e+00 1.9624886028901153e-02
    -4.7958315233127191e+00 1.9624886028901153e-02
    -4.7958315233127191e+00 1.9624886028901153e-02
    -4.7958315233127191e+00 1. -255. 1. -255. 1. -255.
    1.9624886028901153e-02 -2.0851441405707474e-01
    1.9624886028901153e-02 -2.0851441405707474e-01 1. 0. 1. 0.</input_scale>
  <output_scale>
    5.2631578947368418e-01 4.9999999999999994e-01 5.2631578947368418e-01
    4.9999999999999994e-01 5.2631578947368418e-01 4.9999999999999994e-01
    5.2631578947368418e-01 4.9999999999999994e-01 5.2631578947368418e-01
    4.9999999999999994e-01 5.2631578947368418e-01 4.9999999999999994e-01
    5.2631578947368418e-01 4.9999999999999994e-01 5.2631578947368418e-01
    4.9999999999999994e-01 5.2631578947368418e-01 4.9999999999999994e-01
    5.2631578947368418e-01 4.9999999999999994e-01 5.2631578947368418e-01
    4.9999999999999994e-01 5.2631578947368418e-01 4.9999999999999994e-01
    5.2631578947368418e-01 4.9999999999999994e-01 5.2631578947368418e-01
    4.9999999999999994e-01 5.2631578947368418e-01 4.9999999999999994e-01
    5.2631578947368418e-01 4.9999999999999994e-01 5.2631578947368418e-01
    4.9999999999999994e-01 5.2631578947368418e-01 4.9999999999999994e-01
    5.2631578947368418e-01 4.9999999999999994e-01 5.2631578947368418e-01
    4.9999999999999994e-01 5.2631578947368418e-01 4.9999999999999994e-01
    5.2631578947368418e-01 4.9999999999999994e-01 5.2631578947368418e-01
    4.9999999999999994e-01 5.2631578947368418e-01 4.9999999999999994e-01</output_scale>
  <inv_output_scale>
    1.8999999999999999e+00 -9.4999999999999996e-01
    1.8999999999999999e+00 -9.4999999999999996e-01
    1.8999999999999999e+00 -9.4999999999999996e-01
    1.8999999999999999e+00 -9.4999999999999996e-01
    1.8999999999999999e+00 -9.4999999999999996e-01
    1.8999999999999999e+00 -9.4999999999999996e-01
    1.8999999999999999e+00 -9.4999999999999996e-01
    1.8999999999999999e+00 -9.4999999999999996e-01
    1.8999999999999999e+00 -9.4999999999999996e-01
    1.8999999999999999e+00 -9.4999999999999996e-01
    1.8999999999999999e+00 -9.4999999999999996e-01
    1.8999999999999999e+00 -9.4999999999999996e-01
    1.8999999999999999e+00 -9.4999999999999996e-01
    1.8999999999999999e+00 -9.4999999999999996e-01
    1.8999999999999999e+00 -9.4999999999999996e-01
    1.8999999999999999e+00 -9.4999999999999996e-01
    1.8999999999999999e+00 -9.4999999999999996e-01
    1.8999999999999999e+00 -9.4999999999999996e-01
    1.8999999999999999e+00 -9.4999999999999996e-01
    1.8999999999999999e+00 -9.4999999999999996e-01
    1.8999999999999999e+00 -9.4999999999999996e-01
    1.8999999999999999e+00 -9.4999999999999996e-01
    1.8999999999999999e+00 -9.4999999999999996e-01
    1.8999999999999999e+00 -9.4999999999999996e-01</inv_output_scale>
  <weights>
    <_>
      -2.1012431188922849e-03 1.6500640783901778e-04
      -2.1050741863159234e-03 -2.8330420803991549e-04
      -1.7497866325483608e-03 -1.1360705618402565e-04
      -2.3716312493712573e-04 2.1899630060444480e-03
      -3.8524192872751799e-05 -2.0516826210895673e-03
      -1.4290679415722976e-03 1.3509986972244361e-03
      1.9434822366494661e-03 8.4050933546258460e-04
      -2.4020269604896861e-04 -1.6194185341920097e-03
      -4.9697048331933367e-04 1.6082954203635238e-03
      -3.1125049055219468e-04 -6.1329714756130623e-04
      -5.7555047389206435e-04 -1.4643065666750336e-03
      -1.9682026995222614e-03 7.2910314383659014e-04
      3.3774361486605032e-04 1.9385685856821251e-03
      -1.8862501216252016e-03 1.1431533361296123e-03
      7.7298123550537264e-04 -2.0874179136128692e-03
      5.8939352711657826e-04 -7.4074927015220081e-04
      -1.1270640777148349e-03 7.6523025049502933e-04
      -3.6887414493218495e-04 -1.8010382731660762e-04
      -2.1186630791958389e-03 1.8843830578081874e-03
      1.1526183064252519e-03 2.0143755608404562e-03
      1.5011738008524301e-03 2.1714965364205986e-04
      9.9355922195829027e-04 1.2278455093577584e-03
      -3.5439359258942197e-04 2.6881442380065140e-04
      1.2867073619899176e-03 1.3112304979860470e-03
      -1.7470652476291731e-03 6.1263447786608278e-04
      1.9982346612267910e-03 -1.6538350412026155e-03
      -9.7690107731839980e-04 -1.8170375652963547e-03
      8.6651351958741884e-04 -2.1119206358564506e-03
      6.7099426052637451e-04 1.0743818463486083e-03
      1.2129908860019814e-03 1.3510798461108108e-03
      -1.4026154301809255e-03 1.6888344981112554e-04
      5.4287031582513697e-04 1.3555684926158957e-03
      -1.9754012674549569e-03 6.3455388537964985e-04
      -9.7337427856105101e-04 1.7884133348913696e-03
      -2.1814997534320567e-03 -1.4082703826752828e-03
      1.8163939900804522e-03 1.5974496005643627e-03
      -5.8523572212676401e-04 -1.3178762549623457e-03
      -1.6259581209009785e-03 -2.1263870377140870e-03
      -7.9603303837248122e-04 1.1054798551665186e-04
      -2.0372331352333651e-03 3.2190870849128027e-04
      -1.5338484615007285e-03 1.1253902207678111e-03
      1.3757281427041433e-03 8.3891991106093420e-04
      5.0158604036187719e-04 -1.3281568275708873e-03
      -1.2180970134912960e-03 -8.8169077814727944e-04
      5.6301689098606450e-04 2.1934085209798906e-04
      3.1812847160273374e-04 8.5910292797762805e-04
      -2.2845250200227027e-04 -5.8028192726731890e-04
      -1.0471882937517461e-03 -2.0311823657316202e-03
      -7.4601268316267020e-04 -1.2494647605562693e-03
      -1.3221568640978630e-03 -1.0622578145512230e-03
      1.8933276562951324e-03 -2.0968551900729434e-03
      1.1130576346075507e-03 6.0461400773291615e-04
      -1.0352272984407295e-03 2.8347579270723665e-04
      6.8413396398841271e-04 -2.0130020140066525e-03
      2.0002886225568180e-03 9.6445085337539128e-06
      -7.9805315166156748e-04 -1.5829764567604557e-03
      1.9855302462402696e-03 1.2637254775017565e-03
      1.3341950601101027e-03 -1.3613683601907548e-03
      2.0738029611745389e-03 -3.3577815313983513e-04
      -8.1188101199474133e-04 2.1379714243176602e-03
      -7.6466093417694285e-05 -1.6255175074521764e-03
      9.0402422439949932e-04 -1.8892667678931704e-04
      -1.5721670025192539e-03 -1.1397211452534349e-03
      -1.1185385808953959e-03 -6.0781201789040498e-04
      4.4876759002468740e-04 9.6082190682350197e-04
      -3.6387868546304455e-04 -2.1586526641506694e-03
      2.2740319054665300e-03 9.5240451824103864e-04
      2.3629048722660206e-04 1.7076093996806611e-03
      -1.5548801495491875e-03 -1.9882457803635967e-03
      -1.1319461664090398e-03 -4.4927309043347438e-04
      -1.4745641943347270e-03 8.1757744383802644e-04
      -5.3348758305808133e-04 -2.0295179568627681e-03
      -7.8784172190963662e-04 -1.3027305840613446e-03
      -6.1671374508949039e-04 1.1851363152924282e-05
      3.8352034267889252e-04 -1.2777061978225741e-03
      1.6691566772996392e-04 -1.7622740690630201e-03
      -2.1538461848052671e-03 -3.6829703733754453e-04
      1.2640957805127082e-04 8.0697372096288314e-05
      -1.2056089192032161e-03 2.5199543701549408e-04
      3.5390502219233907e-04 -9.9229716392544185e-04
      9.5368064172700112e-04 -7.7868830989682276e-04
      -1.3512643717663176e-03 1.7771439325739199e-03
      -6.4292838850500689e-04 -2.4336889583399090e-05
      -2.4307417777756095e-04 1.4016997716385939e-03
      1.7879009171761738e-03 7.8989576688857129e-04
      8.4888138577434054e-04 -1.4755169890921589e-03
      1.4070161218568750e-04 1.7600136384006136e-03
      -5.4328296757011948e-04 -6.0399894167424543e-04
      1.7149786928626731e-03 -2.0689682317845915e-03
      -6.6678686169527378e-04 -5.3133067324200641e-04
      6.5826757453616813e-04 1.5925877361545274e-03
      2.3597019790447873e-04 1.9536864412665372e-03
      -1.1003780406675775e-03 -1.6393858887665872e-03
      -1.7962997878309399e-03 1.4492607104352268e-04
      -1.0451519928171907e-03 -3.4470686963317826e-04
      1.7519966202771806e-03 -9.1041342881910631e-04
      2.3016599236625078e-04 -1.0433470643532226e-03
      -1.1307479350041473e-03 2.9722111777264912e-05
      -7.7574874598707109e-04 -1.9239542004407708e-03
      -1.3704457239597488e-03 -3.9994966996666329e-04
      -1.0085710833169280e-03 -9.9748053403443042e-04
      5.9096589131263767e-04 -2.7823562411648679e-04
      1.5727448210062053e-03 1.5674905210408033e-03
      1.4235294797634987e-03 -7.9085321757594597e-04
      -3.7695158887390341e-04 -6.3399679421033720e-04
      -4.9485385443088484e-04 6.8477171840974950e-05
      9.9933738527578403e-04 1.6341620066348485e-03
      -2.1607074574191238e-03 -3.6858482045170341e-04
      -7.3932269928367550e-04 1.1038862799935382e-03
      -4.8804956029057137e-04 4.0701053741184505e-05
      4.7892034686698498e-04 -8.7789906364346508e-04
      -1.0443063112330047e-03 -5.7410765724756922e-04
      -5.7621214557278494e-04 2.3092409546501872e-03
      -6.3051722789346466e-04 -1.3638739648262413e-03
      1.1414741650795336e-03 -7.3431462585372563e-05
      8.1376532590317265e-04 -2.0368997928449394e-03
      2.6713115809841027e-04 -8.3865005748830245e-04
      -7.0158435264745930e-04 -3.7959398183406263e-04
      -9.2209142387318784e-04 -1.4399883285338437e-04
      1.1045509939582991e-03 -2.0021243824850147e-03
      3.3650617296441285e-04 -1.1326348886359918e-03
      -1.3765060921464537e-03 -1.9634683600804372e-03
      -1.3608294159468210e-04 1.8070748795707737e-03
      -1.4541932978908499e-03 1.9197295018618281e-03
      -6.1028092984170823e-04 -1.9794562279480789e-03
      -1.8676009476843527e-03 1.1843931597647513e-03
      1.5628494572108641e-03 1.3731231392902698e-03
      1.7458390888399451e-03 -9.8853861509741824e-05
      -1.1115644986543906e-03 1.6668139281796656e-03
      6.6094540454118909e-04 -9.1050756976060715e-04
      -2.1141495692843975e-03 1.8342235966896589e-03
      -1.6810119414337611e-03 6.8793889385008848e-04
      1.8742812319621567e-03 -6.6983183379722470e-04
      -3.0441369373912367e-04 4.3399583821824710e-04
      6.3273879537746635e-04 -2.1086521490567456e-03
      1.1213881868152409e-03 5.2585076211619406e-04
      -1.6052614375507009e-03 1.5476274789860396e-03
      6.5413970860638275e-04 -4.2062534564123270e-04
      2.0858598133882515e-03 1.6627153994016913e-03
      -9.6432050493510237e-04 1.4806001516086108e-04
      -5.2904278046332794e-04 -4.6255542903033797e-04
      -1.6107725286183636e-03 1.0116143771977139e-03
      -1.4594218116187647e-04 2.2063371221733036e-03
      1.7002394470292640e-03 -2.1866870258254014e-03
      -1.9309468415321847e-03 2.0728330079244519e-03
      -2.1292861619467865e-03 8.2296864206797321e-04
      -8.0349186525199487e-04 -3.4277463192822601e-04
      9.2734997690129602e-04 -1.5117397453207010e-03
      -1.7768170533969943e-03 1.7802448651487843e-03
      3.7286096237680165e-04 -2.0944248906190365e-03
      -2.2941921966712652e-04 2.0857521867367812e-03
      -1.8391674942068660e-03 1.1472636269997186e-03
      -2.9010857768831046e-04 1.5076647265543908e-03
      1.1136377839411941e-03 -1.7593312980760014e-03
      -4.5689622901989326e-04 2.2619391130631857e-03
      1.6212528273607529e-03 -1.4879314126160540e-03
      -7.5332986648414069e-04 1.1107422101755086e-03
      -1.6165019114824036e-04 1.8011614217736382e-05
      -9.4127342143801639e-04 6.8879651508844822e-04
      8.7955030656377604e-05 -1.5707389864595583e-03
      -3.0979351748544793e-04 1.7817296970677255e-03
      -1.7943452757275236e-03 1.3104114436943083e-03
      -1.2506614546771689e-03 6.9075028795268726e-04
      -1.7976383232184336e-04 6.7318627629464308e-04
      1.8578717636170588e-03 1.7343681170986526e-03
      -3.4262204053816625e-04 -4.2888327165589382e-04
      -8.4890655593719848e-04 -1.3962927598644432e-03
      -1.9821387931935547e-03 -1.8546435463528206e-03
      2.1448305565336563e-03 9.4485688281199700e-04
      5.1202389482209556e-04 6.4845107187025457e-05
      -1.8592017575363661e-03 6.6039178375937692e-04
      5.0303628628747268e-04 -1.5886559601042197e-03
      9.5162225347887066e-04 8.7219156027277720e-04
      -3.6240417819664443e-04 1.8007110477088544e-03
      -2.1970420707047014e-03 1.4328821970830458e-03
      -2.2604922161667969e-03 -1.5760201846813547e-03
      -1.6158416191750875e-03 -5.2208094530145155e-04
      1.4942222712133850e-03 -2.0278997574134376e-03
      2.1080748213320546e-03 -1.9759977334816623e-03
      1.9403881054565009e-03 -7.3720267316690271e-04
      -3.4462438629100756e-04 -1.0922627656490824e-03
      1.9038808594753741e-03 -1.8660893187624813e-03
      1.7819412523578304e-03 -4.3836991988683237e-04
      1.0644164029267227e-03 -6.2111189880631457e-04
      -8.6640955075384396e-04 1.7725678905049999e-03
      -2.2025674078989657e-04 2.1798187698084939e-03
      -1.6064692886074276e-03 -6.7009663764742056e-04
      -2.1462303067043800e-03 -7.0452166704996219e-04
      -1.7162605217909718e-03 1.4877501808979805e-03
      1.4606980746492536e-05 2.1109578128563357e-03
      -5.1178367800329752e-04 4.7307993238468427e-04
      -1.0898234762127866e-03 1.2625620550086136e-03
      -2.1387663030588747e-03 8.2298588369096571e-04
      -2.5002229026456621e-04 1.4019563319811453e-03
      -1.6675789451492103e-03 2.0305435285175835e-03
      5.7843191403173454e-04 1.9592977633294119e-03
      -1.0835752965888025e-04 1.2744836785365742e-03
      -1.4009040090595874e-03 -2.1388634214269064e-03
      -8.0380849932146282e-05 1.9845711422435959e-03
      2.1137342337464830e-03 -1.5631178013390484e-03
      -1.3989217953380294e-03 9.2257656833858554e-04
      -8.7367365332181282e-04 -2.1195080354755387e-03
      3.4785196145997087e-04 -9.1173648329299450e-04
      1.8839853458718259e-03 -1.8083878094489925e-03
      -9.5615724470331264e-04 1.5518847861908020e-03
      -1.4119919409814772e-03 -1.7897714428638356e-03
      -3.2500327495003293e-04 2.2180678865619287e-03
      -7.4549960746281014e-04 -1.5577224756349048e-03
      -6.4326655204916905e-04 -1.2105564863069901e-03
      -5.2746778098741525e-04 -1.0308781253633131e-03
      -5.1999514454610456e-04 -1.1273250756098571e-03
      1.7638890370401695e-04 -6.0341035646643457e-04
      1.1730861721177674e-03 -1.0620211130292427e-03
      -1.8500053063507853e-03 -4.0645089917408283e-04
      -3.8797807947882709e-04 6.8497623388308023e-04
      5.6101080911260539e-04 -1.1350957557196382e-03
      1.0293809838102417e-03 -2.2138851065478873e-03
      -8.4793846689229741e-04 1.4807305528913475e-03
      -2.5792907942415259e-04 1.1833177050646737e-03
      1.4945423826538083e-03 -1.3238108300917910e-03
      7.4641912702382029e-04 1.9858274042082102e-03
      9.7065215700611527e-04 4.7057556974310690e-04
      1.2582331044867663e-03 -1.1943068563527771e-03
      1.3439677788684467e-03 -2.0775542585033053e-03
      -5.0692498675006172e-04 -1.8310364341125540e-05
      -9.7748013900605360e-04 -1.9624500940708255e-03
      -1.8899746541251447e-03 3.3606847917321502e-04
      -1.3629298279977556e-03 -1.9639755476422698e-03
      7.3910318894362492e-04 -1.3200414033580372e-03
      7.6170606520904478e-04 -1.5669458462476903e-03
      -1.3474909507687178e-04 -4.5055097858665802e-04
      -1.7003240039737057e-03 8.6888608704361464e-05
      -2.1461054583656468e-03 3.7944587136906041e-04
      1.1624632832903183e-04 3.7445225160134593e-04
      -1.5968557878680697e-03 1.2678196358608463e-03
      4.2127063145834553e-04 -2.7658647505786061e-04
      1.2837230334310523e-03 -1.1709491949233922e-03
      -4.9481036860931900e-04 1.4944241535573902e-03
      9.3247699952956388e-06 -4.1169362739688095e-04
      2.5735042754464909e-04 -1.1707390128648943e-03
      9.2814848536630450e-04 5.3822728218543188e-04
      1.3084442133450356e-03 3.9380706115363769e-04
      -8.4019904957871385e-05 -6.0138949143356639e-04
      -4.8041337966394775e-04 -2.3850985182437585e-04
      -3.4961594253979942e-04 1.9832693992422323e-03
      1.3591600276140355e-04 -2.0924078987697022e-04
      -2.0915154671605199e-03 1.0709039287239946e-03
      -2.0995604542752093e-03 9.7214005324390486e-04
      5.7868927463312144e-04 1.4951139087809005e-03
      1.3310232909895633e-04 -2.1692245510586522e-03
      3.6050333711178204e-04 -4.3592900017552268e-04
      -7.4934364698341668e-04 -2.0641394195345512e-03
      -1.5825688536304137e-03 -6.2767296024533942e-04
      -1.2168489306410017e-03 1.7652486048462372e-03
      -2.0546388346804286e-03 -1.5059927315872266e-03
      -5.8639638296573463e-04 1.0836701515306999e-04
      -1.9240713929969896e-03 5.1237063373701290e-04
      1.6975613048995607e-03 1.0509066790950177e-03
      -1.3962758787135221e-03 1.1809403715736860e-03
      9.8121491694222289e-04 -1.9996159644862115e-03
      -2.1733050219721655e-04 -4.1451785180647891e-04
      1.9635206812400211e-04 5.9121241545444475e-04
      4.1087383770502814e-04 -1.0535935677778998e-03
      -2.8640301262520401e-04 3.5925263289707146e-04
      7.6112479377167779e-04 -1.9727486522447355e-03
      -1.9256038706681878e-03 1.5032362567316650e-03
      1.1006573022272375e-03 9.8338430720787797e-04
      -1.7957396005688010e-03 1.0143248505914593e-03
      1.9065683366710320e-03 -9.1381045150375445e-04
      1.4538465094223172e-03 -8.4921151756788988e-05
      -1.3715662980843027e-03 -1.1616447984293312e-03
      -1.5307602492330215e-04 5.8821548580919377e-04
      -1.5002096366557990e-03 -6.7056946834838024e-04
      -1.4554419040832176e-03 -4.3999144579229678e-04
      -8.3926425363521401e-04 -1.5922517574886740e-03
      -1.2733450679741660e-03 -8.0876555679292614e-04
      -1.2268049537562747e-03 2.0308573710987547e-03
      4.2489190037498703e-06 -1.4061803991834276e-03
      -8.8063240783208322e-04 1.8169068365975203e-03
      1.3688906875973176e-03 1.5437513919876415e-03
      -1.5128529658010995e-03 -1.3654902551637168e-03
      1.7625106357774159e-04 -1.0194579460253836e-03
      -2.0342979070564950e-03 -1.8043263245068307e-03
      -8.5389755004862422e-04 -7.5600191471040590e-04
      -5.1061215306969984e-05 1.4471101746129297e-03
      -8.2084182945297874e-04 1.5805697281882235e-03
      -1.1082814554174662e-05 1.0885939450160287e-03
      -1.5095314287793611e-03 1.0100468262850115e-03
      4.5985657636208396e-05 1.8964271319559481e-03
      1.0873106156014567e-03 -6.2470321378751807e-04
      -1.8580753423426654e-04 1.8392864178460872e-03
      -4.9634641630353618e-04 2.4592025867367016e-04
      -1.0979890903037106e-03 -5.9522254473447819e-04
      -5.4820443127211367e-04 -1.7998588603219494e-03
      -1.8436147426450922e-04 7.9519684527388091e-04
      9.5999697923099226e-04 -6.6004979813039924e-04
      -2.4900989038519771e-04 2.8499652470834170e-04
      8.9130100577613038e-04 1.7123365025570249e-03
      -1.1979403392426771e-03 1.8074753762099794e-03
      -7.5829261576007014e-04 -3.6108217886419075e-04
      1.7958031446656244e-03 -1.3640815291336562e-03
      -1.5571472691187509e-04 1.8564628665121584e-03
      -1.4162605581113125e-03 2.2434617561188159e-04
      1.7789109105953989e-03 9.1833443541245179e-04
      -2.0976097682030908e-03 3.1642323123610478e-04
      -1.4382546502055881e-03 -9.7952022576756138e-05
      1.9410007707188147e-03 3.8269854030518612e-04
      -8.6329724449746151e-04 1.4825456624908522e-03
      -2.0206001045411318e-03 -2.0260181527975846e-03
      -2.0252728649084221e-03 -1.7007690343789467e-03
      -1.2602390207272216e-03 -2.0850653769276524e-03
      4.4736585301609425e-04 -2.1137912547672289e-03
      8.9121147926624674e-04 1.5891161640373332e-03
      -8.8075624489831258e-04 -9.0755600595566490e-04
      2.1318572844763305e-03 -1.5085236007525195e-03
      1.1924360815270254e-03 -1.7755230182591954e-03
      1.2903594482975922e-03 -1.5695163838385306e-03
      4.4812062330024785e-05 -1.8219448118986653e-03
      9.2994909613369151e-04 -2.3754339652186924e-04
      3.2319533876503341e-04 -1.6790056627531704e-03
      -1.4275632086373647e-03 -4.5214180490616259e-04
      -1.6501676263561084e-04 7.9955054273862401e-04
      -4.0389832605729903e-04 -6.5153498809803129e-04
      -2.0982663772425251e-03 -7.7086065074077849e-04
      1.5252147003972185e-03 -7.5082976508652934e-04
      6.6015630980497612e-04 1.7678120741423488e-03
      -1.6553533401870971e-03 -4.0723895543290844e-04
      -9.7464325926291265e-04 -4.6340140457582597e-04
      2.1718813275177718e-04 -1.1675273694992903e-03
      -2.1079796096425350e-05 -1.4951977071113519e-03
      1.4662182277648361e-03 -1.0911164136383537e-03
      1.4569220218624049e-04 2.0786546229905182e-03
      3.4267377760081462e-04 -5.4806137654854492e-04
      1.3052616903956790e-03 -1.4023123200663805e-03
      -1.3930362142637505e-03 -2.2167693840625647e-03
      -1.9525409416072295e-03 -1.4718315560975218e-03
      -1.8995702850456674e-03 -1.9927417948800810e-04
      2.1312912827898753e-03 -7.2678291583423552e-04
      -6.8248541006848311e-04 8.1480657965377578e-04
      -9.2263439570402063e-04 4.3193963382404312e-05
      1.2799648872963447e-03 2.0466584416539444e-05
      6.4662104275783872e-04 -1.1474997884278449e-03
      -1.5172802107986821e-03 9.7442120409934935e-04
      1.1574031459968296e-03 4.2971358803243722e-04
      -1.2004388367401555e-03 5.7094956838094535e-04
      -1.3697553635124544e-03 -1.2267145616401936e-03
      -1.3118909474888784e-03 -5.1064453472437067e-04
      -1.8425661031434464e-03 2.0206425651965575e-03
      7.7090896954122741e-04 -1.7386580337334591e-03
      -2.0732517069905125e-03 1.6639583428092483e-03
      4.9119768262907942e-04 -9.6958771442503470e-04
      1.0878705434263357e-03 1.5615774906279055e-03
      -1.3213085755582109e-03 -1.2317955562935012e-03
      1.3070232290280732e-03 -1.3966774240328538e-03
      -1.0894844009232687e-03 -6.1613451128412025e-04
      5.2236218204461686e-04 6.8491966481676461e-05
      1.0885915794362016e-04 2.6432702092030956e-04
      7.5522542712237913e-04 8.4288719439996602e-04
      -1.7393095413193065e-03 -1.0395472161723645e-04
      1.8746983989113303e-03 -1.9066444091935030e-03
      2.9489640706876910e-04 -2.1424647808524926e-03
      -1.3131438477440195e-04 1.7235185321088351e-03
      -1.3071126079110137e-03 1.5196462603273087e-03
      7.9759630749168383e-04 -3.8198808737186440e-04
      7.7976233116416026e-04 1.1198290527554122e-04
      1.0451509588362100e-03 -9.2892597703506205e-04
      -1.3631044010367463e-03 -1.0680861655204463e-03
      -1.5816265005450354e-03 1.0050200689203171e-03
      1.3918330459475330e-03 1.5709374086228698e-03
      -1.9631343704172690e-03 -1.5082004244895990e-04
      1.9652677305952836e-03 1.2660025505306684e-03
      -5.5287195566703945e-04 -7.1308694801757247e-04
      -7.0623236599518923e-04 -1.4870963790229758e-03
      -1.2498556648100759e-03 1.4428119360536823e-05
      1.3456469855782902e-03 -1.0200356318575451e-03
      1.9729261951591209e-03 1.3450955240002220e-03
      -1.0089624231580724e-03 -1.6190798466218135e-03
      -6.9062343175832768e-04 8.1671480062286170e-04
      1.8667269406683854e-03 -1.0621045336993542e-03
      -5.8982489803479916e-04 1.1419145552493261e-03
      9.7238503278815076e-04 2.0301462441055132e-03
      1.5978156085983217e-03 2.0742956330906722e-03
      -7.6882575241481144e-04 1.3600063439891442e-03
      1.7009925374987535e-03 -2.0780502875538944e-03
      1.6911015515291468e-03 2.1503217778658776e-04
      2.1064394351534461e-03 -1.7668435839273994e-05
      1.5388541320978104e-03 -1.7761204977539190e-03
      2.0729407414135613e-03 1.9424291054322496e-03
      -1.3673957022131151e-03 -1.5694872644006412e-03
      -4.0008020269435959e-04 1.7833967464127019e-03
      -1.9079021895971563e-03 8.4703227578137707e-04
      1.7549289980722007e-04 -2.2287694710247945e-03
      1.0511306223304872e-03 1.7092194784163065e-03
      7.3445835367806530e-05 3.6818280107906588e-05
      7.0156978111043434e-04 -1.6946760056410024e-04
      -1.5378241826526000e-03 -1.9312005450187969e-03
      -6.8268355352781918e-04 1.3224310501026044e-03
      -3.9918832909380784e-04 -1.0989929158718513e-03
      -1.1131711864507230e-03 -5.0015287606610065e-05
      1.7647486070212846e-03 -1.6183900671573174e-03
      -1.6098746001881362e-03 -1.0864164749253170e-04
      7.8294917594654077e-04 1.0189284527934352e-03
      1.0742014819903258e-03 1.8985684317511604e-03
      -1.6136840214144015e-03 2.1608886774578933e-03
      -1.4958931433799827e-03 -1.4936667977952108e-03
      -1.2010746201022639e-03 1.0836716517100755e-03
      -7.4466257456913738e-04 7.5860722207396014e-04
      1.8329152854832296e-03 3.0981176537530687e-04
      1.8161053444138860e-03 1.9839723174732769e-03
      1.7867730696694121e-03 2.1848124136261394e-03
      1.7824909915244050e-03 -1.3512276633996111e-03
      -3.0924058955603400e-04 1.5038560553202990e-04
      4.4954654503210934e-04 -1.9228954213375499e-03
      -1.0075386392740184e-03 -1.7677321670930002e-03
      -1.8808846037911924e-03 -2.8278670444266727e-04
      -7.0575526666083552e-04 -1.8948346056351646e-03
      -4.0731445757566013e-04 9.7512254425229854e-04
      -1.3437037063001721e-03 -2.2647669263245063e-03
      -1.2558629323286585e-03 2.6563678399767096e-04
      1.3503911416553871e-03 -1.9262345558715209e-03
      -1.8878872724469333e-03 8.5136658715147522e-04
      6.3476529373252845e-04 -1.9955715692957219e-03
      -9.9294767112764748e-04 2.0031899059754028e-05
      -7.9039920744001699e-04 -1.6086345784378821e-03
      -5.6110955143738822e-04 6.0650459901220649e-04
      -2.1699640806161604e-03 -1.5811751763397921e-04
      -1.3233202177021731e-03 7.3046600366435109e-04
      -2.4575515229435866e-04 -1.6978264058309126e-03
      -4.2309305674951495e-04 1.0514845561297963e-04
      1.7982690336350812e-03 -2.5713247070380387e-04
      1.4643752828683552e-03 -1.0130493977814617e-03
      -6.1765750237896793e-04 1.0729340626076658e-03
      -9.0530846412070060e-04 1.4079334441788483e-03
      1.2533679974044583e-03 3.3957582500763670e-04
      -1.0106998306009612e-03 -1.7441574474734919e-03
      2.8942567850093821e-04 2.1956144845343656e-04
      1.5641030024050726e-04 1.1684870063574933e-03
      2.0486829431577269e-03 7.0019678693012744e-04
      -8.5095856611358588e-04 -1.5128825572990980e-03
      2.2177175881028183e-03 -2.1788851400718363e-03
      -8.3085750210311717e-04 -1.6563607337955814e-04
      2.1848232104402180e-03 -3.9082905529434715e-04
      -5.6644911280568017e-04 -1.3765868270322495e-03
      -1.2417516412881623e-03 1.9040237162156288e-03
      -2.8858239987697123e-04 -8.8252048933056156e-04
      2.1869147863321698e-03 8.5985110160211032e-04
      -5.6879531815017513e-04 -8.2715749433096185e-05
      1.0101395884884944e-03 -1.1540136973529022e-03
      -1.1698729609966394e-03 1.7468774750914351e-03
      2.0188919083260048e-03 7.0067318224194912e-05
      -1.1601799153951398e-03 -2.0634544389449617e-03
      -6.5079813069007450e-04 1.4043909165128193e-03
      5.9081347656153214e-04 1.0491811839531634e-03
      3.1709538680379570e-05 1.6772720682951996e-03
      2.1733919878546406e-06 5.0570381121840292e-04
      -7.7489956893481637e-04 -1.1536304635282521e-03
      -6.3250918624214373e-04 -6.6885191961303669e-04
      -1.6682649956765831e-03 -5.4324722875564340e-04
      4.8226572917911970e-04 -1.7785123803258738e-03
      -2.1437201760679380e-03 -1.1866568127914970e-03
      3.4998481203873949e-04 -1.3271453518813210e-03
      -1.9598074469872567e-03 1.9882613080383182e-03
      1.0109031079803515e-03 -1.5371079166637005e-03
      -2.0945676560667347e-03 1.4747665033497653e-03
      3.9512118518842646e-04 5.5955156895917831e-04
      -3.1307149786434469e-04 1.6968943920320125e-03
      -8.4605187980289342e-04 -1.1940437809207945e-03
      -6.4109370558494011e-04 1.6720975600306091e-03
      1.7731371205765979e-03 1.6264305745382413e-03
      -2.1021655983444417e-03 -2.1001229423054046e-03
      1.7294714561258079e-03 2.1803044647147173e-03
      -1.6987712678336721e-03 -1.1599177031454127e-03
      5.8625856070634039e-04 6.3939947689519426e-04
      -3.8624683857205736e-04 -1.3329050751517647e-03
      -2.1262567932115459e-03 1.8009122153181520e-03
      1.9579364214805158e-03 -7.8665295092425206e-05
      -2.0858288681745649e-03 1.3773003295242158e-03
      -2.0011484178270671e-03 -7.7801180472418258e-04
      1.8125338163582779e-03 -1.5899189347834900e-03
      1.9919836603062130e-03 -1.3194128278754380e-03
      -1.3333335532281878e-03 2.1757141543513971e-03
      1.3589766161776575e-03 1.8900496791441636e-03
      6.1286184665162655e-04 8.5126836999031461e-04
      -1.0800960964303886e-03 2.0761418279879049e-04
      -7.6530174074199229e-04 9.7000274760794222e-04
      -4.9366039418870906e-04 -1.6168571221045244e-03
      -3.2636485099061749e-04 9.1925120819139462e-04
      -1.5807182852757738e-03 -1.5972577528999006e-03
      1.8639679656995696e-04 -1.8256456599157543e-03
      1.4190587498809435e-03 1.8073522842623768e-03
      1.6883531695310353e-03 6.6472272148807585e-04
      9.5425050430533568e-04 1.1200456744170710e-04
      4.7292031474477461e-04 -3.1139430735706823e-04
      -2.0387223459079127e-03 -1.1370985558425495e-03
      -1.0336212552383313e-03 -9.4675289691249981e-04
      5.5273273102505311e-04 -1.3120782516786690e-03
      -9.8567469709298595e-04 -1.6585845008944562e-03
      2.4423377526902482e-04 2.0502043276395630e-03
      -1.7924772525532173e-03 -1.0491026773875362e-04
      -1.5268081063933899e-03 -7.2283446402704031e-04
      2.6213963089626507e-04 1.7577339658046288e-03
      9.0762196127082873e-04 -2.0648855938815748e-03
      -1.9369051593294819e-03 -1.3370415157546564e-03
      -1.0355506203349662e-03 -2.1026481672448880e-03
      2.3390101021086051e-04 -2.0159477061957691e-03
      -1.4953229430098300e-03 1.4193881125624641e-04
      -1.6273279864321699e-03 6.2523592237690069e-04
      2.1937981516392800e-03 -2.0697248765192610e-03
      2.1252278529043569e-03 -1.0291453400460051e-04
      -2.8760455690282513e-04 -7.3016510373218087e-05
      4.2300320845074254e-04 1.0916324775374286e-03
      1.8687766200099537e-03 2.1530648901898460e-03
      -1.3177217363221218e-03 -3.6220655585768731e-04
      -3.6315927500126736e-04 -1.8376840461269317e-03
      5.9051722892712892e-04 1.9089083363215090e-03
      6.2699361873606201e-04 1.2025917316682549e-03
      6.7761063884895815e-04 1.4357089586187241e-03
      -1.5587372977248978e-03 1.9893289104984738e-03
      -1.1872842024707366e-03 6.7650046695600893e-04
      -2.3493394953102534e-04 8.1786777804719547e-04
      -2.0097714859236772e-03 2.6054096164746183e-04
      2.1567615385495315e-04 1.2564843832488198e-03
      2.0010175086294852e-03 1.4838189566302516e-03
      6.4267551774947184e-05 5.3294820370010149e-04
      -2.1759126701567065e-03 -1.9830981132172893e-03
      -2.1011547237899484e-04 -1.3030456375371629e-03
      -4.8800997222492722e-04 1.7835177986234160e-03
      -4.9404995718685765e-04 -2.1513865644247855e-03
      -2.2404113717562329e-03 -1.7462211058974436e-03
      1.6942487893163590e-03 2.6700675946242543e-04
      -1.0327003739764287e-03 -1.3788125292458903e-03
      -2.9128006947968827e-04 -4.1527823483544129e-04
      -1.1288872052694226e-03 -2.0945777471535866e-03
      6.3856436131711977e-04 -2.0278563432692001e-03
      1.8776525288990743e-03 -6.0847544172565034e-04
      -1.8764429462407280e-03 -1.2642692081311754e-03
      -1.4671846522874253e-03 -1.4314439122970557e-03
      1.9749865129549161e-03 1.8565199662350816e-03
      -1.5238220313718719e-03 8.2160553550768712e-04
      -1.5218303225792635e-04 1.4235775603035758e-03
      -9.0548394178688936e-04 -7.9871053005313593e-04
      2.0708064450719000e-03 -1.5418382065045305e-03
      1.1157028764694371e-03 -1.5230524466264439e-03
      -1.9947753740256267e-03 6.8160368431168720e-04
      1.0448526407839142e-04 8.0618678309669239e-04
      1.3721063210955398e-03 -1.5987055169264428e-03
      -1.7131039835610806e-03 -1.4984742623653843e-03
      1.6958291672785669e-03 2.3255568351367912e-05
      1.2521045715044936e-04 -1.6466517777694581e-03
      -1.9161159227002917e-03 9.5125930862567003e-04
      -1.2621448659222076e-03 1.0410344162465931e-03
      2.0130709977576634e-03 5.5287965372143694e-04
      -2.1215600544654649e-03 7.8001741717420754e-04
      -1.5307661982650023e-03 1.4632784893122365e-04
      1.5853856296279660e-03 -2.5558651900643606e-04
      -2.2150978776953938e-04 -1.2462775232640079e-03
      5.1825031606627162e-04 1.1291385498000493e-03
      1.7173739689285141e-03 1.1683726540243715e-03
      5.4191708214390989e-04 8.9060924678446211e-04
      -2.1965711305482185e-03 -1.8566697043087340e-03
      8.5470045891711363e-04 1.8881255853954305e-03
      1.9145215083552116e-03 2.7713816141969349e-04
      -7.2561229832199324e-04 -2.0788000912759603e-03
      2.9746592612705713e-05 1.4594417658058043e-03
      1.9133956886483781e-03 9.3986496271249804e-04
      1.4585079191984714e-03 -1.8222263692057768e-03
      -1.3743467380217546e-03 2.1718575399246472e-03
      -1.5789675158947556e-03 3.0647197137888721e-04
      -1.7329286117982220e-03 5.1363787603261033e-04
      2.2178127985839741e-04 -1.4846984030319505e-03
      -1.3808302773552538e-03 -1.6883032755663173e-03
      8.9326284613650388e-04 -1.2952294936322798e-03
      -4.1066048521658873e-04 -4.7478133615824465e-04
      -1.9624073156044195e-03 8.2932505839319201e-05
      -1.5095598289543749e-03 -7.2132830874716025e-04
      -6.7106148343109445e-04 -1.0784700651952500e-03
      1.6077402644688093e-03 -5.0908395789499771e-04
      -2.0000373304368342e-03 1.2582706720031709e-03
      6.1436270443582849e-04 2.0809215447603318e-03
      2.0403597445539652e-03 1.4666339314161419e-03
      -1.1056107685065888e-04 -6.0075774994766912e-04
      -1.4118457572950679e-03 1.7453695497957572e-03
      1.2383470910923185e-03 -5.2345359529785171e-04
      1.5506004460681927e-03 1.0962039874446135e-03
      -1.2112488433627163e-03 1.1344126739119013e-03
      2.1989468461637938e-03 7.9542501366493745e-04
      -1.1907070107383380e-03 -2.4258958174838604e-04
      3.4544668526176510e-04 -2.0447979665831582e-03
      1.6276842364040748e-03 1.4109507721958739e-03
      1.5509399587987115e-03 -1.1879247964368138e-03
      2.1332713224194886e-03 6.4683433040324762e-04
      3.5365312793747918e-05 -1.3718712566272565e-03
      -6.5374380790572445e-04 2.2069246936751051e-03
      1.0499663659449977e-03 -2.1415366668631043e-04
      1.4006613358467630e-03 -1.2439701492824296e-03
      -6.0526947388125994e-04 -3.4866208092393733e-04
      -9.0945223300055293e-04 1.2426111630614285e-03
      2.0088548108834902e-03 1.5726916417061439e-03
      -1.3630332913591406e-03 -1.1734952520598104e-03
      -2.1431671646993428e-03 1.2468514732116018e-04
      -1.6082105077367537e-04 -8.2013703906454411e-04
      -4.1949394770089113e-04 1.7771540560813604e-03
      4.6006087294948194e-04 1.8918096885621077e-03
      1.9985432043422712e-03 -1.8249746227799112e-03
      8.8101180687786607e-04 1.2769079693079187e-03
      1.2818084258748700e-03 -1.4414070411271156e-03
      1.6806999128336818e-04 -9.5398533005991649e-05
      -1.3696467734133065e-03 -5.8617068556632550e-04
      -1.2034458897825190e-03 2.2312323953320484e-03
      -4.4823822530756015e-04 -1.4585398773995280e-03
      8.0418482553963665e-04 -1.5658260455297169e-03
      4.7568632485138322e-04 4.9209222672451619e-04
      2.2892450691644814e-04 7.1237659335598189e-04
      -1.5005416933972040e-03 -5.8807796105482394e-04
      -9.6580074993539975e-04 -1.0355242082386363e-03
      -1.2737503419688017e-03 3.4557970954016912e-04
      -1.1830995173808532e-03 -4.0373817390321534e-04
      -1.8708393478310448e-03 1.6001327908513191e-03
      8.5989485190651022e-04 1.5865102257789940e-04
      -1.7979093788144174e-03 1.0904807314125573e-03
      -1.0382431146685215e-03 3.9888062428146995e-04
      -2.6362917439277846e-04 1.2880885572785303e-03
      1.4404602014901531e-03 8.9300093613842570e-04
      -1.8777947604114407e-03 1.0166487056353589e-03
      7.6701346221389540e-04 2.2674627447848237e-03
      7.6269105158447911e-04 8.0710291800256673e-04
      -6.4787128126086676e-04 1.9679123141975990e-03
      -3.7124661883451742e-04 8.1104119111965393e-04
      -9.7085821482291489e-04 3.9047991965757584e-04
      -1.0226997549595432e-03 2.0397393943212090e-03
      1.1370861259272176e-04 1.5275759791344265e-03
      -2.0641511271872301e-03 -4.0264635919801708e-04
      -8.5597245547730375e-04 7.8277027962584875e-04
      -1.0285183023838018e-03 -8.9365424023900427e-04
      -2.1403065213834358e-03 1.2469276421063667e-03
      7.5527709213625853e-04 1.3984859985604571e-03
      1.5535999671093240e-03 8.2838493868901556e-04
      -7.6873371287895017e-04 -2.2054705385347105e-03
      1.7945349877148851e-04 -7.4081536763515794e-05
      -1.3140018407192023e-03 8.7780471190068764e-04
      1.7433878746166045e-03 -2.4061751109917006e-04
      7.5467409369319111e-04 1.8597316055671165e-03
      9.3880123753875176e-04 -1.8374792600303765e-03
      -1.4340662893878432e-03 5.3143018553794639e-04
      -1.6800337979709804e-03 -1.1279017077622689e-03
      1.0943128846671079e-03 1.1799460025945616e-03
      1.2006015916783529e-03 3.2309798568739135e-04
      -1.5904245129204277e-03 -1.2582240530730753e-03
      7.6095851311370425e-04 7.2115118577267010e-04
      1.5055470192494836e-03 -2.1866142250479988e-03
      -7.4918513502680731e-04 -1.7484481851896686e-03
      8.7589461598924540e-04 9.3799634347302126e-04
      -9.1754749248017936e-04 -1.1999359926982340e-03
      -1.5432925082254152e-03 -1.1267784809847996e-04
      2.0287421344886950e-03 7.4011502934405319e-04
      -1.9468662045637945e-03 -2.0671137339851823e-03
      1.1618984205207111e-03 -3.7678984666001395e-04
      1.1896067569070700e-04 9.1444392387753006e-04
      1.5741456086983039e-03 9.4748849844977854e-04
      1.7804425317712529e-04 -9.3783806684535217e-05
      -1.8854914500869278e-03 1.7244482410969421e-03
      9.8233374997252825e-04 6.8029195090448294e-04
      1.4421993129937788e-03 8.6042983566508272e-04
      -2.9108224800923578e-04 2.3012043210685962e-04
      1.4272489862913087e-03 -1.0832197627474807e-03
      -4.7788859858621466e-04 -1.6665116287453664e-04
      1.5242817948429791e-03 2.0307378023073207e-03
      -1.4197121409793950e-04 8.1693562073512440e-04
      -2.9242545827075199e-04 -1.9277371410747577e-03
      1.2893840581453141e-03 2.1612355746543160e-03
      1.4292974894955209e-03 2.0296015621122498e-03
      6.2459283480642916e-04 -1.6689571341816056e-04
      -1.9858407108995280e-03 -1.1311064128046847e-03
      -5.3902577759263812e-04 1.1618420150671257e-03
      -4.6833764831825643e-04 1.8756915761039973e-03
      -2.4476589494363323e-04 -3.6442272427237828e-04
      -3.3495340195094131e-04 8.6303100909204883e-04
      2.0311016707719938e-04 -9.0422462890447182e-04
      3.6551159876622080e-04 -7.8475709259936217e-04
      5.0526663029840828e-04 1.8805842876333579e-03
      -1.1916830480620619e-03 -2.7186325066431961e-04
      -1.0840033386324416e-03 5.3974269458230883e-04
      -1.5724590138024752e-03 2.7661286008294879e-04
      -2.0467746017621136e-03 -6.2494577055632059e-04
      -7.9761466460087367e-04 -2.0636179028585486e-03
      2.1308084279657710e-03 -1.3717676526689277e-04
      -9.9608615754122917e-04 -1.3633686623852697e-03
      1.4566975410705090e-03 -1.0748976975512902e-03
      2.2582156842665753e-03 -5.4214584293948076e-04
      -1.9963806999719548e-03 -2.0598295487705481e-03
      4.7152357103024827e-04 -1.7672940979942457e-04
      1.9920125424287422e-03 2.2874577710159277e-04
      1.2014995689793486e-03 2.1532760278288263e-04
      1.3790397185031249e-03 -1.5241801077348891e-03
      6.7704648968661683e-04 -9.0487212081540394e-04
      9.6790270417536936e-04 -1.8297907490304134e-03
      2.1250518152259631e-04 -1.1276689507257861e-03
      1.7849083597751029e-03 1.2514521209228914e-03
      1.5719502831381215e-04 9.9409738552862443e-04
      8.0845056282183726e-04 6.6384590411003178e-04
      -2.0936590985124559e-03 -3.0140308694614402e-04
      -1.4980580858120342e-03 -1.0458854466857063e-03
      6.9059238769632032e-04 9.0779783548451025e-04
      -1.6461555197246000e-03 1.4228346505496046e-03
      2.4712157923886742e-04 -1.7803540192403821e-03
      -6.5568265042202710e-04 1.2672061274956194e-03
      -3.9928572601382665e-05 -1.3607743260453647e-03
      -1.6963704359825801e-03 -1.1722381952313351e-03
      -1.7645751096466717e-03 1.3499740704069824e-03
      -1.5718509792606017e-03 -1.6843665730457437e-03
      -9.3857426178111086e-04 -1.9659854064834671e-03
      -5.3786130417798840e-04 7.7948249218928105e-04
      -7.0967808968862365e-04 -3.5888815751937073e-04
      -1.7919331242323201e-03 2.0475015748914727e-03
      2.4500475919770806e-04 -1.7033693082011184e-03
      -1.3771824232171996e-03 -1.1384696002642851e-03
      -1.4305703758086658e-03 1.2818368733542168e-03
      -1.0186183900489267e-03 -1.7685339945246546e-03
      4.7599019730326973e-04 -1.9768898708889707e-03
      1.9949373048300093e-03 3.7925776335841210e-04
      -2.8012937383429723e-04 1.8930918611796128e-03
      1.8627697097753200e-04 1.2878978602113241e-03
      4.1338971600014530e-04 9.5894243321931042e-04
      6.4366808218360369e-04 -7.7383213146140840e-04
      -3.6320760391193629e-04 -1.7975263125025870e-03
      -1.8762719682265780e-03 -1.5795963446156068e-03
      -7.9831253393881387e-04 -2.1262833267735224e-03
      -1.0706971781722508e-03 -1.0699969055893747e-03
      -1.1548790280743450e-04 -2.9836530428558906e-04
      7.0370625948944004e-04 -9.9527290679780916e-05
      5.7861624699360125e-04 -1.0018521408017131e-03
      1.0562162399321672e-03 -1.9596964853360356e-03
      -4.8103879429993668e-04 1.2417360032644092e-03
      1.5785030568126292e-03 1.3477613432047112e-03
      -1.7716905902078026e-03 1.3806692500958412e-04
      1.9921204618604784e-04 -5.0663474489330790e-04
      -1.1411848445918328e-03 2.0273230379007751e-03
      -1.7884234705538801e-03 3.6967104600054936e-04
      1.1613467651545909e-03 -1.1933500761100403e-03
      -1.9176095862467196e-03 6.7441759012835316e-04
      8.4332019114908793e-04 -2.0858605296739229e-03
      -1.9603182746930992e-04 4.2126354886051201e-04
      2.1380855816146133e-03 1.8415711680296609e-03
      1.1498601023211905e-03 7.8494483919445957e-04
      -3.2003477156022540e-04 1.8506291670627921e-03
      2.0836390306867695e-03 -1.4744564711437604e-03
      1.6541769018599557e-03 6.9651187371065106e-04
      1.4461700794696621e-03 3.5475558029243325e-04
      -1.8649495167516583e-03 2.5444088276462717e-04
      -1.4062308741057772e-03 -9.5092602866498526e-04
      -1.2476504875636488e-03 -1.5989138633655245e-03
      4.1715494595985085e-04 1.8530335770376859e-04
      1.6098827455716550e-03 2.4079406832711137e-04
      7.1990010271616521e-04 -7.7459191466816069e-04
      -6.8801383167141936e-04 -1.5136805954136417e-03
      -2.0021390152837304e-03 -1.2589046948553639e-03
      1.0402328204540119e-03 7.7354724134036891e-05
      -1.4862651727119780e-03 2.1495771911103400e-03
      1.7901656275502770e-03 -1.6869409944139336e-03
      -1.8623281672683204e-03 1.7696147536819418e-03
      -1.6976556706877889e-03 1.0120995428413296e-03
      -3.3454997455299931e-05 6.0784733263821939e-04
      2.1206800625575310e-03 8.9311223633513988e-04
      2.2304277132600050e-03 2.7997068484253180e-04
      2.1303340402661669e-03 1.3018892179356145e-04
      -8.9977583513388773e-04 2.0876015158695122e-03
      5.0512050317949087e-04 -2.5837590205664323e-04
      1.9248976882960697e-03 -7.4679851613377690e-04
      -1.5335271037193808e-03 1.0286740766377012e-03
      -1.0046380855017669e-03 5.8838933934607742e-04
      1.2351490034762029e-03 -1.1319068867434330e-03
      -5.2587422776286072e-04 -1.5495585766544650e-03
      1.9593577148020471e-03 1.3824955337742295e-03
      1.8718541578951507e-04 -1.1691889710063771e-03
      -2.2516557647570755e-04 -1.9731596085546671e-03
      -4.7423621747307910e-04 1.3326447781375100e-03
      -2.8263274273950602e-04 -2.1055065262819196e-03
      1.2237411846421965e-03 2.1369856903119687e-03
      1.0695652580083920e-03 -3.6505444045849023e-04
      3.6332426217828407e-04 1.4466558507617961e-03
      2.0015482498490019e-03 -3.3462341430636557e-05
      3.5955026520287184e-05 -1.2357346442305641e-03
      3.3414432187758430e-04 -5.5256790479564033e-04
      -1.5993281801572267e-03 1.4551004844930839e-03
      1.0334057579763306e-03 -1.4090378785815395e-03
      2.1200246528683890e-03 1.6944369204610027e-03
      -3.6514788800881461e-04 2.0951349871033572e-03
      6.8839353098476127e-05 1.1681792869603443e-03
      -1.1863892551209924e-03 3.5607405126597986e-04
      -1.3452246350931702e-03 1.4174592769034410e-03
      -7.8457473448204605e-04 -4.8046646071160768e-04
      -1.9666477492772043e-03 1.3564714467405497e-03
      2.1451208015698196e-03 6.2341693817740296e-04
      -1.8755837084282958e-04 6.3904415330358051e-04
      1.3137193317532953e-03 -1.1601961846446742e-03
      2.0747962268096482e-03 3.2072235030549447e-04
      -5.3094004035180353e-04 1.4055369634673447e-03
      4.8997253361139160e-04 6.5507033767525188e-05
      -4.9693532920629113e-04 1.1492969256818649e-03
      -2.3009817152121049e-03 4.9641756851801595e-04
      1.4621750489525163e-03 1.0657191559165693e-03
      -1.3598339064312336e-03 -1.8741657901519054e-04
      1.8405275560808116e-03 2.1623882178404669e-03
      5.5324333233921412e-04 1.3330044919503312e-03
      -1.9679507864412047e-03 1.9308901123663415e-04
      -4.0178991913482912e-04 1.8115212956350524e-03
      -8.3666934009987487e-04 -8.4775390598316775e-04
      -1.4121420581306723e-03 1.3107375602565575e-03
      5.5847988155657456e-04 -3.8836694017135051e-04
      1.0874735974221511e-03 1.9631351513784987e-03
      1.3536980290543973e-03 -1.4792812115955139e-03
      1.8261946303122344e-03 -1.9687099848186462e-03
      6.4575784574193087e-04 -1.4700954060389586e-03
      -3.4841461601666288e-05 1.3322552803244265e-03
      -8.4727480173801795e-04 1.3522606456915359e-03
      -1.3339526420067804e-03 -1.0267179752869700e-03
      8.7323210220215650e-04 -2.0083467979382366e-03
      -6.2254495456291737e-04 -6.3941534422840625e-04
      -1.8944043069332511e-04 1.5779076420363591e-03
      -9.2912364057667223e-04 -1.0149002103367743e-03
      -1.7149907577842889e-03 1.0981944477620506e-03
      1.9931341276342909e-03 3.4065266489067343e-04
      -2.0447616021811018e-03 -6.4202480905251687e-04
      1.6365380940817143e-03 -1.7236236959587603e-03
      1.3474994926329449e-03 1.5030039597127287e-03
      1.1979142073275759e-03 -7.2202011437558770e-05
      2.2951592784324948e-04 8.7930007950301893e-04
      -4.6810174525934334e-04 5.8433051657458314e-05
      -3.3172846331323037e-05 -2.6705178958547402e-04
      6.7929290394697908e-04 2.2298812233696591e-03
      -7.3799511835030197e-04 3.7563347145841495e-04
      -1.5287495381571307e-03 8.4696898581291375e-04
      -1.3448564512148012e-03 9.4208906932375812e-04
      1.3173201288957897e-03 -1.6211949088624136e-04
      1.1901873950501292e-03 2.0121961822564451e-03
      1.4989043951134389e-04 1.9630084658631476e-03
      -2.0439139747618477e-03 -1.5300320733166173e-03
      -3.5210248063567007e-04 1.6685039826303577e-03
      -6.3380368781073551e-04 -1.3045662325659112e-03
      -4.8535353079840593e-04 -1.3376024481814950e-03
      -1.3556233301331110e-03 1.6284631646367933e-03
      5.2082897607636338e-04 -1.7049059524503673e-03
      9.0666317958799599e-04 1.1104138512666977e-03
      1.5984620326339850e-05 -2.1316362146441012e-03
      1.0250548966785702e-03 -6.5139496822350801e-04
      1.5696199852626117e-03 -6.0360641462195365e-04
      1.9575124126365168e-03 3.5149123971076702e-04
      1.6648946383221095e-03 4.2461085451839383e-04
      3.2455657738504617e-04 -1.5067447824321570e-03
      1.3648302380230280e-03 1.8848470566812090e-03
      9.0157521290046906e-05 -1.1519562971013343e-04
      8.1020569490819743e-04 1.1039485059206942e-03
      -1.8239650245184813e-03 -7.5257818285461475e-04
      9.4702270741049580e-04 5.7366186188785703e-04
      -8.9843818198176743e-04 -1.3765140646595187e-03
      1.9193669211129503e-03 -1.5886805870846585e-03
      2.1025620011500992e-03 1.0798772971980172e-05
      -2.0795955825424401e-03 4.6796774650135830e-04
      1.8110168168695729e-04 1.6217260342405728e-04
      1.6960554666977977e-03 2.0369960673546992e-03
      -1.3996141859791498e-03 5.6484602402434537e-04
      -1.0651125999245005e-03 5.5261142591374172e-04
      -1.4010609779984071e-03 1.7209645606546338e-03
      4.1011083289803639e-04 -5.3462548064550554e-04
      8.9043173032117746e-04 -6.7163285176346599e-04
      -1.0880952955706930e-03 -7.3663444336761195e-04
      1.3867301715435414e-03 7.0590255567136103e-04
      1.2460699256304608e-03 -2.1028397964009621e-03
      1.2214541604739237e-03 1.8859889261140447e-03
      1.5701208072049414e-04 5.1952854661688468e-04
      1.0319687864387308e-03 1.8856253767921072e-03
      -9.1826686497872856e-04 -2.0503909587531099e-03
      -1.7765427916363514e-03 -1.7374473635595558e-03
      1.4534414637797752e-03 -3.9946892111093247e-04
      1.2954469144966809e-03 1.0050044801242432e-03
      2.2424206044581911e-03 1.9382378799014210e-03
      -3.8900916364569877e-04 -9.5161379896270863e-04
      -1.9471408193460788e-04 -1.3585381302701103e-03
      -1.6861834957116106e-03 1.6283020902666762e-03
      -1.4078303668911131e-03 1.4308282712002004e-03
      -1.4526376922958711e-03 1.5237022001831780e-03
      -9.6981520589463929e-04 2.0527330922588405e-03
      2.0646650742222341e-03 1.3860692323673766e-03
      -1.6978628507008859e-03 7.2653483432291764e-04
      6.2447595968379607e-04 1.1965662636402282e-03
      1.7794342914220023e-03 -2.0332434050319924e-03
      -1.1948960460218547e-03 1.4758713334370210e-03
      2.9914195515010311e-04 4.5083831252010491e-04
      -1.5678620047369378e-03 1.3999585401651389e-03
      1.0434883739768575e-03 -9.5341957019206940e-04
      1.1864942260445192e-03 -1.5012266470546248e-04
      -1.4803877321063767e-03 -1.9091424567114249e-03
      3.3147489680285453e-04 1.1118951050588643e-03
      9.1007847102196637e-04 -1.9998758079722971e-03
      -5.6539453297968143e-04 3.4697647011599348e-04
      -1.0144097776110556e-03 -5.9829369416121526e-05
      -1.0199895617541410e-03 -2.0993752119143655e-03
      -2.9028761679621953e-04 -2.3870687071450886e-04
      9.9360760709121492e-05 1.1892633131628576e-04
      1.5844935538264382e-03 1.6300969134119077e-03
      1.9819401802484132e-03 1.2826886011342222e-03
      -5.1294019773719362e-04 -4.0825596445949664e-04
      -4.4592956524783096e-05 -1.4351347376177461e-04
      7.9700497150510510e-05 -1.7897525466620309e-03
      -6.5921819999234063e-05 -2.0759097049410785e-03
      -1.7076909629681700e-03 -1.2139914462881293e-03
      5.6742757798543980e-04 -1.8050030822164163e-03
      7.9695438862788541e-04 9.1297851150994730e-04
      -3.0186560599464369e-04 9.4819852775901545e-04
      -1.2243312494419187e-04 1.4995966489443010e-03
      1.6334678686803317e-04 -8.5479640846464113e-04
      -1.6170006871280304e-03 7.7599902054786320e-04
      -1.5981675120037345e-03 -1.1613024136763663e-03
      -6.7639226394062971e-04 -6.6344682709018664e-04
      -1.8474524116473328e-03 -1.9207769960889636e-03
      1.6420163788556971e-03 -1.0297384844254961e-03
      -5.6477296191562469e-04 -1.2544926310289251e-03
      1.1936349942585193e-03 -2.8661820725148647e-04
      1.8300549671229987e-04 -1.1064320433319765e-03
      1.4424603915493734e-03 -6.4888285539952480e-04
      1.5073488003731082e-03 1.4532361866030010e-03
      -1.0564305869180408e-03 1.3443607986617051e-03
      8.0710428482532674e-04 1.1250894785877663e-03
      -8.6780696959361746e-04 -3.2851164140181336e-04
      6.7396574930032210e-04 1.5299442357693824e-03
      -2.1540609484712973e-03 -2.4363005085876593e-04
      1.9419901922254873e-03 -2.1365226507764580e-03
      -9.8932421603998015e-04 1.9596874428606738e-03
      -1.3720086553894069e-03 -1.7286095280899148e-03
      -9.3957689671283584e-04 5.5671406860536210e-04
      1.0499737874829457e-04 1.4828404199756563e-03
      -2.1912735318232604e-03 1.2827580625030433e-03
      -4.0737987768625698e-04 1.3580017186703818e-03
      -3.8682905891752081e-04 -1.9538830600646794e-03
      -1.4933210471705803e-03 -3.3008373125535076e-04
      5.6885344476380339e-04 -7.5860046851928783e-04
      1.8481101423068144e-03 1.3622644200796605e-03
      1.2630645725361955e-03 -1.2518325693420169e-03
      5.2421031870545016e-04 -5.2339715466393735e-04
      1.8919242548384862e-03 1.5509730973531633e-03
      -1.2419512783922513e-03 3.0801124054377854e-04
      1.2768979239712935e-03 -4.5862141770554581e-04
      2.9689892773046610e-04 -2.0290880336237961e-03
      3.4723591848555204e-04 1.0648615939126721e-03
      1.0997265768157951e-03 4.1694036895826691e-04
      7.9016541983751502e-04 -2.1458095036295251e-03
      1.6824334973870841e-03 2.1505450070714491e-04
      5.4861710185243387e-04 -1.3436315127679410e-03
      1.6406700192511239e-04 1.0040194880351955e-03
      1.0796873645219432e-03 1.9676300656462291e-03
      2.0774709209319610e-03 -4.9193613931472263e-04
      2.0344691017572586e-03 1.6676335530236286e-03
      -2.0448089284919517e-03 1.2198064332598112e-03
      2.1850686512233249e-03 -2.0296070343882012e-03
      8.9628839914313843e-04 -2.0064092908705783e-03
      -1.6320592106215596e-03 1.4238963641037742e-04
      -1.2487445742733817e-03 1.3481453834149205e-03
      1.8434055125527225e-03 -1.4818678597561922e-03
      4.8785607296849702e-04 -1.9957769832743347e-04
      1.3823522176340641e-03 -1.6345412812445277e-03
      -1.5553332096511906e-03 1.7868089710784266e-03
      -1.0089972202685824e-03 -1.5167327183262034e-03
      -2.2955734021639519e-03 7.9712928749082817e-04
      1.4226253145872404e-03 -4.8003139824049317e-04
      -4.0442139692525311e-04 -6.3217813436252204e-04
      -1.6858844305431436e-03 -6.1838105729344916e-04
      -5.1752565798463438e-06 8.6893318728204568e-04
      1.8417266048461136e-03 -1.5265242689377189e-03
      -1.7265662650678077e-03 -3.6751871525936747e-04
      -1.8987859013061088e-03 1.3701917685269391e-03
      1.9011415719790883e-03 1.0518292182630079e-03
      1.4117866393124590e-03 -1.5332599827053051e-03
      9.6682117010628917e-04 -7.4559624923852691e-04
      -1.2353303551755786e-04 -1.6081478051155983e-04
      -1.0494709275226432e-03 -5.0954264886702812e-04
      6.7402664260890954e-04 1.4190219941498524e-03
      6.3393669259203525e-04 1.4941863154283759e-03
      -1.5857972351727033e-03 2.0601299201509220e-03
      -2.0956254879314585e-03 1.9846708952655223e-03
      1.3940507724334249e-03 1.5821538646962896e-03
      -1.5837709133600464e-03 1.7990801077623910e-03
      -1.2845592048231775e-03 2.0966347053726670e-03
      5.2281273264795089e-06 4.9748273483990696e-04
      3.2117339188614122e-04 2.0115906227619893e-03
      2.2191651103356130e-03 7.6431816032840275e-08
      -3.9887559960075563e-04 -1.4503745483700351e-03
      -2.1285459369617334e-03 -2.0631168055306874e-04
      3.2661377609805920e-04 1.4240447974046575e-03
      -4.0759860753337496e-04 -1.3620559649448224e-03
      3.7721401335275641e-04 -8.7333785857992424e-04
      -4.1257378105548283e-04 -1.1304704994513277e-03
      1.2105141429550016e-03 4.2669145804927829e-04
      6.3104895081556695e-04 -1.4298196760479146e-03
      -1.6501116361467686e-03 1.7190320677442644e-04
      -1.2993807803471299e-03 -1.6440058686212765e-03
      1.4778581098417020e-03 -4.6287291960971587e-04
      -1.6168375224441074e-03 -1.0489754446393719e-03
      1.4509697650928485e-03 1.9774278312014643e-03
      -2.1414795588506398e-03 7.0549009333543619e-04
      -1.6318607460576115e-03 -8.1273711466439279e-04
      -1.6607361551076358e-03 2.2044115670936146e-03
      3.4831157211653581e-04 -1.2635142134050554e-03
      2.0342858281675269e-04 8.4564817608566531e-04
      1.4306123383707114e-03 -9.9407482196631268e-04
      1.0816605750208963e-03 7.0018408133539219e-05
      -7.0956776547856110e-04 -1.1310014467636415e-03
      -3.7779114329419285e-04 -1.6181115304839480e-03
      -2.8279459747550462e-04 -1.2706754348479610e-03
      9.6666839038092687e-04 9.1530103678487797e-04
      1.8737449891250023e-03 2.1329145284439870e-03
      -4.5744695880567572e-04 -1.5806725395075577e-03
      7.2067425243418849e-04 -1.2091049114017825e-03
      -1.5698240336298479e-04 1.9776099011736045e-04
      -5.9042313869181560e-04 -1.0135052414034123e-03
      1.4873149594548887e-04 -1.9384181343376995e-03
      2.0317340854580732e-03 -7.5810204520272034e-04
      1.5474088213586119e-03 -8.5890394777616744e-05
      2.1999802064778511e-03 -1.5270212004295199e-03
      -1.4665920491928333e-03 -9.8980868235789155e-04
      5.0624800472211046e-05 1.0101682578078791e-03
      -8.1619803240694808e-04 1.3110054004191480e-03
      -7.8150233811812595e-04 -1.0335496769632671e-03
      1.2587039454748335e-03 1.4984823493049873e-03
      -9.0012239853506958e-04 -1.6125710896044195e-03
      -1.2371272605059833e-03 6.9691039664917815e-04
      9.2421482122134453e-04 -5.3935944600134989e-04
      -2.1028625434832463e-03 -1.1494828052107874e-03
      5.7543425777101807e-04 -7.4328592774185285e-04
      -7.7288797501669768e-04 5.7112955512118077e-04
      8.2754726158629460e-04 8.9264438189371115e-04
      4.9809781348118549e-04 -1.5398719746116739e-03
      -1.4378174671897752e-03 -2.2108546823124643e-03
      -1.5590718755185565e-03 -1.8512546901098593e-03
      1.8452633983626846e-03 -1.2103002387889711e-03
      1.7007732379001506e-03 2.0978665005923864e-03
      7.0553903196917582e-04 -2.1599115572169605e-03
      -4.0334284188431742e-04 -9.4762801391353845e-04
      1.2593698490262150e-03 6.1019919680272458e-04
      1.7378536369257729e-03 -8.2084786536955150e-04
      -1.2099135925752976e-03 -1.2798805085447588e-03
      6.1179590321505867e-04 -3.5856083139605639e-04
      8.7535216606312650e-04 -1.2474697219259454e-04
      1.2992296676916581e-03 -1.4735941432702684e-03
      -1.6866633400027347e-03 1.1733409487888564e-03
      2.1042914533933154e-03 1.7581636041854153e-04
      -2.6665877878863343e-04 1.7634557710523512e-03
      -2.1886237630502963e-03 7.1648434251354973e-04
      -8.8303537582774155e-04 -2.1281086659356621e-04
      1.9781017409157033e-03 -8.0752037940188160e-04
      4.1498735266281721e-04 -3.1351383505873155e-04
      -6.3874119736191806e-05 2.0605425347521274e-03
      -5.9029828956832131e-04 -7.2910212401408820e-04
      -1.6793755499673953e-03 1.0556421222926563e-03
      1.4237159106655398e-03 8.3149427119601118e-04
      2.8131585231029084e-04 1.4566265258052190e-03
      1.8391069032666562e-03 -1.2613434213671994e-04
      3.2875394246493985e-04 1.2406638201622911e-03
      -2.5038760301766318e-05 -4.1256633617765403e-04
      2.7517789600132482e-04 -8.6184490955810322e-05
      -8.9505964712239790e-04 1.5265412425976696e-03
      8.9455722071427632e-04 -1.9151031272077650e-03
      1.1706409243785155e-03 1.8999927438902726e-03
      2.1686036429588596e-03 1.9209032664671887e-03
      1.5654812823372125e-03 1.8335285233400085e-03
      -2.1768036213559003e-04 -1.3743097516840583e-03
      1.3267463276602563e-03 -2.5527587389734653e-04
      6.7647741440638397e-04 2.8855870543531746e-05
      7.0814648653538131e-04 1.5383209540770870e-03
      8.7397042871041359e-04 -1.3925944089013727e-03
      -1.3192750622313849e-03 6.6796393785877517e-04
      1.2411783072352888e-03 -7.2560530865543838e-04
      -4.9787093029198741e-04 -1.8426706766858536e-03
      -1.7614682579525273e-04 -1.8569319948562358e-03
      2.9784654362750531e-04 -1.5272405370060237e-03
      1.1426857128488735e-03 1.5850400938201318e-03
      -1.2990062196938348e-04 5.5382831658618004e-04
      -9.5544022851616443e-04 1.7845151870537774e-04
      2.0797882787293364e-03 1.5701151642102792e-03
      1.5891304631407250e-03 -2.1316379400128449e-03
      4.9635511185028855e-04 1.9616417868559633e-03
      -9.2293158585464267e-04 6.9838946353177752e-04
      2.2223567960754794e-03 1.2138253905538132e-03
      -2.1830876435964403e-03 -1.3182359403986622e-03
      -1.4802811445109880e-03 7.2341244363507290e-04
      -5.7449671771414145e-04 2.7379442899091717e-04
      1.0051156434037027e-03 7.4451957849168535e-04
      -7.6691137227150627e-04 -1.0049810000671881e-03
      -1.3541055503618401e-03 -1.9371809033661969e-03
      -6.5546100991901960e-05 1.1261415054161607e-03
      -1.5657191233662056e-03 -1.1156887402680470e-03
      1.0666993952691683e-03 -3.0795111297097527e-05
      -9.3796138213492783e-04 1.2942023293816044e-03
      -7.5478882069783494e-04 -9.2395929239840542e-04
      1.3613728847315478e-03 2.1717532518136353e-03
      1.6399168012542181e-03 -1.5361857472778208e-03
      1.9408964504846729e-03 -1.2136505500017930e-03
      -1.1833419159765961e-03 -1.0843537460126515e-03
      8.5667880650366034e-04 -1.3827182987993462e-03
      -1.9162807363431484e-03 2.2689150617427549e-04
      1.9491830655492652e-03 -9.7264550438578366e-05
      4.9429195802739841e-04 3.3734756937898068e-05
      2.7585472841618514e-04 1.9394674658652475e-03
