<?xml version="1.0"?>
<opencv_storage>
<opencv_ml_ann_mlp>
  <format>3</format>
  <layer_sizes>
    900 128 128 128 12</layer_sizes>
  <activation_function>SIGMOID_SYM</activation_function>
  <f_param1>1.</f_param1>
  <f_param2>1.</f_param2>
  <min_val>-9.4999999999999996e-01</min_val>
  <max_val>9.4999999999999996e-01</max_val>
  <min_val1>-9.7999999999999998e-01</min_val1>
  <max_val1>9.7999999999999998e-01</max_val1>
  <training_params>
    <train_method>BACKPROP</train_method>
    <dw_scale>1.0000000000000000e-03</dw_scale>
    <moment_scale>1.0000000000000001e-01</moment_scale>
    <term_criteria>
      <epsilon>1.0000000000000000e-04</epsilon>
      <iterations>10000</iterations></term_criteria></training_params>
  <input_scale>
    1. 0. 1. 0. 1. 0. 1. 0. 1. 0. 1. 0. 1. 0. 1. 0. 1. 0. 1. 0. 1. 0. 1.
    0. 1.7542174150689585e-01 -2.2366272042129220e-02
    3.3280281119093591e-02 -1.1951780956894487e-01
    3.8625067372617568e-02 -1.0259783520851541e-01 1. 0. 1. 0. 1. 0. 1.
    0. 1. 0. 2.1482896761811687e-01 -1.8260462247539935e-02 1. 0. 1. 0.
    1. 0. 1. 0. 1. 0. 1. 0. 1. 0. 1. 0. 1. 0. 1. 0. 1. 0. 1. 0. 1. 0. 1.
    0. 1. 0. 1. 0. 1. 0. 1. 0. 1. 0. 1. 0. 2.1482896761811687e-01
    -1.8260462247539935e-02 9.6138570170051410e-02
    -4.0858892322271849e-02 1.9662544232028675e-02
    -2.0807887433544345e-01 1.4988687274231926e-02
    -2.8251801926017900e-01 1.1777438286823599e-02
    -3.8141233891878223e-01 3.4085574425065351e-02
    -1.1661527150175484e-01 1.7542174150689585e-01
    -2.2366272042129220e-02 1. 0. 1.3590376053127240e-01
    -2.8879549112895385e-02 1.1487880548135561e-01
    -3.4176444630703295e-02 3.3476141721701332e-02
    -1.1879845793488761e-01 1. 0. 1. 0. 1. 0. 1. 0. 1. 0. 1. 0. 1. 0. 1.
    0. 1. 0. 1. 0. 1. 0. 1. 0. 1. 0. 1. 0. 1. 0. 1. 0. 1. 0.
    5.6544261382588293e-02 -6.9690802154040069e-02
    1.5193235241224298e-01 -2.5828499910081310e-02
    1.2407294062124170e-01 -3.1638599858416633e-02
    2.3050786849036629e-02 -1.7535886095404615e-01
    1.4036829932375230e-02 -3.0544141932848501e-01
    1.1307410528132800e-02 -4.0319399090689528e-01
    1.0187238793856095e-02 -4.6997552770605860e-01
    1.2887809166276066e-02 -3.3931990558659098e-01
    3.2530488698286328e-02 -1.2235530061642945e-01
    1.1487880548135561e-01 -3.4176444630703295e-02
    2.4490731112903358e-02 -1.6445525942314604e-01
    1.9587456946217476e-02 -2.0894919697377493e-01
    1.5395290005509474e-02 -2.7382447686049288e-01 1. 0. 1. 0. 1. 0. 1.
    0. 1. 0. 1. 0. 1. 0. 1. 0. 1. 0. 1. 0. 1. 0. 1. 0. 1. 0.
    2.1482896761811687e-01 -1.8260462247539935e-02
    3.0861124669227264e-02 -1.2919238314655265e-01
    1.5412335850672157e-02 -2.7347263425036406e-01
    1.1705637558758170e-02 -3.8455945789910273e-01
    1.3296437463842929e-02 -3.2634443700319488e-01
    2.4996690122765324e-02 -1.6094743852795523e-01
    2.7841310237564785e-02 -1.4376556573922517e-01
    2.1899444516089033e-02 -1.8521455199482298e-01
    1.2708320099095911e-02 -3.4539625489330300e-01
    8.8504605747475665e-03 -6.0559276482710223e-01
    8.8973959670321148e-03 -5.9878362683630248e-01
    1.1352912534846807e-02 -4.0095648844945214e-01
    2.3534263264780607e-02 -1.7153536137116965e-01
    2.3979971778528120e-02 -1.6815955209692846e-01
    1.4754029657160954e-02 -2.8781423353706731e-01
    1.3703069761070826e-02 -3.1448545101657543e-01
    1.1245997757467090e-02 -4.0626166898849864e-01
    1.1705637558758170e-02 -3.8455945789910273e-01
    5.1495801703337667e-02 -7.6600005033714780e-02 1. 0. 1. 0. 1. 0. 1.
    0. 1. 0. 1. 0. 1. 0. 1. 0. 1. 0. 1. 0. 1. 0. 1.3590376053127240e-01
    -2.8879549112895385e-02 2.0510700131577877e-02
    -1.9874868427498962e-01 1.3890366560588839e-02
    -3.0933846330431342e-01 1.0910694249833462e-02
    -4.2405777038758979e-01 1.0597443256710264e-02
    -4.4250948998800799e-01 1.1463918017893414e-02
    -3.9561981079750169e-01 1.3629449915651152e-02
    -3.1656101110339258e-01 1.0847835304148894e-02
    -4.2760810789541925e-01 9.2019670545134963e-03
    -5.5964063133787456e-01 8.6736225231659452e-03
    -6.3367317748619612e-01 8.7427958175561957e-03
    -6.2219199285115867e-01 9.2074969896927556e-03
    -5.5899865161548434e-01 9.5296052862713122e-03
    -5.2489065916782385e-01 1.0802824253849149e-02
    -4.3019546884890769e-01 1.0793445554808399e-02
    -4.3073942847851621e-01 8.9173632482183376e-03
    -5.9595853258249176e-01 9.0993365751106895e-03
    -5.7196154877002015e-01 1.2343232268371907e-02
    -3.5855546835586843e-01 2.2715345911030943e-02
    -1.7811670612487138e-01 3.0378871648382599e-01
    -1.2911020450562605e-02 1. 0. 1. 0. 1. 0. 1. 0. 1. 0. 1. 0. 1. 0. 1.
    0. 1. 0. 1. 0. 1.5193235241224298e-01 -2.5828499910081310e-02
    2.2451984314736887e-02 -1.8034556400812407e-01
    1.3842708204041793e-02 -3.1063037209869782e-01
    8.8973959670321148e-03 -5.9878362683630248e-01
    8.7834538448072052e-03 -6.1575305247290313e-01
    9.1306986311619712e-03 -5.6811206883089782e-01
    8.8750533277832822e-03 -6.0199486722354001e-01
    8.7942439418899516e-03 -6.1408006885232058e-01
    8.9127998388570367e-03 -5.9660053921349288e-01
    8.9666706623207394e-03 -5.8915509586778414e-01
    8.9010049418830998e-03 -5.9826992091249520e-01
    8.1179718690291280e-03 -7.6800072866950064e-01
    8.7112100648611863e-03 -6.2734868183355941e-01
    8.9771221480679248e-03 -5.8774340843669215e-01
    8.7532397283794725e-03 -6.2051716434482085e-01
    8.7073194060542300e-03 -6.2799364386314627e-01
    8.8991992691114311e-03 -5.9852677084317563e-01
    1.1469878236858824e-02 -3.9533802812893154e-01
    3.0263221915693340e-02 -1.3183416047023913e-01
    1.2407294062124170e-01 -3.1638599858416633e-02
    1.5193235241224298e-01 -2.5828499910081310e-02
    1.3590376053127240e-01 -2.8879549112895385e-02
    2.1482896761811687e-01 -1.8260462247539935e-02 1. 0. 1. 0. 1. 0. 1.
    0. 1. 0. 1. 0. 3.0378871648382599e-01 -1.2911020450562605e-02
    1.2407294062124170e-01 -3.1638599858416633e-02
    2.3909682744416919e-02 -1.6868281176186134e-01
    1.3703069761070826e-02 -3.1448545101657543e-01
    9.3935970221371394e-03 -5.3855840127167753e-01
    8.6827170125679271e-03 -6.3212350530747652e-01
    8.9118889562503772e-03 -5.9672894464932991e-01
    8.0914466563357101e-03 -7.7804316754828062e-01
    8.2898425207334082e-03 -7.1467768601557813e-01
    8.2263756481319797e-03 -7.3245592177055108e-01
    8.2057886413441899e-03 -7.3864406455059728e-01
    8.0113302974587335e-03 -8.1324015265790794e-01
    7.9304726885938252e-03 -8.6148724816194722e-01
    8.2523731702158903e-03 -7.2495035207054037e-01
    8.2823839653221737e-03 -7.1667468451932770e-01
    8.8928980611093795e-03 -5.9942579380907779e-01
    8.9733128128426064e-03 -5.8825673808691314e-01
    9.0196974771394895e-03 -5.8209745130904333e-01
    1.0798130712548119e-02 -4.3046748085573078e-01
    2.0888685196579344e-02 -1.9486532202758955e-01
    2.3909682744416919e-02 -1.6868281176186134e-01
    2.2451984314736887e-02 -1.8034556400812407e-01
    2.0510700131577877e-02 -1.9874868427498962e-01
    3.0861124669227264e-02 -1.2919238314655265e-01 1. 0. 1. 0. 1. 0. 1.
    0. 1. 0. 5.1495801703337667e-02 -7.6600005033714780e-02
    2.2715345911030943e-02 -1.7811670612487138e-01
    3.0119221588311398e-02 -1.3248692596158476e-01
    2.0980876074876212e-02 -1.9394197321713699e-01
    1.0747050249176453e-02 -4.3345540417490935e-01
    9.0089369509629199e-03 -5.8350884631386823e-01
    8.8937964612301797e-03 -5.9929735729441913e-01
    8.8777151339080890e-03 -6.0160946319319908e-01
    7.9298737726353399e-03 -8.6192771737438245e-01
    7.8447326217128636e-03 -1.0203741780219693e+00
    7.8431687365729894e-03 -9.9717066920696917e-01
    7.8495245697127996e-03 -9.6044820253863394e-01
    7.8624238484207229e-03 -9.3228690782648727e-01
    7.9061473400691556e-03 -1.1350460428770284e+00
    7.8431382352943009e-03 -9.9950012493752338e-01
    8.0731439518703010e-03 -7.8537562649782255e-01
    8.2088773821539628e-03 -7.3770102704399354e-01
    8.0258579833955099e-03 -8.0618740210959972e-01
    8.1068843734868144e-03 -7.7211993494181796e-01
    8.7793281206318113e-03 -6.1639662734955947e-01
    1.0751652773964455e-02 -4.3318409026302790e-01
    1.3714519587239441e-02 -3.1416535744468749e-01
    1.3854569585542115e-02 -3.1030772229217957e-01
    1.3854569585542115e-02 -3.1030772229217957e-01
    1.5412335850672157e-02 -2.7347263425036406e-01 1. 0. 1. 0. 1. 0. 1.
    0. 1. 0. 1.1725054307373540e-02 -3.8370240220879914e-01
    1.2359006426831845e-02 -3.5796317239515085e-01
    1.1469878236858824e-02 -3.9533802812893154e-01
    1.0798130712548119e-02 -4.3046748085573078e-01
    8.7793281206318113e-03 -6.1639662734955947e-01
    8.6683501425473108e-03 -6.3457740762285408e-01
    8.2676993027304049e-03 -7.2067467897075255e-01
    8.0837528653813304e-03 -7.8108251592638933e-01
    7.8635460504317654e-03 -9.3041476868708639e-01
    7.9711547026154479e-03 -1.1977357416716188e+00
    7.9481259746464316e-03 -1.1775546037737421e+00
    7.9718906729038478e-03 -1.1983545356775887e+00
    8.2018404599052339e-03 -1.3516120462895080e+00
    8.1803740054538412e-03 -1.3393828613804641e+00
    7.9365810628335334e-03 -1.1667369405945005e+00
    7.8431481481708431e-03 -9.9833471991029610e-01
    7.8658868340444211e-03 -9.2668012791877330e-01
    7.9034779369322340e-03 -8.8341124640060054e-01
    8.2590358042261541e-03 -7.2307858465999975e-01
    8.6683501425473108e-03 -6.3457740762285408e-01
    9.0128407837821931e-03 -5.8299560609895118e-01
    9.3837371771232497e-03 -5.3958834702752967e-01
    8.8991992691114311e-03 -5.9852677084317563e-01
    1.0905806047862766e-02 -4.2433128106478041e-01
    1.1699192498489126e-02 -3.8484493723779983e-01 1. 0. 1. 0. 1. 0.
    3.3675570539246871e-02 -1.1807496920323435e-01
    1.5395290005509474e-02 -2.7382447686049288e-01
    1.1245997757467090e-02 -4.0626166898849864e-01
    9.1222735553967704e-03 -5.6913864712120454e-01
    8.9320674593741239e-03 -5.9390433045810964e-01
    9.0177351695272436e-03 -5.8235406507910747e-01
    8.1061545182475898e-03 -7.7239493327122155e-01
    8.2599929987412259e-03 -7.2281133733734781e-01
    7.8441624013901763e-03 -9.8396192642738201e-01
    7.8445285836409966e-03 -9.8134072015275908e-01
    7.9069938029355333e-03 -1.1360076834100017e+00
    8.4102774577634910e-03 -1.4594144215520541e+00
    9.2241999664044901e-03 -1.7950984949620616e+00
    8.5248136082785621e-03 -1.5128027669081034e+00
    8.8017678295299173e-03 -1.6315286915110263e+00
    9.3849666536274280e-03 -1.8537068822161726e+00
    8.4710667099027488e-03 -1.4881440554287781e+00
    7.9217152955055967e-03 -1.1519263275518270e+00
    8.2735361697097720e-03 -1.3906780109260914e+00
    7.9677500490166892e-03 -1.1948537570381039e+00
    7.8442051200104390e-03 -9.8363390628010894e-01
    8.2647992639805195e-03 -7.2147565174917949e-01
    8.8955950322130873e-03 -5.9904048896301954e-01
    8.6827170125679271e-03 -6.3212350530747652e-01
    8.7801521890674486e-03 -6.1626790696040790e-01
    1.0623600796785804e-02 -4.4089271256760687e-01
    1.3369135556376307e-02 -3.2415140298378903e-01
    5.7540304358252810e-02 -6.8472962186320846e-02 1. 0.
    2.1482896761811687e-01 -1.8260462247539935e-02
    1.1487880548135561e-01 -3.4176444630703295e-02
    1.9624886028901153e-02 -2.0851441405707474e-01
    1.3691653200433907e-02 -3.1480533621097662e-01
    8.9064362187920056e-03 -5.9749940678293523e-01
    8.7088741491234863e-03 -6.2773564866882092e-01
    8.9752162212051977e-03 -5.8800007171198199e-01
    8.0264528779433863e-03 -8.0590603427600316e-01
    7.9038083430204072e-03 -8.8311226568652768e-01
    7.9672676799519958e-03 -1.1944428114938033e+00
    7.9575989523499435e-03 -1.1860602298503784e+00
    8.3638564744938377e-03 -1.4367850844709238e+00
    8.9348417850877108e-03 -1.6848654525184523e+00
    1.0493383654687560e-02 -2.2267222449838369e+00
    1.1373046611154788e-02 -2.5001510528384210e+00
    1.0353955021188870e-02 -2.1819536538340132e+00
    1.0867018960355001e-02 -2.3445729244702918e+00
    1.0843061000064467e-02 -2.3370998141276451e+00
    8.9283768748045778e-03 -1.6823182521639592e+00
    9.0869673120911199e-03 -1.7436754400988848e+00
    7.9571379897234330e-03 -1.1856533461587402e+00
    7.8446803027407384e-03 -9.8035950328388854e-01
    8.0847939255293093e-03 -7.8066770144911013e-01
    8.8794925831595286e-03 -6.0135253582875003e-01
    8.9137113206353633e-03 -5.9647213515946618e-01
    9.1349281935110081e-03 -5.6759876330380643e-01
    1.1452033540065019e-02 -3.9618310031854931e-01
    2.3874778436847655e-02 -1.6894390091374320e-01
    1.7542174150689585e-01 -2.2366272042129220e-02 1. 0. 1. 0.
    1.3590376053127240e-01 -2.8879549112895385e-02
    2.4490731112903358e-02 -1.6445525942314604e-01
    1.4754029657160954e-02 -2.8781423353706731e-01
    1.0751652773964455e-02 -4.3318409026302790e-01
    8.7613339479605500e-03 -6.1922918010698169e-01
    8.8982973219499176e-03 -5.9865519807748557e-01
    8.2079932803609534e-03 -7.3797041584565282e-01
    7.8658868340444211e-03 -9.2668012791877330e-01
    8.2715850851394976e-03 -1.3896469732661485e+00
    9.0890219626755062e-03 -1.7444559852963100e+00
    1.1257066111127631e-02 -2.4648471956925060e+00
    1.1082369248563735e-02 -2.4112880481409369e+00
    1.0692449233087828e-02 -2.2898681966350067e+00
    1.1330071988688552e-02 -2.4870924274169957e+00
    1.0763194859479536e-02 -2.3121091577326709e+00
    1.1273749499806328e-02 -2.4699375935388188e+00
    1.0357884892416933e-02 -2.1832220302675256e+00
    1.0480936994238814e-02 -2.2227447130531965e+00
    1.1296146291763249e-02 -2.4767647955662806e+00
    8.3638564744938377e-03 -1.4367850844709238e+00
    7.9008682493192962e-03 -1.1289155598039875e+00
    7.8635460504317654e-03 -9.3041476868708639e-01
    7.9310737677531062e-03 -8.6104693743832561e-01
    8.0914466563357101e-03 -7.7804316754828062e-01
    8.8857320528643608e-03 -6.0045334347230916e-01
    1.4055516264187520e-02 -3.0495199474687845e-01
    2.7619653184253200e-02 -1.4496865465084899e-01
    1.2407294062124170e-01 -3.1638599858416633e-02
    2.1482896761811687e-01 -1.8260462247539935e-02 1. 0. 1. 0.
    1.1487880548135561e-01 -3.4176444630703295e-02
    2.3909682744416919e-02 -1.6868281176186134e-01
    1.0807526200907457e-02 -4.2992339227209864e-01
    8.9752162212051977e-03 -5.8800007171198199e-01
    8.2833739398781442e-03 -7.1640830362521102e-01
    8.0758558555343186e-03 -7.8426655177057647e-01
    7.8431389978219322e-03 -9.9933355540748159e-01
    7.9217152955055967e-03 -1.1519263275518270e+00
    8.9118889562503755e-03 -1.6758027391945158e+00
    1.0485078876523470e-02 -2.2240687185909671e+00
    1.1262616427926617e-02 -2.4665411542569990e+00
    1.1119087156296881e-02 -2.4225850130371285e+00
    1.0905806047862763e-02 -2.3566492611402241e+00
    1.1367279773583715e-02 -2.4984002123362479e+00
    1.1051279677241878e-02 -2.4017055417569946e+00
    1.1046131997225598e-02 -2.4001173680221743e+00
    1.1268177546885987e-02 -2.4682379507576409e+00
    1.1071967116066457e-02 -2.4080836479499790e+00
    8.9348417850877108e-03 -1.6848654525184523e+00
    8.4067933893386699e-03 -1.4577379737113254e+00
    7.9716450980739911e-03 -1.1981482227968936e+00
    7.8448398788783635e-03 -1.0210549404852620e+00
    8.2918446569386246e-03 -7.1414548588466020e-01
    8.7992549528691875e-03 -6.1330807021498235e-01
    1.0857409797956838e-02 -4.2706264264038479e-01
    2.1899444516089033e-02 -1.8521455199482298e-01
    2.2988642421982321e-02 -1.7586311452816475e-01
    9.6138570170051410e-02 -4.0858892322271849e-02 1. 0.
    1.7542174150689585e-01 -2.2366272042129220e-02
    3.2713082323528035e-02 -1.2165177489061989e-01
    2.3467962152708785e-02 -1.7204949753204626e-01
    9.5686305155474414e-03 -5.2114350024114697e-01
    8.7065427937483304e-03 -6.2812264667648110e-01
    8.2542700553246799e-03 -7.2441537573043224e-01
    7.8431425925980409e-03 -9.9883401309560116e-01
    7.9369960147776496e-03 -1.1671352639730534e+00
    8.4723120873132565e-03 -1.4887229088123581e+00
    1.0847835304148897e-02 -2.3385898946625496e+00
    1.0353955021188870e-02 -2.1819536538340132e+00
    1.1046131997225598e-02 -2.4001173680221743e+00
    1.0967556439965795e-02 -2.3758194949164904e+00
    9.6820501272667503e-03 -1.9582672536156547e+00
    9.3861969869346428e-03 -1.8541493527990693e+00
    9.5189811066204097e-03 -1.9014164760474268e+00
    1.0952606902800970e-02 -2.3711846314218961e+00
    1.1129667611883862e-02 -2.4258362647707217e+00
    1.0573702000738967e-02 -2.2523042631774071e+00
    1.0501716565665240e-02 -2.2293831554336596e+00
    9.2320532190354552e-03 -1.7980000647397738e+00
    7.9485672311255303e-03 -1.1779577922347257e+00
    7.8432053385771392e-03 -9.9584197783246620e-01
    8.2254662793818708e-03 -7.3272453616733701e-01
    8.9109786723786197e-03 -5.9685735147592001e-01
    9.2108239745013389e-03 -5.5861344699356996e-01
    1.2699580206344947e-02 -3.4569844769196739e-01
    1.4024419931127593e-02 -3.0576741554840930e-01
    1.9624886028901153e-02 -2.0851441405707474e-01 1. 0.
    3.2898849883744953e-02 -1.2094439688511738e-01
    1.2878616801153786e-02 -3.3962522331742678e-01
    1.1352912534846807e-02 -4.0095648844945214e-01
    9.2074969896927556e-03 -5.5899865161548434e-01
    8.1164783522266592e-03 -7.6854933517234236e-01
    7.9306728078872152e-03 -8.6134046032362055e-01
    7.9064852230327099e-03 -1.1354305766666697e+00
    8.1820623663974197e-03 -1.3403547741293513e+00
    9.3849666536274280e-03 -1.8537068822161726e+00
    1.0867018960355001e-02 -2.3445729244702918e+00
    1.1279332318620756e-02 -2.4716400909793661e+00
    1.1056437001996166e-02 -2.4032962494851491e+00
    9.5269435639198669e-03 -1.9042216621973931e+00
    9.0787761382079071e-03 -1.7405602642768745e+00
    9.3617522556755373e-03 -1.8453417958774836e+00
    9.0869673120911199e-03 -1.7436754400988848e+00
    9.6820501272667503e-03 -1.9582672536156547e+00
    1.0896056331497315e-02 -2.3536162679554917e+00
    1.1352912534846807e-02 -2.4940362079364840e+00
    1.1338616092015683e-02 -2.4896908016744583e+00
    8.5274478506344974e-03 -1.5139950693310884e+00
    7.9718906729038478e-03 -1.1983545356775887e+00
    7.8495245697127996e-03 -9.6044820253863394e-01
    8.2049090289882977e-03 -7.3891359487811370e-01
    8.9628889167271963e-03 -5.8966846183148225e-01
    8.6721136745779668e-03 -6.3393150961164935e-01
    8.8504605747475665e-03 -6.0559276482710223e-01
    1.1318719005906530e-02 -4.0263513183761002e-01
    1.5004263992767521e-02 -2.8217393971398419e-01 1. 0.
    1.1784049071490083e-02 -3.8112560709466803e-01
    1.0183585743972145e-02 -4.7023980121009379e-01
    8.8937964612301797e-03 -5.9929735729441913e-01
    8.7459999083139353e-03 -6.2167660598283991e-01
    8.8973959670321148e-03 -5.9878362683630248e-01
    8.0023774629921392e-03 -8.1777295591499544e-01
    7.8624238484207229e-03 -9.3228690782648727e-01
    8.2088773821539628e-03 -1.3555627054052668e+00
    8.8000920315312973e-03 -1.6308440553984194e+00
    1.0365764113274308e-02 -2.1857638925404452e+00
    1.0767826059386485e-02 -2.3135616473372056e+00
    1.1367279773583715e-02 -2.4984002123362479e+00
    9.3641814639390877e-03 -1.8462186069765707e+00
    9.3496566524534312e-03 -1.8409707690097117e+00
    1.0472674157774055e-02 -2.2201021947065223e+00
    9.3641814639390877e-03 -1.8462186069765707e+00
    9.3788278240202125e-03 -1.8514978478093902e+00
    1.1373046611154788e-02 -2.5001510528384210e+00
    1.0763194859479536e-02 -2.3121091577326709e+00
    1.0346114680432632e-02 -2.1794219900764844e+00
    8.8017678295299173e-03 -1.6315286915110263e+00
    8.2053486750735486e-03 -1.3535850874976640e+00
    7.8626086538085248e-03 -9.3197466025755893e-01
    8.0029291923964727e-03 -8.1748921334180924e-01
    8.9028129887871212e-03 -5.9801307697306694e-01
    8.7508217343441816e-03 -6.2090361763322344e-01
    8.8955950322130873e-03 -5.9904048896301954e-01
    1.0190897689501715e-02 -4.6971121313124597e-01
    1.1777438286823599e-02 -3.8141233891878223e-01
    3.8322953414326670e-02 -1.0342407052691410e-01
    1.5004263992767521e-02 -2.8217393971398419e-01
    1.1301772896161471e-02 -4.0347329239296453e-01
    8.8522022799655212e-03 -6.0533572240974221e-01
    8.6706067905523172e-03 -6.3418985717797283e-01
    8.9666706623207394e-03 -5.8915509586778414e-01
    8.2014033703027497e-03 -7.3999212259399139e-01
    7.8492114062481324e-03 -9.6141065909430246e-01
    7.9733694055122029e-03 -1.1995934270593109e+00
    8.5248136082785621e-03 -1.5128027669081034e+00
    1.1350047599567845e-02 -2.4931656432805722e+00
    1.1341469742308739e-02 -2.4905584017366431e+00
    1.0900926749779612e-02 -2.3551315981314480e+00
    9.6849359074260323e-03 -1.9592625340722865e+00
    9.0726614372030716e-03 -1.7382312047537365e+00
    9.3569039444186299e-03 -1.8435907841688026e+00
    9.0767351803121808e-03 -1.7397832156863373e+00
    9.5216314811094778e-03 -1.9023505576895652e+00
    1.1061603998572389e-02 -2.4048894983246250e+00
    1.1268177546885987e-02 -2.4682379507576409e+00
    1.0891194769021638e-02 -2.3521032642982966e+00
    9.3874281778024912e-03 -1.8545920450918825e+00
    8.1795316995319188e-03 -1.3388973194817553e+00
    7.9058103929380667e-03 -1.1346616721204537e+00
    7.9310737677531062e-03 -8.6104693743832561e-01
    8.1164783522266592e-03 -7.6854933517234236e-01
    9.2074969896927556e-03 -5.5899865161548434e-01
    1.1370161763652405e-02 -4.0011599246292812e-01
    1.2887809166276066e-02 -3.3931990558659098e-01
    3.4296382403306243e-02 -1.1587890204517097e-01
    3.3280281119093591e-02 -1.1951780956894487e-01
    1.9662544232028675e-02 -2.0807887433544345e-01
    1.4012047756092331e-02 -3.0609318323183693e-01
    1.2699580206344947e-02 -3.4569844769196739e-01
    9.2041767763878356e-03 -5.5938384358497073e-01
    8.9109786723786197e-03 -5.9685735147592001e-01
    8.2263756481319797e-03 -7.3245592177055108e-01
    7.8431556645528339e-03 -9.9783567547815355e-01
    7.9494526867446881e-03 -1.1787647180222192e+00
    9.2108239745013389e-03 -1.7901466665042713e+00
    1.0501716565665240e-02 -2.2293831554336596e+00
    1.0678978011503542e-02 -2.2856216638021030e+00
    1.1119087156296881e-02 -2.4225850130371285e+00
    1.0972558011259504e-02 -2.3773692815095404e+00
    9.5216314811094778e-03 -1.9023505576895652e+00
    9.3911269033607782e-03 -1.8559214542766738e+00
    9.6791685630800532e-03 -1.9572730709832329e+00
    1.0965059110760234e-02 -2.3750455097145551e+00
    1.1046131997225598e-02 -2.4001173680221743e+00
    1.0353955021188870e-02 -2.1819536538340132e+00
    1.0852618229081464e-02 -2.3400822398729044e+00
    8.4685808927811197e-03 -1.4869875332373208e+00
    7.9374119350776196e-03 -1.1675337650604047e+00
    7.8431425925980409e-03 -9.9883401309560116e-01
    8.2552205127754182e-03 -7.2414794338065969e-01
    8.7112100648611863e-03 -6.2734868183355941e-01
    9.6098648992102142e-03 -5.1726299053111380e-01
    2.3402241405442472e-02 -1.7256227756338144e-01
    3.2530488698286328e-02 -1.2235530061642945e-01
    1.7542174150689585e-01 -2.2366272042129220e-02
    1.7542174150689585e-01 -2.2366272042129220e-02
    1.0133049295782814e-01 -3.8758913556369269e-02
    2.2988642421982321e-02 -1.7586311452816475e-01
    2.1952784420494864e-02 -1.8473268089846426e-01
    1.0862210033957660e-02 -4.2678980999673888e-01
    8.8000920315312973e-03 -6.1317941264206133e-01
    8.2898425207334082e-03 -7.1467768601557813e-01
    7.8452427865560934e-03 -1.0234413411666921e+00
    7.9711547026154479e-03 -1.1977357416716188e+00
    8.4091145462992147e-03 -1.4588552370647194e+00
    8.9329916255526508e-03 -1.6841369111654412e+00
    1.1082369248563735e-02 -2.4112880481409369e+00
    1.1284926035395687e-02 -2.4733454514927615e+00
    1.1040993934970765e-02 -2.3985317211906305e+00
    1.1046131997225598e-02 -2.4001173680221743e+00
    1.1367279773583715e-02 -2.4984002123362479e+00
    1.0905806047862763e-02 -2.3566492611402241e+00
    1.1119087156296881e-02 -2.4225850130371285e+00
    1.1284926035395687e-02 -2.4733454514927615e+00
    1.0485078876523470e-02 -2.2240687185909671e+00
    8.9173632482183358e-03 -1.6779690957131839e+00
    7.9217152955055967e-03 -1.1519263275518270e+00
    7.8431389978219305e-03 -1.0006668890371109e+00
    8.0704499694984593e-03 -7.8648552565254859e-01
    8.2823839653221737e-03 -7.1667468451932770e-01
    8.9809415724439214e-03 -5.8723009089121136e-01
    1.0816955401498383e-02 -4.2937904466247828e-01
    2.3909682744416919e-02 -1.6868281176186134e-01
    1.1487880548135561e-01 -3.4176444630703295e-02 1. 0. 1. 0.
    2.1482896761811687e-01 -1.8260462247539935e-02
    1.2407294062124170e-01 -3.1638599858416633e-02
    2.7729798048877544e-02 -1.4436826109196871e-01
    1.4018229126868063e-02 -3.0593032790748692e-01
    8.9109786723786197e-03 -5.9685735147592001e-01
    8.0914466563357101e-03 -7.7804316754828062e-01
    7.9290785805342014e-03 -8.6251525664228479e-01
    7.8639272518186438e-03 -9.2979143861877733e-01
    7.8975333666012875e-03 -1.1249147808219790e+00
    8.3638564744938377e-03 -1.4367850844709238e+00
    1.1251526564820305e-02 -2.4631560667540491e+00
    1.0485078876523470e-02 -2.2240687185909671e+00
    1.0346114680432632e-02 -2.1794219900764844e+00
    1.1268177546885987e-02 -2.4682379507576409e+00
    1.0786433489027346e-02 -2.3193933101036892e+00
    1.1347185491869499e-02 -2.4922958214342166e+00
    1.0612668858038871e-02 -2.2646639392890600e+00
    1.1082369248563735e-02 -2.4112880481409369e+00
    1.1313059220420764e-02 -2.4819154970720092e+00
    9.0890219626755062e-03 -1.7444559852963100e+00
    8.2774547771334132e-03 -1.3927438471635252e+00
    7.8664921400947319e-03 -9.2574846127669830e-01
    8.2088773821539628e-03 -7.3770102704399354e-01
    8.9311439016573381e-03 -5.9403270875898373e-01
    8.7597108795283568e-03 -6.1948675340024539e-01
    1.0793445554808399e-02 -4.3073942847851621e-01
    1.4739314026097947e-02 -2.8815358921021489e-01
    2.4490731112903358e-02 -1.6445525942314604e-01
    1.3590376053127240e-01 -2.8879549112895385e-02 1. 0. 1. 0.
    1.7542174150689585e-01 -2.2366272042129220e-02
    2.4453118145351137e-02 -1.6472231710662161e-01
    1.1446109207891457e-02 -3.9646460768834035e-01
    9.1306986311619712e-03 -5.6811206883089782e-01
    8.9118889562503772e-03 -5.9672894464932991e-01
    8.8794925831595286e-03 -6.0135253582875003e-01
    8.0851415122914876e-03 -7.8052945516972982e-01
    7.8443847202123041e-03 -9.8232288206948604e-01
    7.9585238494591769e-03 -1.1868745579794706e+00
    9.0869673120911199e-03 -1.7436754400988848e+00
    8.9228591893111033e-03 -1.6801409246253207e+00
    1.0838295293821121e-02 -2.3356119922111001e+00
    1.0867018960355001e-02 -2.3445729244702918e+00
    1.0353955021188870e-02 -2.1819536538340132e+00
    1.1350047599567845e-02 -2.4931656432805722e+00
    1.0501716565665240e-02 -2.2293831554336596e+00
    8.9348417850877108e-03 -1.6848654525184523e+00
    8.3627560224256107e-03 -1.4362406261814304e+00
    7.9562190338381793e-03 -1.1848401385191816e+00
    7.9672676799519958e-03 -1.1944428114938033e+00
    7.9041396825023282e-03 -8.8281336113868503e-01
    8.0294433619214883e-03 -8.0450004084352111e-01
    8.9695135365211974e-03 -5.8877008042917200e-01
    8.7104309190199330e-03 -6.2747766732889843e-01
    8.9137113206353633e-03 -5.9647213515946618e-01
    1.3691653200433907e-02 -3.1480533621097662e-01
    1.9624886028901153e-02 -2.0851441405707474e-01
    1.1487880548135561e-01 -3.4176444630703295e-02 1. 0. 1. 0.
    5.7540304358252810e-02 -6.8472962186320846e-02
    1.3358664153255278e-02 -3.2446525395237913e-01
    1.0619222346537822e-02 -4.4116231835898068e-01
    8.7818019398023354e-03 -6.1601047431985956e-01
    8.6842396842407403e-03 -6.3186527942535631e-01
    8.8902063971154858e-03 -5.9981111285538546e-01
    8.2667312635539454e-03 -7.2094163349453955e-01
    7.8441205552551851e-03 -9.8429005242411471e-01
    7.9648708380855651e-03 -1.1923909449041472e+00
    8.2784378611911597e-03 -1.3932610920384723e+00
    7.9217152955055967e-03 -1.1519263275518270e+00
    8.4723120873132565e-03 -1.4887229088123581e+00
    9.3849666536274280e-03 -1.8537068822161726e+00
    8.7984184205956734e-03 -1.6301599669449407e+00
    8.5234990799750512e-03 -1.5122072436476237e+00
    9.2208457266051806e-03 -1.7938579058252464e+00
    8.4079531907133194e-03 -1.4582964212802949e+00
    7.9003855667289045e-03 -1.1283429421221804e+00
    7.8445285836409966e-03 -9.8134072015275908e-01
    7.8441624013901763e-03 -9.8396192642738201e-01
    8.2604721026074794e-03 -7.2267772748674353e-01
    8.1068843734868144e-03 -7.7211993494181796e-01
    9.0157754657975604e-03 -5.8261068031917063e-01
    8.9100689868055107e-03 -5.9698575970220269e-01
    9.1180779694247562e-03 -5.6965192113981167e-01
    1.1240479657660871e-02 -4.0654004801844951e-01
    1.5395290005509474e-02 -2.7382447686049288e-01
    3.3675570539246871e-02 -1.1807496920323435e-01 1. 0. 1. 0. 1. 0.
    1.1705637558758170e-02 -3.8455945789910273e-01
    1.0896056331497319e-02 -4.2487809657632353e-01
    8.8937964612301797e-03 -5.9929735729441913e-01
    9.3861969869346428e-03 -5.3933087886926456e-01
    9.0089369509629199e-03 -5.8350884631386823e-01
    8.6638500563349773e-03 -6.3535261406875509e-01
    8.2590358042261541e-03 -7.2307858465999975e-01
    7.9044719557232277e-03 -8.8251453267660906e-01
    7.8650922797766903e-03 -9.2792358716805390e-01
    7.8431376906318451e-03 -9.9966672220370834e-01
    7.9369960147776496e-03 -1.1671352639730534e+00
    8.1812175607249137e-03 -1.3398686794857719e+00
    8.2027155964749503e-03 -1.3521048787394441e+00
    7.9718906729038478e-03 -1.1983545356775887e+00
    7.9481259746464316e-03 -1.1775546037737421e+00
    7.9711547026154479e-03 -1.1977357416716188e+00
    7.8637362050234891e-03 -9.3010305898966572e-01
    8.0865346956244914e-03 -7.7997659589809076e-01
    8.2647992639805195e-03 -7.2147565174917949e-01
    8.6728678531436676e-03 -6.3380234162292282e-01
    8.7842806060818585e-03 -6.1562434557573187e-01
    1.0798130712548119e-02 -4.3046748085573078e-01
    1.1481834819363310e-02 -3.9477418567675898e-01
    1.2304118489028414e-02 -3.6003388713708268e-01
    1.1712096184381003e-02 -3.8427387580954075e-01
    3.0378871648382599e-01 -1.2911020450562605e-02 1. 0. 1. 0. 1. 0. 1.
    0. 1.5412335850672157e-02 -2.7347263425036406e-01
    1.3866466326197278e-02 -3.0998485472214016e-01
    1.3866466326197278e-02 -3.0998485472214016e-01
    1.3714519587239441e-02 -3.1416535744468749e-01
    1.0756263464867154e-02 -4.3291271380224078e-01
    8.7809767953351339e-03 -6.1613918928667799e-01
    8.1061545182475898e-03 -7.7239493327122155e-01
    8.0270488390077454e-03 -8.0562472291596354e-01
    8.2097627691640647e-03 -7.3743167853670066e-01
    8.0724687781225744e-03 -7.8565302383077962e-01
    7.8431399782149264e-03 -9.9916701359971771e-01
    7.9061473400691556e-03 -1.1350460428770284e+00
    7.8624238484207229e-03 -9.3228690782648727e-01
    7.8492114062481324e-03 -9.6141065909430246e-01
    7.8431687365729894e-03 -9.9717066920696917e-01
    7.8446803027407384e-03 -1.0200339739149997e+00
    7.9314756896790607e-03 -8.6075348487780801e-01
    8.8866257474520208e-03 -6.0032489408693690e-01
    8.8902063971154858e-03 -5.9981111285538546e-01
    9.0128407837821931e-03 -5.8299560609895118e-01
    1.0756263464867154e-02 -4.3291271380224078e-01
    2.0843067693249933e-02 -1.9532559812036843e-01
    3.0409358385046287e-02 -1.3117836973349342e-01
    2.2655983803963175e-02 -1.7861411231449467e-01
    5.1495801703337667e-02 -7.6600005033714780e-02 1. 0. 1. 0. 1. 0. 1.
    0. 1. 0. 3.0861124669227264e-02 -1.2919238314655265e-01
    2.0510700131577877e-02 -1.9874868427498962e-01
    2.2451984314736887e-02 -1.8034556400812407e-01
    2.3909682744416919e-02 -1.6868281176186134e-01
    2.0843067693249933e-02 -1.9532559812036843e-01
    1.0788768758517264e-02 -4.3101131190276470e-01
    9.0138183619718152e-03 -5.8286729710395491e-01
    8.9733128128426064e-03 -5.8825673808691314e-01
    8.8857320528643608e-03 -6.0045334347230916e-01
    8.2823839653221737e-03 -7.1667468451932770e-01
    8.2542700553246799e-03 -7.2441537573043224e-01
    7.9308731675892651e-03 -8.6119369008559932e-01
    8.0051465175892296e-03 -8.1635483543060272e-01
    8.2031536437188173e-03 -7.3945277732892345e-01
    8.2272863244386915e-03 -7.3218734644342143e-01
    8.2908428928389396e-03 -7.1441156852231535e-01
    8.0914466563357101e-03 -7.7804316754828062e-01
    8.9118889562503772e-03 -5.9672894464932991e-01
    8.6827170125679271e-03 -6.3212350530747652e-01
    9.3861969869346428e-03 -5.3933087886926456e-01
    1.3714519587239441e-02 -3.1416535744468749e-01
    2.3909682744416919e-02 -1.6868281176186134e-01
    1.2407294062124170e-01 -3.1638599858416633e-02
    3.0378871648382599e-01 -1.2911020450562605e-02 1. 0. 1. 0. 1. 0. 1.
    0. 1. 0. 1. 0. 2.1482896761811687e-01 -1.8260462247539935e-02
    1.3590376053127240e-01 -2.8879549112895385e-02
    1.5193235241224298e-01 -2.5828499910081310e-02
    1.2407294062124170e-01 -3.1638599858416633e-02
    3.0263221915693340e-02 -1.3183416047023913e-01
    1.1481834819363310e-02 -3.9477418567675898e-01
    8.9155360834566010e-03 -5.9621533116105585e-01
    8.7073194060542300e-03 -6.2799364386314627e-01
    8.7548543534756822e-03 -6.2025954380786841e-01
    8.9809415724439214e-03 -5.8723009089121136e-01
    8.7127698799986161e-03 -6.2709072115055031e-01
    8.1187203865512661e-03 -7.6772649655325409e-01
    8.8991992691114311e-03 -5.9852677084317563e-01
    8.9647785406041357e-03 -5.8941177709837045e-01
    8.9127998388570367e-03 -5.9660053921349288e-01
    8.8009296569590487e-03 -6.1305075757962491e-01
    8.9091598990952894e-03 -5.9711416933711403e-01
    9.1328119898356971e-03 -5.6785541749800905e-01
    8.7818019398023354e-03 -6.1601047431985956e-01
    8.8937964612301797e-03 -5.9929735729441913e-01
    1.3878398594629297e-02 -3.0966176864266620e-01
    2.2451984314736887e-02 -1.8034556400812407e-01
    1.5193235241224298e-01 -2.5828499910081310e-02 1. 0. 1. 0. 1. 0. 1.
    0. 1. 0. 1. 0. 1. 0. 1. 0. 1. 0. 1. 0. 3.0378871648382599e-01
    -1.2911020450562605e-02 2.2715345911030943e-02
    -1.7811670612487138e-01 1.2335372890515235e-02
    -3.5885141660120135e-01 9.1055585875427902e-03
    -5.7119169019655924e-01 8.9137113206353633e-03
    -5.9647213515946618e-01 1.0784100301644818e-02
    -4.3128313131353041e-01 1.0821682699842747e-02
    -4.2910677325551455e-01 9.5836465490750974e-03
    -5.1972115235634253e-01 9.2074969896927556e-03
    -5.5899865161548434e-01 8.7524332049070067e-03
    -6.2064597910146191e-01 8.6691018685644741e-03
    -6.3444822025089109e-01 9.1931580891596917e-03
    -5.6066772896262662e-01 1.0852618229081467e-02
    -4.2733540854286911e-01 1.3981281603219967e-02
    -3.0690660779268231e-01 1.1452033540065019e-02
    -3.9618310031854931e-01 1.0619222346537822e-02
    -4.4116231835898068e-01 1.0891194769021634e-02
    -4.2515140180222083e-01 1.3890366560588839e-02
    -3.0933846330431342e-01 2.0467641034513432e-02
    -1.9920131636840196e-01 1.3590376053127240e-01
    -2.8879549112895385e-02 1. 0. 1. 0. 1. 0. 1. 0. 1. 0. 1. 0. 1. 0. 1.
    0. 1. 0. 1. 0. 1. 0. 5.1495801703337667e-02 -7.6600005033714780e-02
    1.1712096184381003e-02 -3.8427387580954075e-01
    1.1240479657660871e-02 -4.0654004801844951e-01
    1.3691653200433907e-02 -3.1480533621097662e-01
    1.4739314026097947e-02 -2.8815358921021489e-01
    2.3979971778528120e-02 -1.6815955209692846e-01
    2.3019648969127681e-02 -1.7561114707323280e-01
    1.1347185491869503e-02 -4.0123647899250559e-01
    8.9028129887871212e-03 -5.9801307697306694e-01
    8.8513311422643345e-03 -6.0546424262266396e-01
    1.2717081776027199e-02 -3.4509391034471809e-01
    2.1952784420494864e-02 -1.8473268089846426e-01
    2.7954218094439313e-02 -1.4316053941614734e-01
    2.3534263264780607e-02 -1.7153536137116965e-01
    1.3390165458555836e-02 -3.2352313518553216e-01
    1.1705637558758170e-02 -3.8455945789910273e-01
    1.5412335850672157e-02 -2.7347263425036406e-01
    3.0861124669227264e-02 -1.2919238314655265e-01
    2.1482896761811687e-01 -1.8260462247539935e-02 1. 0. 1. 0. 1. 0. 1.
    0. 1. 0. 1. 0. 1. 0. 1. 0. 1. 0. 1. 0. 1. 0. 1. 0. 1. 0.
    1.5395290005509474e-02 -2.7382447686049288e-01
    1.9662544232028675e-02 -2.0807887433544345e-01
    2.4490731112903358e-02 -1.6445525942314604e-01
    1.1487880548135561e-01 -3.4176444630703295e-02
    3.2530488698286328e-02 -1.2235530061642945e-01
    1.2897025118005005e-02 -3.3901442650815905e-01
    1.0183585743972145e-02 -4.7023980121009379e-01
    1.1301772896161471e-02 -4.0347329239296453e-01
    1.4024419931127593e-02 -3.0576741554840930e-01
    2.2927019688160001e-02 -1.7636609895117081e-01
    1.3590376053127240e-01 -2.8879549112895385e-02
    1.7542174150689585e-01 -2.2366272042129220e-02
    5.7540304358252810e-02 -6.8472962186320846e-02 1. 0. 1. 0. 1. 0. 1.
    0. 1. 0. 1. 0. 1. 0. 1. 0. 1. 0. 1. 0. 1. 0. 1. 0. 1. 0. 1. 0. 1. 0.
    1. 0. 1. 0. 3.3878676789237311e-02 -1.1734726672872074e-01
    1.1487880548135561e-01 -3.4176444630703295e-02
    1.3590376053127240e-01 -2.8879549112895385e-02 1. 0.
    1.7542174150689585e-01 -2.2366272042129220e-02
    3.3476141721701332e-02 -1.1879845793488761e-01
    1.1777438286823599e-02 -3.8141233891878223e-01
    1.5004263992767521e-02 -2.8217393971398419e-01
    1.9662544232028675e-02 -2.0807887433544345e-01
    9.6138570170051410e-02 -4.0858892322271849e-02
    2.1482896761811687e-01 -1.8260462247539935e-02 1. 0. 1. 0. 1. 0. 1.
    0. 1. 0. 1. 0. 1. 0. 1. 0. 1. 0. 1. 0.</input_scale>
  <output_scale>
    5.2631578947368418e-01 4.9999999999999994e-01 5.2631578947368418e-01
    4.9999999999999994e-01 5.2631578947368418e-01 4.9999999999999994e-01
    5.2631578947368418e-01 4.9999999999999994e-01 5.2631578947368418e-01
    4.9999999999999994e-01 5.2631578947368418e-01 4.9999999999999994e-01
    5.2631578947368418e-01 4.9999999999999994e-01 5.2631578947368418e-01
    4.9999999999999994e-01 5.2631578947368418e-01 4.9999999999999994e-01
    5.2631578947368418e-01 4.9999999999999994e-01 5.2631578947368418e-01
    4.9999999999999994e-01 5.2631578947368418e-01 4.9999999999999994e-01</output_scale>
  <inv_output_scale>
    1.8999999999999999e+00 -9.4999999999999996e-01
    1.8999999999999999e+00 -9.4999999999999996e-01
    1.8999999999999999e+00 -9.4999999999999996e-01
    1.8999999999999999e+00 -9.4999999999999996e-01
    1.8999999999999999e+00 -9.4999999999999996e-01
    1.8999999999999999e+00 -9.4999999999999996e-01
    1.8999999999999999e+00 -9.4999999999999996e-01
    1.8999999999999999e+00 -9.4999999999999996e-01
    1.8999999999999999e+00 -9.4999999999999996e-01
    1.8999999999999999e+00 -9.4999999999999996e-01
    1.8999999999999999e+00 -9.4999999999999996e-01
    1.8999999999999999e+00 -9.4999999999999996e-01</inv_output_scale>
  <weights>
    <_>
      -2.1012431188922849e-03 1.6500640783901778e-04
      -2.1050741863159234e-03 -2.8330420803991549e-04
      -1.7497866325483608e-03 -1.1360705618402565e-04
      -2.3716312493712573e-04 2.1899630060444480e-03
      -3.8524192872751799e-05 -2.0516826210895673e-03
      -1.4290679415722976e-03 1.3509986972244361e-03
      1.9434822366494661e-03 8.4050933546258460e-04
      -2.4020269604896861e-04 -1.6194185341920097e-03
      -4.9697048331933367e-04 1.6082954203635238e-03
      -3.1125049055219468e-04 -6.1329714756130623e-04
      -5.7555047389206435e-04 -1.4643065666750336e-03
      -1.9682026995222614e-03 7.2910314383659014e-04
      3.3774361486605032e-04 1.9385685856821251e-03
      -1.8862501216252016e-03 1.1431533361296123e-03
      7.7298123550537264e-04 -2.0874179136128692e-03
      5.8939352711657826e-04 -7.4074927015220081e-04
      -1.1270640777148349e-03 7.6523025049502933e-04
      -3.6887414493218495e-04 -1.8010382731660762e-04
      -2.1186630791958389e-03 1.8843830578081874e-03
      1.1526183064252519e-03 2.0143755608404562e-03
      1.5011738008524301e-03 2.1714965364205986e-04
      9.9355922195829027e-04 1.2278455093577584e-03
      -3.5439359258942197e-04 2.6881442380065140e-04
      1.2867073619899176e-03 1.3112304979860470e-03
      -1.7470652476291731e-03 6.1263447786608278e-04
      1.9982346612267910e-03 -1.6538350412026155e-03
      -9.7690107731839980e-04 -1.8170375652963547e-03
      8.6651351958741884e-04 -2.1119206358564506e-03
      6.7099426052637451e-04 1.0743818463486083e-03
      1.2129908860019814e-03 1.3510798461108108e-03
      -1.4026154301809255e-03 1.6888344981112554e-04
      5.4287031582513697e-04 1.3555684926158957e-03
      -1.9754012674549569e-03 6.3455388537964985e-04
      -9.7337427856105101e-04 1.7884133348913696e-03
      -2.1814997534320567e-03 -1.4082703826752828e-03
      1.8163939900804522e-03 1.5974496005643627e-03
      -5.8523572212676401e-04 -1.3178762549623457e-03
      -1.6259581209009785e-03 -2.1263870377140870e-03
      -7.9603303837248122e-04 1.1054798551665186e-04
      -2.0372331352333651e-03 3.2190870849128027e-04
      -1.5338484615007285e-03 1.1253902207678111e-03
      1.3757281427041433e-03 8.3891991106093420e-04
      5.0158604036187719e-04 -1.3281568275708873e-03
      -1.2180970134912960e-03 -8.8169077814727944e-04
      5.6301689098606450e-04 2.1934085209798906e-04
      3.1812847160273374e-04 8.5910292797762805e-04
      -2.2845250200227027e-04 -5.8028192726731890e-04
      -1.0471882937517461e-03 -2.0311823657316202e-03
      -7.4601268316267020e-04 -1.2494647605562693e-03
      -1.3221568640978630e-03 -1.0622578145512230e-03
      1.8933276562951324e-03 -2.0968551900729434e-03
      1.1130576346075507e-03 6.0461400773291615e-04
      -1.0352272984407295e-03 2.8347579270723665e-04
      6.8413396398841271e-04 -2.0130020140066525e-03
      2.0002886225568180e-03 9.6445085337539128e-06
      -7.9805315166156748e-04 -1.5829764567604557e-03
      1.9855302462402696e-03 1.2637254775017565e-03
      1.3341950601101027e-03 -1.3613683601907548e-03
      2.0738029611745389e-03 -3.3577815313983513e-04
      -8.1188101199474133e-04 2.1379714243176602e-03
      -7.6466093417694285e-05 -1.6255175074521764e-03
      9.0402422439949932e-04 -1.8892667678931704e-04
      -1.5721670025192539e-03 -1.1397211452534349e-03
      -1.1185385808953959e-03 -6.0781201789040498e-04
      4.4876759002468740e-04 9.6082190682350197e-04
      -3.6387868546304455e-04 -2.1586526641506694e-03
      2.2740319054665300e-03 9.5240451824103864e-04
      2.3629048722660206e-04 1.7076093996806611e-03
      -1.5548801495491875e-03 -1.9882457803635967e-03
      -1.1319461664090398e-03 -4.4927309043347438e-04
      -1.4745641943347270e-03 8.1757744383802644e-04
      -5.3348758305808133e-04 -2.0295179568627681e-03
      -7.8784172190963662e-04 -1.3027305840613446e-03
      -6.1671374508949039e-04 1.1851363152924282e-05
      3.8352034267889252e-04 -1.2777061978225741e-03
      1.6691566772996392e-04 -1.7622740690630201e-03
      -2.1538461848052671e-03 -3.6829703733754453e-04
      1.2640957805127082e-04 8.0697372096288314e-05
      -1.2056089192032161e-03 2.5199543701549408e-04
      3.5390502219233907e-04 -9.9229716392544185e-04
      9.5368064172700112e-04 -7.7868830989682276e-04
      -1.3512643717663176e-03 1.7771439325739199e-03
      -6.4292838850500689e-04 -2.4336889583399090e-05
      -2.4307417777756095e-04 1.4016997716385939e-03
      1.7879009171761738e-03 7.8989576688857129e-04
      8.4888138577434054e-04 -1.4755169890921589e-03
      1.4070161218568750e-04 1.7600136384006136e-03
      -5.4328296757011948e-04 -6.0399894167424543e-04
      1.7149786928626731e-03 -2.0689682317845915e-03
      -6.6678686169527378e-04 -5.3133067324200641e-04
      6.5826757453616813e-04 1.5925877361545274e-03
      2.3597019790447873e-04 1.9536864412665372e-03
      -1.1003780406675775e-03 -1.6393858887665872e-03
      -1.7962997878309399e-03 1.4492607104352268e-04
      -1.0451519928171907e-03 -3.4470686963317826e-04
      1.7519966202771806e-03 -9.1041342881910631e-04
      2.3016599236625078e-04 -1.0433470643532226e-03
      -1.1307479350041473e-03 2.9722111777264912e-05
      -7.7574874598707109e-04 -1.9239542004407708e-03
      -1.3704457239597488e-03 -3.9994966996666329e-04
      -1.0085710833169280e-03 -9.9748053403443042e-04
      5.9096589131263767e-04 -2.7823562411648679e-04
      1.5727448210062053e-03 1.5674905210408033e-03
      1.4235294797634987e-03 -7.9085321757594597e-04
      -3.7695158887390341e-04 -6.3399679421033720e-04
      -4.9485385443088484e-04 6.8477171840974950e-05
      9.9933738527578403e-04 1.6341620066348485e-03
      -2.1607074574191238e-03 -3.6858482045170341e-04
      -7.3932269928367550e-04 1.1038862799935382e-03
      -4.8804956029057137e-04 4.0701053741184505e-05
      4.7892034686698498e-04 -8.7789906364346508e-04
      -1.0443063112330047e-03 -5.7410765724756922e-04
      -5.7621214557278494e-04 2.3092409546501872e-03
      -6.3051722789346466e-04 -1.3638739648262413e-03
      1.1414741650795336e-03 -7.3431462585372563e-05
      8.1376532590317265e-04 -2.0368997928449394e-03
      2.6713115809841027e-04 -8.3865005748830245e-04
      -7.0158435264745930e-04 -3.7959398183406263e-04
      -9.2209142387318784e-04 -1.4399883285338437e-04
      1.1045509939582991e-03 -2.0021243824850147e-03
      3.3650617296441285e-04 -1.1326348886359918e-03
      -1.3765060921464537e-03 -1.9634683600804372e-03
      -1.3608294159468210e-04 1.8070748795707737e-03
      -1.4541932978908499e-03 1.9197295018618281e-03
      -6.1028092984170823e-04 -1.9794562279480789e-03
      -1.8676009476843527e-03 1.1843931597647513e-03
      1.5628494572108641e-03 1.3731231392902698e-03
      1.7458390888399451e-03 -9.8853861509741824e-05
      -1.1115644986543906e-03 1.6668139281796656e-03
      6.6094540454118909e-04 -9.1050756976060715e-04
      -2.1141495692843975e-03 1.8342235966896589e-03
      -1.6810119414337611e-03 6.8793889385008848e-04
      1.8742812319621567e-03 -6.6983183379722470e-04
      -3.0441369373912367e-04 4.3399583821824710e-04
      6.3273879537746635e-04 -2.1086521490567456e-03
      1.1213881868152409e-03 5.2585076211619406e-04
      -1.6052614375507009e-03 1.5476274789860396e-03
      6.5413970860638275e-04 -4.2062534564123270e-04
      2.0858598133882515e-03 1.6627153994016913e-03
      -9.6432050493510237e-04 1.4806001516086108e-04
      -5.2904278046332794e-04 -4.6255542903033797e-04
      -1.6107725286183636e-03 1.0116143771977139e-03
      -1.4594218116187647e-04 2.2063371221733036e-03
      1.7002394470292640e-03 -2.1866870258254014e-03
      -1.9309468415321847e-03 2.0728330079244519e-03
      -2.1292861619467865e-03 8.2296864206797321e-04
      -8.0349186525199487e-04 -3.4277463192822601e-04
      9.2734997690129602e-04 -1.5117397453207010e-03
      -1.7768170533969943e-03 1.7802448651487843e-03
      3.7286096237680165e-04 -2.0944248906190365e-03
      -2.2941921966712652e-04 2.0857521867367812e-03
      -1.8391674942068660e-03 1.1472636269997186e-03
      -2.9010857768831046e-04 1.5076647265543908e-03
      1.1136377839411941e-03 -1.7593312980760014e-03
      -4.5689622901989326e-04 2.2619391130631857e-03
      1.6212528273607529e-03 -1.4879314126160540e-03
      -7.5332986648414069e-04 1.1107422101755086e-03
      -1.6165019114824036e-04 1.8011614217736382e-05
      -9.4127342143801639e-04 6.8879651508844822e-04
      8.7955030656377604e-05 -1.5707389864595583e-03
      -3.0979351748544793e-04 1.7817296970677255e-03
      -1.7943452757275236e-03 1.3104114436943083e-03
      -1.2506614546771689e-03 6.9075028795268726e-04
      -1.7976383232184336e-04 6.7318627629464308e-04
      1.8578717636170588e-03 1.7343681170986526e-03
      -3.4262204053816625e-04 -4.2888327165589382e-04
      -8.4890655593719848e-04 -1.3962927598644432e-03
      -1.9821387931935547e-03 -1.8546435463528206e-03
      2.1448305565336563e-03 9.4485688281199700e-04
      5.1202389482209556e-04 6.4845107187025457e-05
      -1.8592017575363661e-03 6.6039178375937692e-04
      5.0303628628747268e-04 -1.5886559601042197e-03
      9.5162225347887066e-04 8.7219156027277720e-04
      -3.6240417819664443e-04 1.8007110477088544e-03
      -2.1970420707047014e-03 1.4328821970830458e-03
      -2.2604922161667969e-03 -1.5760201846813547e-03
      -1.6158416191750875e-03 -5.2208094530145155e-04
      1.4942222712133850e-03 -2.0278997574134376e-03
      2.1080748213320546e-03 -1.9759977334816623e-03
      1.9403881054565009e-03 -7.3720267316690271e-04
      -3.4462438629100756e-04 -1.0922627656490824e-03
      1.9038808594753741e-03 -1.8660893187624813e-03
      1.7819412523578304e-03 -4.3836991988683237e-04
      1.0644164029267227e-03 -6.2111189880631457e-04
      -8.6640955075384396e-04 1.7725678905049999e-03
      -2.2025674078989657e-04 2.1798187698084939e-03
      -1.6064692886074276e-03 -6.7009663764742056e-04
      -2.1462303067043800e-03 -7.0452166704996219e-04
      -1.7162605217909718e-03 1.4877501808979805e-03
      1.4606980746492536e-05 2.1109578128563357e-03
      -5.1178367800329752e-04 4.7307993238468427e-04
      -1.0898234762127866e-03 1.2625620550086136e-03
      -2.1387663030588747e-03 8.2298588369096571e-04
      -2.5002229026456621e-04 1.4019563319811453e-03
      -1.6675789451492103e-03 2.0305435285175835e-03
      5.7843191403173454e-04 1.9592977633294119e-03
      -1.0835752965888025e-04 1.2744836785365742e-03
      -1.4009040090595874e-03 -2.1388634214269064e-03
      -8.0380849932146282e-05 1.9845711422435959e-03
      2.1137342337464830e-03 -1.5631178013390484e-03
      -1.3989217953380294e-03 9.2257656833858554e-04
      -8.7367365332181282e-04 -2.1195080354755387e-03
      3.4785196145997087e-04 -9.1173648329299450e-04
      1.8839853458718259e-03 -1.8083878094489925e-03
      -9.5615724470331264e-04 1.5518847861908020e-03
      -1.4119919409814772e-03 -1.7897714428638356e-03
      -3.2500327495003293e-04 2.2180678865619287e-03
      -7.4549960746281014e-04 -1.5577224756349048e-03
      -6.4326655204916905e-04 -1.2105564863069901e-03
      -5.2746778098741525e-04 -1.0308781253633131e-03
      -5.1999514454610456e-04 -1.1273250756098571e-03
      1.7638890370401695e-04 -6.0341035646643457e-04
      1.1730861721177674e-03 -1.0620211130292427e-03
      -1.8500053063507853e-03 -4.0645089917408283e-04
      -3.8797807947882709e-04 6.8497623388308023e-04
      5.6101080911260539e-04 -1.1350957557196382e-03
      1.0293809838102417e-03 -2.2138851065478873e-03
      -8.4793846689229741e-04 1.4807305528913475e-03
      -2.5792907942415259e-04 1.1833177050646737e-03
      1.4945423826538083e-03 -1.3238108300917910e-03
      7.4641912702382029e-04 1.9858274042082102e-03
      9.7065215700611527e-04 4.7057556974310690e-04
      1.2582331044867663e-03 -1.1943068563527771e-03
      1.3439677788684467e-03 -2.0775542585033053e-03
      -5.0692498675006172e-04 -1.8310364341125540e-05
      -9.7748013900605360e-04 -1.9624500940708255e-03
      -1.8899746541251447e-03 3.3606847917321502e-04
      -1.3629298279977556e-03 -1.9639755476422698e-03
      7.3910318894362492e-04 -1.3200414033580372e-03
      7.6170606520904478e-04 -1.5669458462476903e-03
      -1.3474909507687178e-04 -4.5055097858665802e-04
      -1.7003240039737057e-03 8.6888608704361464e-05
      -2.1461054583656468e-03 3.7944587136906041e-04
      1.1624632832903183e-04 3.7445225160134593e-04
      -1.5968557878680697e-03 1.2678196358608463e-03
      4.2127063145834553e-04 -2.7658647505786061e-04
      1.2837230334310523e-03 -1.1709491949233922e-03
      -4.9481036860931900e-04 1.4944241535573902e-03
      9.3247699952956388e-06 -4.1169362739688095e-04
      2.5735042754464909e-04 -1.1707390128648943e-03
      9.2814848536630450e-04 5.3822728218543188e-04
      1.3084442133450356e-03 3.9380706115363769e-04
      -8.4019904957871385e-05 -6.0138949143356639e-04
      -4.8041337966394775e-04 -2.3850985182437585e-04
      -3.4961594253979942e-04 1.9832693992422323e-03
      1.3591600276140355e-04 -2.0924078987697022e-04
      -2.0915154671605199e-03 1.0709039287239946e-03
      -2.0995604542752093e-03 9.7214005324390486e-04
      5.7868927463312144e-04 1.4951139087809005e-03
      1.3310232909895633e-04 -2.1692245510586522e-03
      3.6050333711178204e-04 -4.3592900017552268e-04
      -7.4934364698341668e-04 -2.0641394195345512e-03
      -1.5825688536304137e-03 -6.2767296024533942e-04
      -1.2168489306410017e-03 1.7652486048462372e-03
      -2.0546388346804286e-03 -1.5059927315872266e-03
      -5.8639638296573463e-04 1.0836701515306999e-04
      -1.9240713929969896e-03 5.1237063373701290e-04
      1.6975613048995607e-03 1.0509066790950177e-03
      -1.3962758787135221e-03 1.1809403715736860e-03
      9.8121491694222289e-04 -1.9996159644862115e-03
      -2.1733050219721655e-04 -4.1451785180647891e-04
      1.9635206812400211e-04 5.9121241545444475e-04
      4.1087383770502814e-04 -1.0535935677778998e-03
      -2.8640301262520401e-04 3.5925263289707146e-04
      7.6112479377167779e-04 -1.9727486522447355e-03
      -1.9256038706681878e-03 1.5032362567316650e-03
      1.1006573022272375e-03 9.8338430720787797e-04
      -1.7957396005688010e-03 1.0143248505914593e-03
      1.9065683366710320e-03 -9.1381045150375445e-04
      1.4538465094223172e-03 -8.4921151756788988e-05
      -1.3715662980843027e-03 -1.1616447984293312e-03
      -1.5307602492330215e-04 5.8821548580919377e-04
      -1.5002096366557990e-03 -6.7056946834838024e-04
      -1.4554419040832176e-03 -4.3999144579229678e-04
      -8.3926425363521401e-04 -1.5922517574886740e-03
      -1.2733450679741660e-03 -8.0876555679292614e-04
      -1.2268049537562747e-03 2.0308573710987547e-03
      4.2489190037498703e-06 -1.4061803991834276e-03
      -8.8063240783208322e-04 1.8169068365975203e-03
      1.3688906875973176e-03 1.5437513919876415e-03
      -1.5128529658010995e-03 -1.3654902551637168e-03
      1.7625106357774159e-04 -1.0194579460253836e-03
      -2.0342979070564950e-03 -1.8043263245068307e-03
      -8.5389755004862422e-04 -7.5600191471040590e-04
      -5.1061215306969984e-05 1.4471101746129297e-03
      -8.2084182945297874e-04 1.5805697281882235e-03
      -1.1082814554174662e-05 1.0885939450160287e-03
      -1.5095314287793611e-03 1.0100468262850115e-03
      4.5985657636208396e-05 1.8964271319559481e-03
      1.0873106156014567e-03 -6.2470321378751807e-04
      -1.8580753423426654e-04 1.8392864178460872e-03
      -4.9634641630353618e-04 2.4592025867367016e-04
      -1.0979890903037106e-03 -5.9522254473447819e-04
      -5.4820443127211367e-04 -1.7998588603219494e-03
      -1.8436147426450922e-04 7.9519684527388091e-04
      9.5999697923099226e-04 -6.6004979813039924e-04
      -2.4900989038519771e-04 2.8499652470834170e-04
      8.9130100577613038e-04 1.7123365025570249e-03
      -1.1979403392426771e-03 1.8074753762099794e-03
      -7.5829261576007014e-04 -3.6108217886419075e-04
      1.7958031446656244e-03 -1.3640815291336562e-03
      -1.5571472691187509e-04 1.8564628665121584e-03
      -1.4162605581113125e-03 2.2434617561188159e-04
      1.7789109105953989e-03 9.1833443541245179e-04
      -2.0976097682030908e-03 3.1642323123610478e-04
      -1.4382546502055881e-03 -9.7952022576756138e-05
      1.9410007707188147e-03 3.8269854030518612e-04
      -8.6329724449746151e-04 1.4825456624908522e-03
      -2.0206001045411318e-03 -2.0260181527975846e-03
      -2.0252728649084221e-03 -1.7007690343789467e-03
      -1.2602390207272216e-03 -2.0850653769276524e-03
      4.4736585301609425e-04 -2.1137912547672289e-03
      8.9121147926624674e-04 1.5891161640373332e-03
      -8.8075624489831258e-04 -9.0755600595566490e-04
      2.1318572844763305e-03 -1.5085236007525195e-03
      1.1924360815270254e-03 -1.7755230182591954e-03
      1.2903594482975922e-03 -1.5695163838385306e-03
      4.4812062330024785e-05 -1.8219448118986653e-03
      9.2994909613369151e-04 -2.3754339652186924e-04
      3.2319533876503341e-04 -1.6790056627531704e-03
      -1.4275632086373647e-03 -4.5214180490616259e-04
      -1.6501676263561084e-04 7.9955054273862401e-04
      -4.0389832605729903e-04 -6.5153498809803129e-04
      -2.0982663772425251e-03 -7.7086065074077849e-04
      1.5252147003972185e-03 -7.5082976508652934e-04
      6.6015630980497612e-04 1.7678120741423488e-03
      -1.6553533401870971e-03 -4.0723895543290844e-04
      -9.7464325926291265e-04 -4.6340140457582597e-04
      2.1718813275177718e-04 -1.1675273694992903e-03
      -2.1079796096425350e-05 -1.4951977071113519e-03
      1.4662182277648361e-03 -1.0911164136383537e-03
      1.4569220218624049e-04 2.0786546229905182e-03
      3.4267377760081462e-04 -5.4806137654854492e-04
      1.3052616903956790e-03 -1.4023123200663805e-03
      -1.3930362142637505e-03 -2.2167693840625647e-03
      -1.9525409416072295e-03 -1.4718315560975218e-03
      -1.8995702850456674e-03 -1.9927417948800810e-04
      2.1312912827898753e-03 -7.2678291583423552e-04
      -6.8248541006848311e-04 8.1480657965377578e-04
      -9.2263439570402063e-04 4.3193963382404312e-05
      1.2799648872963447e-03 2.0466584416539444e-05
      6.4662104275783872e-04 -1.1474997884278449e-03
      -1.5172802107986821e-03 9.7442120409934935e-04
      1.1574031459968296e-03 4.2971358803243722e-04
      -1.2004388367401555e-03 5.7094956838094535e-04
      -1.3697553635124544e-03 -1.2267145616401936e-03
      -1.3118909474888784e-03 -5.1064453472437067e-04
      -1.8425661031434464e-03 2.0206425651965575e-03
      7.7090896954122741e-04 -1.7386580337334591e-03
      -2.0732517069905125e-03 1.6639583428092483e-03
      4.9119768262907942e-04 -9.6958771442503470e-04
      1.0878705434263357e-03 1.5615774906279055e-03
      -1.3213085755582109e-03 -1.2317955562935012e-03
      1.3070232290280732e-03 -1.3966774240328538e-03
      -1.0894844009232687e-03 -6.1613451128412025e-04
      5.2236218204461686e-04 6.8491966481676461e-05
      1.0885915794362016e-04 2.6432702092030956e-04
      7.5522542712237913e-04 8.4288719439996602e-04
      -1.7393095413193065e-03 -1.0395472161723645e-04
      1.8746983989113303e-03 -1.9066444091935030e-03
      2.9489640706876910e-04 -2.1424647808524926e-03
      -1.3131438477440195e-04 1.7235185321088351e-03
      -1.3071126079110137e-03 1.5196462603273087e-03
      7.9759630749168383e-04 -3.8198808737186440e-04
      7.7976233116416026e-04 1.1198290527554122e-04
      1.0451509588362100e-03 -9.2892597703506205e-04
      -1.3631044010367463e-03 -1.0680861655204463e-03
      -1.5816265005450354e-03 1.0050200689203171e-03
      1.3918330459475330e-03 1.5709374086228698e-03
      -1.9631343704172690e-03 -1.5082004244895990e-04
      1.9652677305952836e-03 1.2660025505306684e-03
      -5.5287195566703945e-04 -7.1308694801757247e-04
      -7.0623236599518923e-04 -1.4870963790229758e-03
      -1.2498556648100759e-03 1.4428119360536823e-05
      1.3456469855782902e-03 -1.0200356318575451e-03
      1.9729261951591209e-03 1.3450955240002220e-03
      -1.0089624231580724e-03 -1.6190798466218135e-03
      -6.9062343175832768e-04 8.1671480062286170e-04
      1.8667269406683854e-03 -1.0621045336993542e-03
      -5.8982489803479916e-04 1.1419145552493261e-03
      9.7238503278815076e-04 2.0301462441055132e-03
      1.5978156085983217e-03 2.0742956330906722e-03
      -7.6882575241481144e-04 1.3600063439891442e-03
      1.7009925374987535e-03 -2.0780502875538944e-03
      1.6911015515291468e-03 2.1503217778658776e-04
      2.1064394351534461e-03 -1.7668435839273994e-05
      1.5388541320978104e-03 -1.7761204977539190e-03
      2.0729407414135613e-03 1.9424291054322496e-03
      -1.3673957022131151e-03 -1.5694872644006412e-03
      -4.0008020269435959e-04 1.7833967464127019e-03
      -1.9079021895971563e-03 8.4703227578137707e-04
      1.7549289980722007e-04 -2.2287694710247945e-03
      1.0511306223304872e-03 1.7092194784163065e-03
      7.3445835367806530e-05 3.6818280107906588e-05
      7.0156978111043434e-04 -1.6946760056410024e-04
      -1.5378241826526000e-03 -1.9312005450187969e-03
      -6.8268355352781918e-04 1.3224310501026044e-03
      -3.9918832909380784e-04 -1.0989929158718513e-03
      -1.1131711864507230e-03 -5.0015287606610065e-05
      1.7647486070212846e-03 -1.6183900671573174e-03
      -1.6098746001881362e-03 -1.0864164749253170e-04
      7.8294917594654077e-04 1.0189284527934352e-03
      1.0742014819903258e-03 1.8985684317511604e-03
      -1.6136840214144015e-03 2.1608886774578933e-03
      -1.4958931433799827e-03 -1.4936667977952108e-03
      -1.2010746201022639e-03 1.0836716517100755e-03
      -7.4466257456913738e-04 7.5860722207396014e-04
      1.8329152854832296e-03 3.0981176537530687e-04
      1.8161053444138860e-03 1.9839723174732769e-03
      1.7867730696694121e-03 2.1848124136261394e-03
      1.7824909915244050e-03 -1.3512276633996111e-03
      -3.0924058955603400e-04 1.5038560553202990e-04
      4.4954654503210934e-04 -1.9228954213375499e-03
      -1.0075386392740184e-03 -1.7677321670930002e-03
      -1.8808846037911924e-03 -2.8278670444266727e-04
      -7.0575526666083552e-04 -1.8948346056351646e-03
      -4.0731445757566013e-04 9.7512254425229854e-04
      -1.3437037063001721e-03 -2.2647669263245063e-03
      -1.2558629323286585e-03 2.6563678399767096e-04
      1.3503911416553871e-03 -1.9262345558715209e-03
      -1.8878872724469333e-03 8.5136658715147522e-04
      6.3476529373252845e-04 -1.9955715692957219e-03
      -9.9294767112764748e-04 2.0031899059754028e-05
      -7.9039920744001699e-04 -1.6086345784378821e-03
      -5.6110955143738822e-04 6.0650459901220649e-04
      -2.1699640806161604e-03 -1.5811751763397921e-04
      -1.3233202177021731e-03 7.3046600366435109e-04
      -2.4575515229435866e-04 -1.6978264058309126e-03
      -4.2309305674951495e-04 1.0514845561297963e-04
      1.7982690336350812e-03 -2.5713247070380387e-04
      1.4643752828683552e-03 -1.0130493977814617e-03
      -6.1765750237896793e-04 1.0729340626076658e-03
      -9.0530846412070060e-04 1.4079334441788483e-03
      1.2533679974044583e-03 3.3957582500763670e-04
      -1.0106998306009612e-03 -1.7441574474734919e-03
      2.8942567850093821e-04 2.1956144845343656e-04
      1.5641030024050726e-04 1.1684870063574933e-03
      2.0486829431577269e-03 7.0019678693012744e-04
      -8.5095856611358588e-04 -1.5128825572990980e-03
      2.2177175881028183e-03 -2.1788851400718363e-03
      -8.3085750210311717e-04 -1.6563607337955814e-04
      2.1848232104402180e-03 -3.9082905529434715e-04
      -5.6644911280568017e-04 -1.3765868270322495e-03
      -1.2417516412881623e-03 1.9040237162156288e-03
      -2.8858239987697123e-04 -8.8252048933056156e-04
      2.1869147863321698e-03 8.5985110160211032e-04
      -5.6879531815017513e-04 -8.2715749433096185e-05
      1.0101395884884944e-03 -1.1540136973529022e-03
      -1.1698729609966394e-03 1.7468774750914351e-03
      2.0188919083260048e-03 7.0067318224194912e-05
      -1.1601799153951398e-03 -2.0634544389449617e-03
      -6.5079813069007450e-04 1.4043909165128193e-03
      5.9081347656153214e-04 1.0491811839531634e-03
      3.1709538680379570e-05 1.6772720682951996e-03
      2.1733919878546406e-06 5.0570381121840292e-04
      -7.7489956893481637e-04 -1.1536304635282521e-03
      -6.3250918624214373e-04 -6.6885191961303669e-04
      -1.6682649956765831e-03 -5.4324722875564340e-04
      4.8226572917911970e-04 -1.7785123803258738e-03
      -2.1437201760679380e-03 -1.1866568127914970e-03
      3.4998481203873949e-04 -1.3271453518813210e-03
      -1.9598074469872567e-03 1.9882613080383182e-03
      1.0109031079803515e-03 -1.5371079166637005e-03
      -2.0945676560667347e-03 1.4747665033497653e-03
      3.9512118518842646e-04 5.5955156895917831e-04
      -3.1307149786434469e-04 1.6968943920320125e-03
      -8.4605187980289342e-04 -1.1940437809207945e-03
      -6.4109370558494011e-04 1.6720975600306091e-03
      1.7731371205765979e-03 1.6264305745382413e-03
      -2.1021655983444417e-03 -2.1001229423054046e-03
      1.7294714561258079e-03 2.1803044647147173e-03
      -1.6987712678336721e-03 -1.1599177031454127e-03
      5.8625856070634039e-04 6.3939947689519426e-04
      -3.8624683857205736e-04 -1.3329050751517647e-03
      -2.1262567932115459e-03 1.8009122153181520e-03
      1.9579364214805158e-03 -7.8665295092425206e-05
      -2.0858288681745649e-03 1.3773003295242158e-03
      -2.0011484178270671e-03 -7.7801180472418258e-04
      1.8125338163582779e-03 -1.5899189347834900e-03
      1.9919836603062130e-03 -1.3194128278754380e-03
      -1.3333335532281878e-03 2.1757141543513971e-03
      1.3589766161776575e-03 1.8900496791441636e-03
      6.1286184665162655e-04 8.5126836999031461e-04
      -1.0800960964303886e-03 2.0761418279879049e-04
      -7.6530174074199229e-04 9.7000274760794222e-04
      -4.9366039418870906e-04 -1.6168571221045244e-03
      -3.2636485099061749e-04 9.1925120819139462e-04
      -1.5807182852757738e-03 -1.5972577528999006e-03
      1.8639679656995696e-04 -1.8256456599157543e-03
      1.4190587498809435e-03 1.8073522842623768e-03
      1.6883531695310353e-03 6.6472272148807585e-04
      9.5425050430533568e-04 1.1200456744170710e-04
      4.7292031474477461e-04 -3.1139430735706823e-04
      -2.0387223459079127e-03 -1.1370985558425495e-03
      -1.0336212552383313e-03 -9.4675289691249981e-04
      5.5273273102505311e-04 -1.3120782516786690e-03
      -9.8567469709298595e-04 -1.6585845008944562e-03
      2.4423377526902482e-04 2.0502043276395630e-03
      -1.7924772525532173e-03 -1.0491026773875362e-04
      -1.5268081063933899e-03 -7.2283446402704031e-04
      2.6213963089626507e-04 1.7577339658046288e-03
      9.0762196127082873e-04 -2.0648855938815748e-03
      -1.9369051593294819e-03 -1.3370415157546564e-03
      -1.0355506203349662e-03 -2.1026481672448880e-03
      2.3390101021086051e-04 -2.0159477061957691e-03
      -1.4953229430098300e-03 1.4193881125624641e-04
      -1.6273279864321699e-03 6.2523592237690069e-04
      2.1937981516392800e-03 -2.0697248765192610e-03
      2.1252278529043569e-03 -1.0291453400460051e-04
      -2.8760455690282513e-04 -7.3016510373218087e-05
      4.2300320845074254e-04 1.0916324775374286e-03
      1.8687766200099537e-03 2.1530648901898460e-03
      -1.3177217363221218e-03 -3.6220655585768731e-04
      -3.6315927500126736e-04 -1.8376840461269317e-03
      5.9051722892712892e-04 1.9089083363215090e-03
      6.2699361873606201e-04 1.2025917316682549e-03
      6.7761063884895815e-04 1.4357089586187241e-03
      -1.5587372977248978e-03 1.9893289104984738e-03
      -1.1872842024707366e-03 6.7650046695600893e-04
      -2.3493394953102534e-04 8.1786777804719547e-04
      -2.0097714859236772e-03 2.6054096164746183e-04
      2.1567615385495315e-04 1.2564843832488198e-03
      2.0010175086294852e-03 1.4838189566302516e-03
      6.4267551774947184e-05 5.3294820370010149e-04
      -2.1759126701567065e-03 -1.9830981132172893e-03
      -2.1011547237899484e-04 -1.3030456375371629e-03
      -4.8800997222492722e-04 1.7835177986234160e-03
      -4.9404995718685765e-04 -2.1513865644247855e-03
      -2.2404113717562329e-03 -1.7462211058974436e-03
      1.6942487893163590e-03 2.6700675946242543e-04
      -1.0327003739764287e-03 -1.3788125292458903e-03
      -2.9128006947968827e-04 -4.1527823483544129e-04
      -1.1288872052694226e-03 -2.0945777471535866e-03
      6.3856436131711977e-04 -2.0278563432692001e-03
      1.8776525288990743e-03 -6.0847544172565034e-04
      -1.8764429462407280e-03 -1.2642692081311754e-03
      -1.4671846522874253e-03 -1.4314439122970557e-03
      1.9749865129549161e-03 1.8565199662350816e-03
      -1.5238220313718719e-03 8.2160553550768712e-04
      -1.5218303225792635e-04 1.4235775603035758e-03
      -9.0548394178688936e-04 -7.9871053005313593e-04
      2.0708064450719000e-03 -1.5418382065045305e-03
      1.1157028764694371e-03 -1.5230524466264439e-03
      -1.9947753740256267e-03 6.8160368431168720e-04
      1.0448526407839142e-04 8.0618678309669239e-04
      1.3721063210955398e-03 -1.5987055169264428e-03
      -1.7131039835610806e-03 -1.4984742623653843e-03
      1.6958291672785669e-03 2.3255568351367912e-05
      1.2521045715044936e-04 -1.6466517777694581e-03
      -1.9161159227002917e-03 9.5125930862567003e-04
      -1.2621448659222076e-03 1.0410344162465931e-03
      2.0130709977576634e-03 5.5287965372143694e-04
      -2.1215600544654649e-03 7.8001741717420754e-04
      -1.5307661982650023e-03 1.4632784893122365e-04
      1.5853856296279660e-03 -2.5558651900643606e-04
      -2.2150978776953938e-04 -1.2462775232640079e-03
      5.1825031606627162e-04 1.1291385498000493e-03
      1.7173739689285141e-03 1.1683726540243715e-03
      5.4191708214390989e-04 8.9060924678446211e-04
      -2.1965711305482185e-03 -1.8566697043087340e-03
      8.5470045891711363e-04 1.8881255853954305e-03
      1.9145215083552116e-03 2.7713816141969349e-04
      -7.2561229832199324e-04 -2.0788000912759603e-03
      2.9746592612705713e-05 1.4594417658058043e-03
      1.9133956886483781e-03 9.3986496271249804e-04
      1.4585079191984714e-03 -1.8222263692057768e-03
      -1.3743467380217546e-03 2.1718575399246472e-03
      -1.5789675158947556e-03 3.0647197137888721e-04
      -1.7329286117982220e-03 5.1363787603261033e-04
      2.2178127985839741e-04 -1.4846984030319505e-03
      -1.3808302773552538e-03 -1.6883032755663173e-03
      8.9326284613650388e-04 -1.2952294936322798e-03
      -4.1066048521658873e-04 -4.7478133615824465e-04
      -1.9624073156044195e-03 8.2932505839319201e-05
      -1.5095598289543749e-03 -7.2132830874716025e-04
      -6.7106148343109445e-04 -1.0784700651952500e-03
      1.6077402644688093e-03 -5.0908395789499771e-04
      -2.0000373304368342e-03 1.2582706720031709e-03
      6.1436270443582849e-04 2.0809215447603318e-03
      2.0403597445539652e-03 1.4666339314161419e-03
      -1.1056107685065888e-04 -6.0075774994766912e-04
      -1.4118457572950679e-03 1.7453695497957572e-03
      1.2383470910923185e-03 -5.2345359529785171e-04
      1.5506004460681927e-03 1.0962039874446135e-03
      -1.2112488433627163e-03 1.1344126739119013e-03
      2.1989468461637938e-03 7.9542501366493745e-04
      -1.1907070107383380e-03 -2.4258958174838604e-04
      3.4544668526176510e-04 -2.0447979665831582e-03
      1.6276842364040748e-03 1.4109507721958739e-03
      1.5509399587987115e-03 -1.1879247964368138e-03
      2.1332713224194886e-03 6.4683433040324762e-04
      3.5365312793747918e-05 -1.3718712566272565e-03
      -6.5374380790572445e-04 2.2069246936751051e-03
      1.0499663659449977e-03 -2.1415366668631043e-04
      1.4006613358467630e-03 -1.2439701492824296e-03
      -6.0526947388125994e-04 -3.4866208092393733e-04
      -9.0945223300055293e-04 1.2426111630614285e-03
      2.0088548108834902e-03 1.5726916417061439e-03
      -1.3630332913591406e-03 -1.1734952520598104e-03
      -2.1431671646993428e-03 1.2468514732116018e-04
      -1.6082105077367537e-04 -8.2013703906454411e-04
      -4.1949394770089113e-04 1.7771540560813604e-03
      4.6006087294948194e-04 1.8918096885621077e-03
      1.9985432043422712e-03 -1.8249746227799112e-03
      8.8101180687786607e-04 1.2769079693079187e-03
      1.2818084258748700e-03 -1.4414070411271156e-03
      1.6806999128336818e-04 -9.5398533005991649e-05
      -1.3696467734133065e-03 -5.8617068556632550e-04
      -1.2034458897825190e-03 2.2312323953320484e-03
      -4.4823822530756015e-04 -1.4585398773995280e-03
      8.0418482553963665e-04 -1.5658260455297169e-03
      4.7568632485138322e-04 4.9209222672451619e-04
      2.2892450691644814e-04 7.1237659335598189e-04
      -1.5005416933972040e-03 -5.8807796105482394e-04
      -9.6580074993539975e-04 -1.0355242082386363e-03
      -1.2737503419688017e-03 3.4557970954016912e-04
      -1.1830995173808532e-03 -4.0373817390321534e-04
      -1.8708393478310448e-03 1.6001327908513191e-03
      8.5989485190651022e-04 1.5865102257789940e-04
      -1.7979093788144174e-03 1.0904807314125573e-03
      -1.0382431146685215e-03 3.9888062428146995e-04
      -2.6362917439277846e-04 1.2880885572785303e-03
      1.4404602014901531e-03 8.9300093613842570e-04
      -1.8777947604114407e-03 1.0166487056353589e-03
      7.6701346221389540e-04 2.2674627447848237e-03
      7.6269105158447911e-04 8.0710291800256673e-04
      -6.4787128126086676e-04 1.9679123141975990e-03
      -3.7124661883451742e-04 8.1104119111965393e-04
      -9.7085821482291489e-04 3.9047991965757584e-04
      -1.0226997549595432e-03 2.0397393943212090e-03
      1.1370861259272176e-04 1.5275759791344265e-03
      -2.0641511271872301e-03 -4.0264635919801708e-04
      -8.5597245547730375e-04 7.8277027962584875e-04
      -1.0285183023838018e-03 -8.9365424023900427e-04
      -2.1403065213834358e-03 1.2469276421063667e-03
      7.5527709213625853e-04 1.3984859985604571e-03
      1.5535999671093240e-03 8.2838493868901556e-04
      -7.6873371287895017e-04 -2.2054705385347105e-03
      1.7945349877148851e-04 -7.4081536763515794e-05
      -1.3140018407192023e-03 8.7780471190068764e-04
      1.7433878746166045e-03 -2.4061751109917006e-04
      7.5467409369319111e-04 1.8597316055671165e-03
      9.3880123753875176e-04 -1.8374792600303765e-03
      -1.4340662893878432e-03 5.3143018553794639e-04
      -1.6800337979709804e-03 -1.1279017077622689e-03
      1.0943128846671079e-03 1.1799460025945616e-03
      1.2006015916783529e-03 3.2309798568739135e-04
      -1.5904245129204277e-03 -1.2582240530730753e-03
      7.6095851311370425e-04 7.2115118577267010e-04
      1.5055470192494836e-03 -2.1866142250479988e-03
      -7.4918513502680731e-04 -1.7484481851896686e-03
      8.7589461598924540e-04 9.3799634347302126e-04
      -9.1754749248017936e-04 -1.1999359926982340e-03
      -1.5432925082254152e-03 -1.1267784809847996e-04
      2.0287421344886950e-03 7.4011502934405319e-04
      -1.9468662045637945e-03 -2.0671137339851823e-03
      1.1618984205207111e-03 -3.7678984666001395e-04
      1.1896067569070700e-04 9.1444392387753006e-04
      1.5741456086983039e-03 9.4748849844977854e-04
      1.7804425317712529e-04 -9.3783806684535217e-05
      -1.8854914500869278e-03 1.7244482410969421e-03
      9.8233374997252825e-04 6.8029195090448294e-04
      1.4421993129937788e-03 8.6042983566508272e-04
      -2.9108224800923578e-04 2.3012043210685962e-04
      1.4272489862913087e-03 -1.0832197627474807e-03
      -4.7788859858621466e-04 -1.6665116287453664e-04
      1.5242817948429791e-03 2.0307378023073207e-03
      -1.4197121409793950e-04 8.1693562073512440e-04
      -2.9242545827075199e-04 -1.9277371410747577e-03
      1.2893840581453141e-03 2.1612355746543160e-03
      1.4292974894955209e-03 2.0296015621122498e-03
      6.2459283480642916e-04 -1.6689571341816056e-04
      -1.9858407108995280e-03 -1.1311064128046847e-03
      -5.3902577759263812e-04 1.1618420150671257e-03
      -4.6833764831825643e-04 1.8756915761039973e-03
      -2.4476589494363323e-04 -3.6442272427237828e-04
      -3.3495340195094131e-04 8.6303100909204883e-04
      2.0311016707719938e-04 -9.0422462890447182e-04
      3.6551159876622080e-04 -7.8475709259936217e-04
      5.0526663029840828e-04 1.8805842876333579e-03
      -1.1916830480620619e-03 -2.7186325066431961e-04
      -1.0840033386324416e-03 5.3974269458230883e-04
      -1.5724590138024752e-03 2.7661286008294879e-04
      -2.0467746017621136e-03 -6.2494577055632059e-04
      -7.9761466460087367e-04 -2.0636179028585486e-03
      2.1308084279657710e-03 -1.3717676526689277e-04
      -9.9608615754122917e-04 -1.3633686623852697e-03
      1.4566975410705090e-03 -1.0748976975512902e-03
      2.2582156842665753e-03 -5.4214584293948076e-04
      -1.9963806999719548e-03 -2.0598295487705481e-03
      4.7152357103024827e-04 -1.7672940979942457e-04
      1.9920125424287422e-03 2.2874577710159277e-04
      1.2014995689793486e-03 2.1532760278288263e-04
      1.3790397185031249e-03 -1.5241801077348891e-03
      6.7704648968661683e-04 -9.0487212081540394e-04
      9.6790270417536936e-04 -1.8297907490304134e-03
      2.1250518152259631e-04 -1.1276689507257861e-03
      1.7849083597751029e-03 1.2514521209228914e-03
      1.5719502831381215e-04 9.9409738552862443e-04
      8.0845056282183726e-04 6.6384590411003178e-04
      -2.0936590985124559e-03 -3.0140308694614402e-04
      -1.4980580858120342e-03 -1.0458854466857063e-03
      6.9059238769632032e-04 9.0779783548451025e-04
      -1.6461555197246000e-03 1.4228346505496046e-03
      2.4712157923886742e-04 -1.7803540192403821e-03
      -6.5568265042202710e-04 1.2672061274956194e-03
      -3.9928572601382665e-05 -1.3607743260453647e-03
      -1.6963704359825801e-03 -1.1722381952313351e-03
      -1.7645751096466717e-03 1.3499740704069824e-03
      -1.5718509792606017e-03 -1.6843665730457437e-03
      -9.3857426178111086e-04 -1.9659854064834671e-03
      -5.3786130417798840e-04 7.7948249218928105e-04
      -7.0967808968862365e-04 -3.5888815751937073e-04
      -1.7919331242323201e-03 2.0475015748914727e-03
      2.4500475919770806e-04 -1.7033693082011184e-03
      -1.3771824232171996e-03 -1.1384696002642851e-03
      -1.4305703758086658e-03 1.2818368733542168e-03
      -1.0186183900489267e-03 -1.7685339945246546e-03
      4.7599019730326973e-04 -1.9768898708889707e-03
      1.9949373048300093e-03 3.7925776335841210e-04
      -2.8012937383429723e-04 1.8930918611796128e-03
      1.8627697097753200e-04 1.2878978602113241e-03
      4.1338971600014530e-04 9.5894243321931042e-04
      6.4366808218360369e-04 -7.7383213146140840e-04
      -3.6320760391193629e-04 -1.7975263125025870e-03
      -1.8762719682265780e-03 -1.5795963446156068e-03
      -7.9831253393881387e-04 -2.1262833267735224e-03
      -1.0706971781722508e-03 -1.0699969055893747e-03
      -1.1548790280743450e-04 -2.9836530428558906e-04
      7.0370625948944004e-04 -9.9527290679780916e-05
      5.7861624699360125e-04 -1.0018521408017131e-03
      1.0562162399321672e-03 -1.9596964853360356e-03
      -4.8103879429993668e-04 1.2417360032644092e-03
      1.5785030568126292e-03 1.3477613432047112e-03
      -1.7716905902078026e-03 1.3806692500958412e-04
      1.9921204618604784e-04 -5.0663474489330790e-04
      -1.1411848445918328e-03 2.0273230379007751e-03
      -1.7884234705538801e-03 3.6967104600054936e-04
      1.1613467651545909e-03 -1.1933500761100403e-03
      -1.9176095862467196e-03 6.7441759012835316e-04
      8.4332019114908793e-04 -2.0858605296739229e-03
      -1.9603182746930992e-04 4.2126354886051201e-04
      2.1380855816146133e-03 1.8415711680296609e-03
      1.1498601023211905e-03 7.8494483919445957e-04
      -3.2003477156022540e-04 1.8506291670627921e-03
      2.0836390306867695e-03 -1.4744564711437604e-03
      1.6541769018599557e-03 6.9651187371065106e-04
      1.4461700794696621e-03 3.5475558029243325e-04
      -1.8649495167516583e-03 2.5444088276462717e-04
      -1.4062308741057772e-03 -9.5092602866498526e-04
      -1.2476504875636488e-03 -1.5989138633655245e-03
      4.1715494595985085e-04 1.8530335770376859e-04
      1.6098827455716550e-03 2.4079406832711137e-04
      7.1990010271616521e-04 -7.7459191466816069e-04
      -6.8801383167141936e-04 -1.5136805954136417e-03
      -2.0021390152837304e-03 -1.2589046948553639e-03
      1.0402328204540119e-03 7.7354724134036891e-05
      -1.4862651727119780e-03 2.1495771911103400e-03
      1.7901656275502770e-03 -1.6869409944139336e-03
      -1.8623281672683204e-03 1.7696147536819418e-03
      -1.6976556706877889e-03 1.0120995428413296e-03
      -3.3454997455299931e-05 6.0784733263821939e-04
      2.1206800625575310e-03 8.9311223633513988e-04
      2.2304277132600050e-03 2.7997068484253180e-04
      2.1303340402661669e-03 1.3018892179356145e-04
      -8.9977583513388773e-04 2.0876015158695122e-03
      5.0512050317949087e-04 -2.5837590205664323e-04
      1.9248976882960697e-03 -7.4679851613377690e-04
      -9.0856002679146877e-04 1.6001451342095732e-05
      3.2489808703353235e-04 2.9019219126485973e-03
      2.2219917598339826e-03 -1.9018371036834041e-03
      2.1164014308561435e-04 -1.6592473929559488e-03
      3.5982948430514361e-03 2.4837828806006609e-03
      -1.8695023148167299e-03 -3.4724732472543270e-04
      -3.6930940880632351e-05 -3.2542802003137287e-03
      -6.3849249375662798e-04 4.8121261620779845e-04
      1.7307547158313108e-03 -2.8572032003186193e-03
      7.4025715545613313e-04 2.5288281746983746e-03
      1.9502208009628829e-03 -1.0597704376676903e-03
      1.1387524394437932e-03 2.2292476000322298e-03
      2.5567786742565421e-03 -2.5215434106304556e-03
      7.7324208786055341e-04 4.7651835453679119e-04
      2.7089353124908505e-03 1.1656834879612548e-03
      -1.9703418571267588e-04 1.3198588361346573e-03
      2.0980810431895499e-03 -1.6710691627644996e-03
      3.7446510555086115e-03 2.9562920753083410e-04
      -5.5405170320434996e-04 1.4308965556619107e-03
      1.4800114589394683e-03 4.4346487963308222e-04
      -2.3327548749578256e-03 2.4579896693983300e-03
      -1.7180086464901646e-03 -8.8990505281905184e-04
      -8.8821781492288656e-05 -3.8736416650762102e-04
      -2.7779531563263899e-03 8.9922876042476641e-04
      -1.7318654009938517e-04 1.3569203854831267e-03
      9.8577686035856028e-04 -1.1357285111873387e-03
      1.2064002063757898e-03 2.5338898632788651e-04
      -1.2884812776302488e-03 -1.4943175060464764e-03
      -8.8907067117654040e-04 7.8284251233507146e-04
      1.5697121191509569e-03 -2.6111179418838646e-04
      6.2382083170159320e-04 1.9551199800270929e-03
      3.8589795351777077e-04 3.0393603485401248e-03
      -7.3193952005013991e-04 3.0760035743695384e-03
      -3.4429501765785371e-03 -3.0207833314052770e-04
      2.9434588318414936e-03 3.0172917692456698e-03
      2.2236243499749739e-03 2.0797462183703734e-03
      -1.5919617876020058e-03 -9.0771619863849948e-05
      -2.0670043114770368e-03 -4.5296972187211119e-04
      -5.1372963564023889e-04 -2.6545548139552777e-03
      -8.3918270244741138e-04 2.4624761500809012e-03
      -1.7381541519723319e-03 1.4634756124295514e-03
      1.5974052112001796e-03 4.1270625592962447e-03
      2.8141932404349390e-04 -1.2092348539375099e-03
      3.1734259932597129e-03 -4.1051051360704062e-03
      -7.2342083308879761e-04 -5.6910125940062102e-04
      3.2055594491523149e-04 -6.7781928536096833e-04
      -6.7159298286174939e-04 2.0448351078190103e-03
      -5.0378995415140744e-04 -7.7861873677463438e-04
      2.7738723232014952e-03 -3.7908390231144369e-03
      1.0553987374617190e-04 -1.7661218389551829e-03
      6.3027024000795864e-06 7.2656209066518168e-04
      1.0478612430149573e-03 -3.0198710518588071e-03
      -3.4606218053409559e-03 2.6793072358952123e-03
      1.2454997623664533e-03 3.0776021042375743e-04
      2.1628511837500119e-04 2.3170828837322413e-03
      8.7625493731182663e-05 -2.6774930829007184e-03
      2.7845182460594477e-03 -1.0928511880167881e-03
      2.7926375487387408e-03 6.9261677918177245e-04
      -1.6804528592986130e-03 1.2078134371822195e-03
      1.3770094879753134e-03 -1.6210882329660981e-03
      2.2776331980397878e-04 -8.5818234291766093e-04
      1.4634667319718419e-04 1.8972994432987337e-03
      1.0165669477003193e-03 -2.5112180697726613e-04
      -6.1762676138457282e-04 1.0531421462054482e-04
      1.1484911751529958e-03 -3.3087057426754215e-03
      3.6570356994439870e-03 1.7110285651233781e-03
      4.5993767747444366e-03 1.1027294071912876e-03
      1.6901298607710149e-03 4.2574400832044975e-03
      3.4740735043845791e-03 2.5759537274216123e-03
      -5.9204093600853719e-03 4.5035157469359120e-03
      -2.6349140266025395e-03 -1.9351170294656559e-03
      -3.1654524496218792e-03 -5.0619751591049738e-03
      2.2618848988978299e-03 -2.1009089786043545e-03
      -3.5882558745219649e-04 1.0503075958170210e-03
      1.7865485068008326e-03 -1.0773944270922699e-03
      5.1968142958154391e-03 -1.5645296516768022e-03
      4.0990167171749935e-03 -2.4904839276691801e-03
      2.9226634107153695e-03 3.8226971413951793e-03
      8.5188143496447693e-03 2.3419520705968235e-03
      9.0036075180478792e-03 8.7083743334489335e-04
      4.3564928805649014e-03 -2.6555813566858022e-03
      7.2760255269679868e-03 1.1043157812496495e-05
      -2.7757608081426764e-03 -2.1131214172849903e-03
      3.2371465471080370e-03 2.0740605842749097e-03
      -6.2813987603245270e-03 3.1758633329509261e-03
      -2.7535456898210241e-03 -4.5820237638214230e-03
      -1.8764371292091242e-03 -3.3527673140831648e-03
      -1.6859849115678244e-03 -4.7166819522074920e-03
      -3.4532324956320095e-03 -5.3448289534501630e-04
      3.8379957989307699e-03 -3.7027327521985437e-03
      5.0172686803260389e-04 1.0236203506931282e-03
      -5.0317452910349598e-03 -2.6674876241310000e-03
      -4.9026399610795470e-03 -2.3954691272828244e-03
      2.4169179369196853e-03 1.2380767992038937e-03
      3.5491347145772409e-03 6.2904229718159363e-03
      8.4863789288962821e-03 5.4727603025075114e-03
      -5.7726773840818101e-03 5.4478380989399786e-03
      -7.4769199590637792e-03 -2.7951367031858040e-03
      2.3250775643769831e-03 5.2796632134876169e-03
      4.9660659398799980e-03 2.5516720656627414e-03
      2.7348563328879862e-03 2.7790978830287017e-03
      -5.2638366670734625e-03 -5.0855957017637799e-03
      3.1372355311715446e-03 -2.2650424689495676e-03
      -1.9068166754926512e-03 9.3992953392054899e-04
      -5.8798986590712071e-03 4.9676258405298747e-03
      4.4847371397573298e-03 3.1687584149533055e-03
      -4.3604641682133839e-03 3.9578499286518293e-03
      6.5954899139515364e-03 -2.8140645134251577e-03
      -2.5583593217053443e-03 2.4254871807930160e-03
      1.9754108005923107e-03 -5.1385852216468530e-03
      3.2120202429942356e-04 4.3263008719362428e-03
      -5.8252226613590837e-04 -4.3224948647701414e-05
      3.2846009069881928e-03 -8.6842006719999704e-04
      -6.4324478189545079e-04 -2.5885377691411545e-03
      3.5067550702617949e-03 -3.3473526842721637e-03
      7.2821821307240270e-04 -6.0801289955020998e-03
      -2.0330473353766007e-03 3.9180935906968171e-03
      -1.2955696769337091e-03 -3.0471862580559029e-03
      6.8392709153110610e-03 9.3151170483405515e-03
      -6.0033889705374890e-03 -3.0171878642096372e-03
      1.7034123233226233e-03 -5.8069548456741310e-03
      4.7646554560025842e-03 -3.3167905243929415e-04
      -4.4697199999157184e-03 9.6943966003847819e-04
      2.8727116071992219e-03 -8.1885899528785690e-03
      1.6049560868386722e-03 -2.3469142039886448e-03
      -1.2477753366757223e-03 -4.4739142452499183e-03
      3.6806494910393080e-03 1.1050452541473549e-03
      4.2577844080312682e-03 -3.1106111894451164e-03
      9.6352604282275058e-04 -5.7842573974847735e-03
      1.9407969351998258e-03 1.4355400916454221e-03
      3.1907135179611483e-03 -6.8655807606014655e-04
      3.3386121167379157e-03 3.7780945259448411e-03
      6.9786053765656161e-03 4.8907881373740410e-03
      -5.5151570640957484e-03 2.1610646029263793e-03
      -2.0514318267151627e-03 -9.2257990438160983e-04
      -2.5422400068367519e-03 -5.0629283483776379e-03
      3.0639418512626282e-03 -5.4898123704542204e-03
      -2.3733849656548678e-03 1.7135733945691613e-03
      1.2833973206698485e-03 -3.6014690677087157e-03
      5.2076670144252614e-03 1.2238436991329935e-03
      2.5613745076282180e-03 -4.2152767738791566e-04
      1.1900883048854209e-03 5.6861679699668384e-03
      6.3201705747800022e-03 9.0186011381647522e-04
      5.6506509522194692e-03 1.2234782930911731e-03
      1.8830548156767721e-03 -2.1212760989436849e-03
      4.5747374161504532e-03 -2.3627857911017345e-03
      -4.4851878863096635e-03 -3.4221220287196435e-03
      3.9162164063701928e-03 -8.9007771281222873e-05
      -4.2998839110333104e-03 2.2388057453742631e-03
      -2.4912574008570357e-03 -5.1951404554614273e-03
      -6.6364436737993400e-04 -3.0705459580486721e-03
      -1.6183540204201168e-03 -3.3945324634262627e-03
      -3.7189636651394206e-03 5.2820751948584675e-04
      4.4572304429992219e-03 -2.5160854686582718e-03
      1.1309730699937070e-03 1.7776730066550285e-03
      -7.1498608319914810e-03 -4.5591821559657318e-03
      -2.5376417720990954e-03 -1.1711762103944986e-03
      1.0376779210471141e-03 6.2646529752045097e-04
      6.8228843093648406e-03 2.2242296054816642e-03
      6.3574253697278992e-03 7.3482455750347652e-03
      -7.5097757761960213e-03 3.9541443633802683e-03
      -6.8482382549946395e-03 -1.0631741604287420e-03
      1.1220810609032736e-03 5.4656883485499934e-03
      1.2828783828399144e-03 5.4324169908717109e-03
      8.9225830963710875e-04 2.1645946363257839e-03
      -5.4159769024666495e-03 -7.1100175049592452e-03
      3.3771951782109367e-04 -3.9560901780076995e-03
      -5.6707103398446384e-04 1.8236670056058723e-03
      -1.7818562451117383e-03 7.5579549455485444e-03
      3.9400297068662455e-03 2.0398224241882069e-03
      -4.6982561129303756e-03 2.1571177032492354e-03
      5.6575097555066510e-03 -2.8278458038837216e-03
      -3.3069100419888444e-03 3.4712149903726500e-03
      3.1733907802160692e-03 -4.0668844871561858e-03
      2.2260164475468307e-03 4.7774394155840582e-04
      9.5224208327012892e-04 -3.8420770814872723e-04
      5.4782544297889025e-03 -1.6130516118262191e-03
      9.5817749985130081e-04 -6.5944197786884243e-03
      3.1448863401504958e-03 -3.7809214696212902e-03
      3.0093954185721888e-03 -7.3901374971205545e-03
      -2.4923551495395838e-03 3.7404232913253225e-03
      -1.7312565791326538e-03 9.2397570370515150e-04
      9.0945675569086559e-03 6.6967787978269360e-03
      -3.9033502997554864e-03 -1.6824996669701448e-03
      7.9675042522136131e-04 -5.2393377233098020e-03
      5.7751361378245202e-03 -1.3869194834942925e-03
      -4.5165843989618086e-03 -8.2485287829327713e-04
      2.4763208291887725e-03 -5.6227895996328759e-03
      3.5959404530773190e-05 -1.9353162877501005e-03
      -3.3815581418521071e-04 -3.8544231710778997e-03
      4.6558802957882917e-03 3.8334462469522359e-04
      6.4048753351256885e-03 -4.1503616371246464e-03
      -1.5553332096511906e-03 1.7868089710784266e-03
      -1.0089972202685824e-03 -1.5167327183262034e-03
      -2.2955734021639519e-03 7.9712928749082817e-04
      1.4226253145872404e-03 -4.8003139824049317e-04
      -4.0442139692525311e-04 -6.3217813436252204e-04
      -1.6858844305431436e-03 -6.1838105729344916e-04
      -5.1752565798463438e-06 8.6893318728204568e-04
      1.8417266048461136e-03 -1.5265242689377189e-03
      -1.7265662650678077e-03 -3.6751871525936747e-04
      -1.8987859013061088e-03 1.3701917685269391e-03
      1.9011415719790883e-03 1.0518292182630079e-03
      1.4117866393124590e-03 -1.5332599827053051e-03
      9.6682117010628917e-04 -7.4559624923852691e-04
      -1.2353303551755786e-04 -1.6081478051155983e-04
      -1.0494709275226432e-03 -5.0954264886702812e-04
      6.7402664260890954e-04 1.4190219941498524e-03
      6.3393669259203525e-04 1.4941863154283759e-03
      -1.5857972351727033e-03 2.0601299201509220e-03
      -2.0956254879314585e-03 1.9846708952655223e-03
      1.3940507724334249e-03 1.5821538646962896e-03
      -1.5837709133600464e-03 1.7990801077623910e-03
      -1.2845592048231775e-03 2.0966347053726670e-03
      5.2281273264795089e-06 4.9748273483990696e-04
      3.2117339188614122e-04 2.0115906227619893e-03
      2.2191651103356130e-03 7.6431816032840275e-08
      -3.9887559960075563e-04 -1.4503745483700351e-03
      -2.1285459369617334e-03 -2.0631168055306874e-04
      3.2661377609805920e-04 1.4240447974046575e-03
      -4.0759860753337496e-04 -1.3620559649448224e-03
      3.7721401335275641e-04 -8.7333785857992424e-04
      -4.1257378105548283e-04 -1.1304704994513277e-03
      1.2105141429550016e-03 4.2669145804927829e-04
      6.3104895081556695e-04 -1.4298196760479146e-03
      -1.6501116361467686e-03 1.7190320677442644e-04
      -1.2993807803471299e-03 -1.6440058686212765e-03
      1.4778581098417020e-03 -4.6287291960971587e-04
      -1.6168375224441074e-03 -1.0489754446393719e-03
      1.4509697650928485e-03 1.9774278312014643e-03
      -2.1414795588506398e-03 7.0549009333543619e-04
      -1.6318607460576115e-03 -8.1273711466439279e-04
      -1.6607361551076358e-03 2.2044115670936146e-03
      3.4831157211653581e-04 -1.2635142134050554e-03
      2.0342858281675269e-04 8.4564817608566531e-04
      1.4306123383707114e-03 -9.9407482196631268e-04
      1.0816605750208963e-03 7.0018408133539219e-05
      -7.0956776547856110e-04 -1.1310014467636415e-03
      -3.7779114329419285e-04 -1.6181115304839480e-03
      -2.8279459747550462e-04 -1.2706754348479610e-03
      9.6666839038092687e-04 9.1530103678487797e-04
      1.8737449891250023e-03 2.1329145284439870e-03
      -4.5744695880567572e-04 -1.5806725395075577e-03
      7.2067425243418849e-04 -1.2091049114017825e-03
      -1.5698240336298479e-04 1.9776099011736045e-04
      -5.9042313869181560e-04 -1.0135052414034123e-03
      1.4873149594548887e-04 -1.9384181343376995e-03
      2.0317340854580732e-03 -7.5810204520272034e-04
      1.5474088213586119e-03 -8.5890394777616744e-05
      2.1999802064778511e-03 -1.5270212004295199e-03
      -1.4665920491928333e-03 -9.8980868235789155e-04
      5.0624800472211046e-05 1.0101682578078791e-03
      -8.1619803240694808e-04 1.3110054004191480e-03
      -7.8150233811812595e-04 -1.0335496769632671e-03
      1.2587039454748335e-03 1.4984823493049873e-03
      -9.0012239853506958e-04 -1.6125710896044195e-03
      -1.2371272605059833e-03 6.9691039664917815e-04
      9.2421482122134453e-04 -5.3935944600134989e-04
      -2.1028625434832463e-03 -1.1494828052107874e-03
      5.7543425777101807e-04 -7.4328592774185285e-04
      -7.7288797501669768e-04 5.7112955512118077e-04
      8.2754726158629460e-04 8.9264438189371115e-04
      4.9809781348118549e-04 -1.5398719746116739e-03
      -1.4378174671897752e-03 -2.2108546823124643e-03
      -1.5590718755185565e-03 -1.8512546901098593e-03
      1.8452633983626846e-03 -1.2103002387889711e-03
      1.7007732379001506e-03 2.0978665005923864e-03
      7.0553903196917582e-04 -2.1599115572169605e-03
      -4.0334284188431742e-04 -9.4762801391353845e-04
      1.2593698490262150e-03 6.1019919680272458e-04
      1.7378536369257729e-03 -8.2084786536955150e-04
      -1.2099135925752976e-03 -1.2798805085447588e-03
      6.1179590321505867e-04 -3.5856083139605639e-04
      8.7535216606312650e-04 -1.2474697219259454e-04
      1.2992296676916581e-03 -1.4735941432702684e-03
      -1.6866633400027347e-03 1.1733409487888564e-03
      2.1042914533933154e-03 1.7581636041854153e-04
      -2.6665877878863343e-04 1.7634557710523512e-03
      -2.1886237630502963e-03 7.1648434251354973e-04
      -8.8303537582774155e-04 -2.1281086659356621e-04
      1.9781017409157033e-03 -8.0752037940188160e-04
      4.1498735266281721e-04 -3.1351383505873155e-04
      -6.3874119736191806e-05 2.0605425347521274e-03
      -5.9029828956832131e-04 -7.2910212401408820e-04
      -1.6793755499673953e-03 1.0556421222926563e-03
      1.4237159106655398e-03 8.3149427119601118e-04
      2.8131585231029084e-04 1.4566265258052190e-03
      1.8391069032666562e-03 -1.2613434213671994e-04
      3.2875394246493985e-04 1.2406638201622911e-03
      -2.5038760301766318e-05 -4.1256633617765403e-04
      2.7517789600132482e-04 -8.6184490955810322e-05
      -8.9505964712239790e-04 1.5265412425976696e-03
      8.9455722071427632e-04 -1.9151031272077650e-03
      1.1706409243785155e-03 1.8999927438902726e-03
      2.1686036429588596e-03 1.9209032664671887e-03
      1.5654812823372125e-03 1.8335285233400085e-03
      -2.1768036213559003e-04 -1.3743097516840583e-03
      1.3267463276602563e-03 -2.5527587389734653e-04
      6.7647741440638397e-04 2.8855870543531746e-05
      7.0814648653538131e-04 1.5383209540770870e-03
      8.7397042871041359e-04 -1.3925944089013727e-03
      -1.3192750622313849e-03 6.6796393785877517e-04
      1.2411783072352888e-03 -7.2560530865543838e-04
      -4.9787093029198741e-04 -1.8426706766858536e-03
      -1.7614682579525273e-04 -1.8569319948562358e-03
      2.9784654362750531e-04 -1.5272405370060237e-03
      1.1426857128488735e-03 1.5850400938201318e-03
      -1.2990062196938348e-04 5.5382831658618004e-04
      -9.5544022851616443e-04 1.7845151870537774e-04
      2.0797882787293364e-03 1.5701151642102792e-03
      1.5891304631407250e-03 -2.1316379400128449e-03
      4.9635511185028855e-04 1.9616417868559633e-03
      -9.2293158585464267e-04 6.9838946353177752e-04
      2.2223567960754794e-03 1.2138253905538132e-03
      -2.1830876435964403e-03 -1.3182359403986622e-03
      -1.4802811445109880e-03 7.2341244363507290e-04
      -5.7449671771414145e-04 2.7379442899091717e-04
      1.0051156434037027e-03 7.4451957849168535e-04
      -7.6691137227150627e-04 -1.0049810000671881e-03
      -1.3541055503618401e-03 -1.9371809033661969e-03
      -6.5546100991901960e-05 1.1261415054161607e-03
      -1.5657191233662056e-03 -1.1156887402680470e-03
      1.0666993952691683e-03 -3.0795111297097527e-05
      -9.3796138213492783e-04 1.2942023293816044e-03
      -7.5478882069783494e-04 -9.2395929239840542e-04
      1.3613728847315478e-03 2.1717532518136353e-03
      1.6399168012542181e-03 -1.5361857472778208e-03
      1.9408964504846729e-03 -1.2136505500017930e-03
      -1.1833419159765961e-03 -1.0843537460126515e-03
      8.5667880650366034e-04 -1.3827182987993462e-03
      -1.9162807363431484e-03 2.2689150617427549e-04
      1.9491830655492652e-03 -9.7264550438578366e-05
      4.9429195802739841e-04 3.3734756937898068e-05
      2.7585472841618514e-04 1.9394674658652475e-03
      -2.4389649019692646e-04 -3.1216668412329746e-04
      2.1685719458912245e-03 -1.7778024335609892e-03
      -9.9892761956165755e-04 -5.2425781930978948e-04
      -5.6457613229372397e-05 -6.9184839291807482e-04
      2.1749216144136490e-04 -1.7577543348382691e-03
      -1.5452814663656700e-03 -3.0789498740300058e-04
      -1.8061194690275522e-04 3.0922985491781292e-04
      1.4681308032935820e-03 -1.2346504684012435e-03
      -3.6920085189679820e-04 -6.6669503554429800e-04
      7.5043434166135407e-04 4.3362938133457946e-04
      1.1502162286647557e-03 1.0222990203041366e-03
      -1.4515467229842224e-03 1.5418717445230803e-03
      1.4071476531478295e-03 -1.5733045049033097e-03
      -1.0409779536246560e-03 -1.9009592208838876e-03
      -8.9754114478447940e-04 -2.2006093627894032e-03
      -1.4754271793158064e-03 1.0953034924058083e-03
      2.0928653290131168e-03 1.7236922459051859e-04
      -1.3607948016710332e-03 -1.8559234821524527e-03
      1.6083171011500520e-03 4.4102511290254989e-04
      4.9106254955549303e-04 2.3149856557531912e-03
      2.8691944249615697e-04 1.4450450054032543e-03
      6.7145118472045835e-05 -9.8100114499902256e-04
      1.4593173737368311e-03 7.4178094195246171e-04
      1.8640092699733818e-03 1.8262984469619619e-03
      1.4554719889419822e-03 -6.0909213571246198e-04
      -2.0418840052132950e-03 2.5188045243331082e-04
      -7.1386654708714681e-04 -9.5499042695869850e-04
      1.6664901855110591e-03 -7.7239412271499326e-04
      -6.3575957033826344e-04 -1.3173207237738912e-03
      -1.1823246898487439e-03 -1.4668249140431478e-04
      -1.2196029715972607e-03 3.2549810164871117e-04
      -6.1573686962339313e-04 1.9933698507424717e-03
      2.2580403293726687e-03 -4.3162958938988715e-04
      -9.2494856701638012e-04 1.9163650494240690e-03
      -7.6375587155959215e-04 -8.8490453477375831e-04
      1.4823101306282748e-03 -8.5762748477362946e-04
      -6.9089622141154587e-04 9.8231592884332267e-04
      6.0856202044486899e-04 -7.4237253628102907e-04
      -1.3776728072824661e-03 1.3064651356346191e-03
      -2.1313534647670147e-03 -9.2182716773155354e-04
      2.1331847825957974e-03 -1.0552759031146951e-03
      2.8384962858564613e-04 -1.7237350473963244e-03
      -1.0342657928241019e-03 6.6816100568395408e-04
      -2.9876062736553183e-04 4.8585809016352550e-04
      -1.1473708348984002e-03 2.0914367862959042e-03
      -1.6150944617090279e-03 1.4808650428367394e-03
      1.8897507213330319e-03 6.7975466751758859e-04
      -2.9245706745140485e-04 -6.3375497447284317e-04
      -1.5454181682708020e-03 1.1741861809691256e-03
      2.1485154867529606e-03 1.8883208964542504e-03
